0 0 0 0 -0 -0 -0 -0 0 0 0 0 0 -0 -0 -0 -0 -0 0 0 0 0 0 -0 -0 -0 -0 -0 -0 0 0 0 0 0 0 0 -0 -0 -0 -0 -0 -0 -0 -0 -0 -0 -0 0 0 0 0 0 0 0 0 0 0 0 0 0 0 0
0 0.0074803034743093 0.0095417541342138 0.0040238634499341 -0.0065617666213804 -0.01628743533091 -0.019070468842773 -0.012153623193787 0.0021100702190153 0.01718059212248 0.025522440007741 0.022421420403521 0.0084686673237014 -0.010539027353855 -0.026213233223721 -0.031403409085252 -0.023413966213912 -0.0051603023960004 0.016152967280709 0.032110310575422 0.036490992851624 0.027573364946872 0.0085231341080573 -0.014073197875587 -0.032750469609138 -0.041715934520151 -0.038518258560581 -0.024419577032668 -0.0035800041415625 0.018467827234831 0.036456279293824 0.046641450235845 0.047422717338194 0.039312868421159 0.02442803403023 0.0057456244112796 -0.013630696693317 -0.031041938358485 -0.044600589383186 -0.053289749465317 -0.05688116408859 -0.055753824215375 -0.050675986095518 -0.042601502900532 -0.03250906991829 -0.021290236983237 -0.0096886035068257 0.0017255098790042 0.012549783678686 0.022531245125764 0.03153739012423 0.039527689122683 0.046526408697112 0.052600165867272 0.057839912610282 0.062347501575942 0.066226799813406 0.069577348327137 0.072490543546217 0.075047540851814 0.077318648901092 0.079363407082671
0 0.0095417541342138 0.012171307256514 0.0051327751395094 -0.0083700833799506 -0.02077598909432 -0.024325981632546 -0.015502965187613 0.0026915714455862 0.021915285452781 0.032556011704 0.028600401249095 0.010802495075866 -0.013443412846765 -0.033437176358229 -0.040057680747408 -0.029866476632563 -0.006582398279687 0.020604463824211 0.040959392855677 0.046547320319207 0.035172138387112 0.010871972025109 -0.017951543606778 -0.041775969365908 -0.053212171409529 -0.049133267670945 -0.031149217529404 -0.0045665953842081 0.023557261743871 0.046503040266293 0.059495079596981 0.060491651277443 0.050146859158015 0.03116000513872 0.0073290255760685 -0.017387096255166 -0.039596594534347 -0.056891790499808 -0.067975542572337 -0.072556692982475 -0.071118676472468 -0.06464146828975 -0.054341788113404 -0.041468043824376 -0.027157481972608 -0.012358625941249 0.0022010324952939 0.016008301095117 0.028740491888612 0.040228584793877 0.050420880970622 0.059348334470719 0.067095920887182 0.073779657091076 0.079529464675239 0.084477834767748 0.08875174026404 0.092467764970912 0.095729429380069 0.098626418077502 0.10123467854441
0 0.0040238634499341 0.0051327751395094 0.0021645481522674 -0.0035297569096565 -0.0087614648184132 -0.010258536009012 -0.0065377722069314 0.001135065503726 0.0092419187172425 0.013729230886554 0.012061106125867 0.0045555318752145 -0.0056692361630351 -0.014100827785369 -0.01689276784765 -0.012595024144372 -0.0027758702936569 0.0086891307113484 0.017273029835518 0.019629520766337 0.014832480497946 0.0045848310745796 -0.0075703648588262 -0.017617389198312 -0.022440162323893 -0.020720043419274 -0.013135970194535 -0.0019257838756571 0.0099343583138244 0.019610847377359 0.025089734327024 0.025509999647619 0.02114748618091 0.01314051944892 0.0030907312978678 -0.0073323311560485 -0.016698322682336 -0.023991898467875 -0.028666039535172 -0.030597961426547 -0.029991533929713 -0.027260023465552 -0.022916534205124 -0.017487533585346 -0.011452611078081 -0.0052117695045279 0.00092819979275858 0.0067508779587192 0.012120183900886 0.016964839977822 0.021263044215704 0.025027850281207 0.028295093323514 0.031113698942728 0.0335384565142 0.035625239014768 0.037427592321413 0.038994681117321 0.040370161140947 0.041591853375992 0.042691785716848
-0 -0.0065617666213804 -0.0083700833799506 -0.0035297569096565 0.0057560206402506 0.014287434977647 0.016728728498296 0.010661230426776 -0.0018509661244969 -0.01507091741826 -0.02238843591228 -0.019668203103397 -0.0074287652584002 0.0092448973694511 0.022994403822869 0.027547256904866 0.020538870181436 0.0045266479006631 -0.014169478805617 -0.028167355089215 -0.032010115591858 -0.024187519446092 -0.0074765438450295 0.012345092734976 0.028728906394486 0.036593465446172 0.033788445108487 0.021420997962384 0.003140400888973 -0.016200087701672 -0.031979664652847 -0.040914157076843 -0.041599489217736 -0.03448548159612 -0.021428416490857 -0.0050400958477696 0.011956928070572 0.027230172637143 0.039123901819439 0.046746084634692 0.04989649486597 0.048907585635694 0.044453275887689 0.037370291287436 0.028517149152382 0.018675922290811 0.0084989005215124 -0.0015136275109423 -0.011008744756302 -0.019764542001824 -0.02766478586776 -0.034673923590977 -0.040813241956016 -0.046141177808138 -0.050737514761693 -0.054691598565826 -0.058094542012759 -0.061033663062624 -0.06358913520567 -0.065832148424111 -0.067824377889464 -0.069618051906936
-0 -0.01628743533091 -0.02077598909432 -0.0087614648184132 0.014287434977647 0.035463875305283 0.041523586452551 0.02646301082368 -0.0045944168380233 -0.037408613715031 -0.055571955408065 -0.048819868886833 -0.018439475329778 0.022947428144611 0.057076072168964 0.068377037964143 0.050981014588372 0.011235920020017 -0.035171087762739 -0.069916228499127 -0.079454622165101 -0.060037590716763 -0.018558070013928 0.030642647198067 0.071310095592751 0.090831286203689 0.083868742427281 0.053170607729186 0.0077950160899688 -0.04021140891179 -0.079379037687851 -0.10155598727582 -0.10325709973059 -0.085598907087301 -0.053189021795052 -0.012510386290585 0.029679155621176 0.067589980178795 0.097112265270253 0.11603183630152 0.12385169730368 0.12139705420744 0.11034068994601 0.092759501786935 0.070784477632585 0.046356856942391 0.021095735434561 -0.003757084276547 -0.027325601265447 -0.049058998631689 -0.068668765100004 -0.086066652586641 -0.10130549855849 -0.11453035333402 -0.12593925359057 -0.13575397087158 -0.14420066282586 -0.15149606767513 -0.15783918983589 -0.16340673510985 -0.16835179189921 -0.17280399985631
-0 -0.019070468842773 -0.024325981632546 -0.010258536009012 0.016728728498296 0.041523586452551 0.04861872023404 0.030984744568176 -0.0053794646842866 -0.043800622247133 -0.065067533507268 -0.057161718195603 -0.021590227841841 0.026868454398285 0.066828658647097 0.080060620076973 0.059692138788444 0.013155801285361 -0.041180770312735 -0.081862812045453 -0.093031030707346 -0.070296211766766 -0.021729086795571 0.035878555265346 0.083494849161172 0.10635162493687 0.098199391546109 0.062255867633524 0.0091269502197529 -0.047082330962257 -0.092942531113082 -0.11890885531038 -0.1209006367915 -0.10022518938177 -0.062277428110188 -0.014648035563517 0.034750431916024 0.079139077755054 0.11370583467937 0.13585819215862 0.14501423253984 0.14214016466262 0.12919459982211 0.10860931465015 0.082879418878325 0.054277851485371 0.024700363018889 -0.0043990571369812 -0.031994725808904 -0.057441708031695 -0.080402194618452 -0.10077285853841 -0.11861556559459 -0.13410015084837 -0.1474584894973 -0.15895024718078 -0.16884022509725 -0.17738219552087 -0.18480916674593 -0.19132803828836 -0.19711805676035 -0.20233101333714
-0 -0.012153623193787 -0.015502965187613 -0.0065377722069314 0.010661230426776 0.02646301082368 0.030984744568176 0.019746599485417 -0.0034283366232961 -0.027914167335577 -0.041467584825328 -0.036429203172008 -0.013759467374458 0.017123284867743 0.042589951114435 0.051022689431426 0.038041841993881 0.0083842014033764 -0.026244533856888 -0.052171227639289 -0.05928874124011 -0.044799825154153 -0.013847962283243 0.022865428481468 0.053211326039924 0.067777965302594 0.062582541234317 0.039675708188312 0.0058166117883026 -0.030005602605691 -0.059232340386499 -0.075780697043254 -0.077050060780736 -0.063873583618453 -0.03968944869524 -0.0093352033573965 0.022146474678244 0.050435389862125 0.072464808339092 0.086582521326461 0.092417672295111 0.090586026817432 0.082335809248086 0.069216792543288 0.05281911188822 0.034591312891164 0.015741558708196 -0.0028035222044932 -0.020390261239819 -0.03660764089129 -0.051240375126726 -0.064222613556812 -0.075593783301293 -0.085462120364114 -0.093975398971612 -0.10129910421823 -0.10760199409381 -0.11304579784699 -0.11777901182744 -0.12193349324207 -0.12562347608275 -0.12894569697214
0 0.0021100702190153 0.0026915714455862 0.001135065503726 -0.0018509661244969 -0.0045944168380233 -0.0053794646842866 -0.0034283366232961 0.00059521600219385 0.0048463616358882 0.0071994593216568 0.0063247128440682 0.0023888713574071 -0.002972885770361 -0.0073943206929293 -0.0088583836891005 -0.0066046936446744 -0.0014556361843219 0.0045564856191746 0.0090577889388083 0.010293507147532 0.0077779914160243 0.0024042355388189 -0.0039698169767541 -0.0092383672424986 -0.011767377004379 -0.010865365363337 -0.006888359868627 -0.0010098601145002 0.0052094694275401 0.010283715025493 0.013156783739102 0.01337716630131 0.011089511697547 0.0068907454481369 0.0016207458696731 -0.0038449946924986 -0.0087564187597076 -0.012581090557516 -0.015032159284946 -0.016045238108115 -0.015727234125877 -0.014294859753569 -0.012017181236622 -0.0091702723717107 -0.0060056246606029 -0.0027329952312513 0.00048673787377852 0.0035400869612345 0.0063556925866028 0.0088961775301167 0.011150109073879 0.013124332418689 0.01483763912694 0.016315685251082 0.017587201743516 0.018681487785475 0.019626622252341 0.020448386569133 0.021169673330181 0.021810315447898 0.022387108001683
0 0.01718059212248 0.021915285452781 0.0092419187172425 -0.01507091741826 -0.037408613715031 -0.043800622247133 -0.027914167335577 0.0048463616358882 0.039459996067376 0.058619363940171 0.051497012130931 0.019450643895557 -0.024205800066281 -0.060205962201258 -0.072126640931358 -0.053776668937606 -0.011852066028982 0.037099770533475 0.073750236312895 0.08381168845372 0.063329882032659 0.019575741976064 -0.032323003122777 -0.075220539127424 -0.095812216504354 -0.088467866560544 -0.0560863331605 -0.0082224726796468 0.042416488609021 0.08373195913796 0.10712502978724 0.10891942642774 0.090292908546873 0.056105757001549 0.013196420417726 -0.031306676398546 -0.071296423127747 -0.10243762666133 -0.12239469334595 -0.13064337336236 -0.12805412459569 -0.1163914606542 -0.097846169965221 -0.074666097768033 -0.048898935592143 -0.022252565776093 0.003963112129915 0.02882405979241 0.051749255073251 0.072434365556534 0.090786303883709 0.1068608049786 0.12081087330803 0.13284540531946 0.14319833387921 0.15210821848058 0.15980368265509 0.16649464365741 0.17236749733462 0.177583727023 0.18228008144598
0 0.025522440007741 0.032556011704 0.013729230886554 -0.02238843591228 -0.055571955408065 -0.065067533507268 -0.041467584825328 0.0071994593216568 0.058619363940171 0.087081352539493 0.076500821003127 0.028894690497118 -0.035958660541313 -0.089438306167534 -0.107146939582 -0.079887340144716 -0.0176067065696 0.055113156810387 0.10955885387615 0.12450553364273 0.094079010976632 0.029080528577206 -0.048017082425912 -0.11174304608033 -0.14233278633868 -0.13142246791075 -0.083318436474027 -0.012214804017551 0.063011348977097 0.12438709263303 0.1591384119116 0.16180405814082 0.13413363899703 0.083347291347849 0.019603797472593 -0.046507289418631 -0.10591361863853 -0.15217509165928 -0.18182209297086 -0.1940758290098 -0.19022939893096 -0.17290405655305 -0.1453543035724 -0.1109194018059 -0.072641276924319 -0.033057054785411 0.0058873577149508 0.04281926557518 0.076875537736803 0.10760407652053 0.13486659702285 0.15874589564795 0.17946926650173 0.19734703340832 0.21272671276902 0.22596269402003 0.23739460633861 0.24733428999786 0.256058643302 0.26380755604837 0.27078417380177
0 0.022421420403521 0.028600401249095 0.012061106125867 -0.019668203103397 -0.048819868886833 -0.057161718195603 -0.036429203172008 0.0063247128440682 0.051497012130931 0.076500821003127 0.067205841933821 0.025383936757968 -0.031589622500817 -0.078571400781154 -0.09412840530099 -0.070180893275115 -0.015467461958916 0.048416815094329 0.096247267931285 0.10937790084027 0.082648252111272 0.025547195197183 -0.042182925742812 -0.098166077090481 -0.12503911219838 -0.1154544159023 -0.07319510560047 -0.010730684681444 0.055355363561634 0.10927385061346 0.13980282585585 0.1421445915622 0.11783617511862 0.073220454558347 0.017221902941301 -0.040856575138079 -0.093044934936957 -0.13368556078503 -0.15973040132179 -0.17049528771822 -0.16711620539598 -0.15189592140385 -0.12769350998061 -0.097442506987694 -0.063815238984783 -0.029040566749149 0.0051720338005611 0.037616652425864 0.067535029950932 0.09452999932874 0.11848007750531 0.13945800098175 0.1576634472459 0.17336903525265 0.18688005757313 0.19850784472796 0.20855076037527 0.21728275566782 0.22494708529781 0.23175449204669 0.23788343894974
0 0.0084686673237014 0.010802495075866 0.0045555318752145 -0.0074287652584002 -0.018439475329778 -0.021590227841841 -0.013759467374458 0.0023888713574071 0.019450643895557 0.028894690497118 0.025383936757968 0.0095876225457752 -0.011931536852978 -0.029676757422037 -0.03555270521931 -0.026507626498712 -0.0058421271852826 0.018287240171575 0.036353008786062 0.041312505546509 0.031216601777193 0.009649285963374 -0.015932673239567 -0.037077751292757 -0.047227812716661 -0.043607631529681 -0.027646107512271 -0.0040530259496144 0.020907959895012 0.041273205326452 0.052804131129027 0.053688626150314 0.044507232272416 0.027655681923142 0.0065047871216959 -0.0154317048877 -0.035143473783346 -0.050493613691534 -0.060330862448978 -0.064396806534058 -0.063120512546817 -0.05737174554714 -0.048230390223255 -0.036804455739862 -0.024103291380227 -0.010968747486295 0.001953499504296 0.014207972086189 0.025508272493781 0.035704389018061 0.044750436984858 0.052673889284792 0.059550164967414 0.065482233389424 0.070585404873477 0.074977270301843 0.078770522916816 0.08206863525198 0.084963485655185 0.087534672585177 0.089849602301154
-0 -0.010539027353855 -0.013443412846765 -0.0056692361630351 0.0092448973694511 0.022947428144611 0.026868454398285 0.017123284867743 -0.002972885770361 -0.024205800066281 -0.035958660541313 -0.031589622500817 -0.011931536852978 0.01484847479073 0.036931921669565 0.044244379722082 0.032988023980328 0.0072703692159536 -0.022757975609142 -0.045240335857681 -0.051412295390607 -0.038848216307124 -0.012008275307798 0.019827780768041 0.046142258298439 0.058773735117754 0.054268517579133 0.03440483279866 0.0050438811345584 -0.026019390398077 -0.051363387330064 -0.065713312507606 -0.066814042630468 -0.055388046363632 -0.034416747893942 -0.0080950315777183 0.019204339208474 0.043735102272298 0.062837936070613 0.075080125990061 0.08014008339469 0.078551770059314 0.071397585068369 0.06002141569871 0.045802149377217 0.029995893977697 0.013650309473375 -0.0024310772786996 -0.017681436846631 -0.031744354959977 -0.044433146105631 -0.055690708048055 -0.065551230056312 -0.074108569097011 -0.081490867748599 -0.087841626587752 -0.093307184285886 -0.098027784533978 -0.10213219610049 -0.10573475910345 -0.10893453167111 -0.1118153990693
-0 -0.026213233223721 -0.033437176358229 -0.014100827785369 0.022994403822869 0.057076072168964 0.066828658647097 0.042589951114435 -0.0073943206929293 -0.060205962201258 -0.089438306167534 -0.078571400781154 -0.029676757422037 0.036931921669565 0.091859053366102 0.11004699063331 0.082049579828617 0.018083251658955 -0.056604855677124 -0.11252418606952 -0.12787541434248 -0.096625364010634 -0.029867625416386 0.049316718149649 0.1147674958642 0.14618518145391 0.13497956312706 0.085573542594951 0.012545411269338 -0.064716821196445 -0.12775376759516 -0.16344566996832 -0.16618346487653 -0.13776411507322 -0.085603178458016 -0.020134396047707 0.04776606091596 0.10878028848723 0.15629387971119 0.18674331007634 0.19932870710552 0.19537816911993 0.17758389708735 0.14928847941103 0.11392155874172 0.074607393850611 0.033951780727725 -0.0060467055973753 -0.043978216606651 -0.078956259639856 -0.11051650049135 -0.13851691142294 -0.16304252981557 -0.18432680174283 -0.20268845028818 -0.2184843977707 -0.23207862557071 -0.24381995530679 -0.25402866755574 -0.26298915518224 -0.27094780086773 -0.27811324853759
-0 -0.031403409085252 -0.040057680747408 -0.01689276784765 0.027547256904866 0.068377037964143 0.080060620076973 0.051022689431426 -0.0088583836891005 -0.072126640931358 -0.107146939582 -0.09412840530099 -0.03555270521931 0.044244379722082 0.11004699063331 0.13183610873043 0.098295257919552 0.021663704915417 -0.067812521403569 -0.134803784675 -0.15319453019282 -0.11575702272741 -0.035781364753855 0.059081344967167 0.13749126601643 0.17512960023735 0.1617052884263 0.10251695935592 0.015029381491072 -0.077530642381418 -0.15304879759519 -0.19580763629659 -0.19908750996805 -0.16504117695015 -0.10255246306977 -0.024120972425424 0.057223660222789 0.13031860170094 0.18723980365955 0.22371816975841 0.23879545412217 0.23406271629432 0.21274520848274 0.17884734594347 0.13647783477386 0.089379531699853 0.04067417591206 -0.0072439430829395 -0.052685829144063 -0.094589465563063 -0.1323985807466 -0.16594302570443 -0.19532467507516 -0.22082319686028 -0.24282042077492 -0.26174393915395 -0.27802980107562 -0.29209589424925 -0.30432591426437 -0.31506056329209 -0.32459500736822 -0.33317920156262
-0 -0.023413966213912 -0.029866476632563 -0.012595024144372 0.020538870181436 0.050981014588372 0.059692138788444 0.038041841993881 -0.0066046936446744 -0.053776668937606 -0.079887340144716 -0.070180893275115 -0.026507626498712 0.032988023980328 0.082049579828617 0.098295257919552 0.073287643442414 0.016152171682404 -0.050560118511753 -0.10050791782891 -0.11421981429957 -0.086306904190081 -0.026678112021535 0.0440502689112 0.10251166835032 0.13057431223093 0.12056532300509 0.076435288162386 0.011205707937398 -0.057805820900954 -0.11411115800344 -0.14599158225874 -0.14843701266156 -0.12305251734055 -0.076461759261567 -0.017984277817813 0.042665203750825 0.097163824761407 0.13960351963326 0.16680130663335 0.17804273031867 0.17451406362838 0.15862001192495 0.1333462142279 0.10175606742785 0.06664019596581 0.030326127268487 -0.0054009880946049 -0.039281856953244 -0.070524653704737 -0.098714629610918 -0.12372492383646 -0.14563149276366 -0.16464285315326 -0.18104369218762 -0.19515281705275 -0.20729534017065 -0.21778283308695 -0.22690137415528 -0.23490498640549 -0.2420137417276 -0.24841400331371
-0 -0.0051603023960004 -0.006582398279687 -0.0027758702936569 0.0045266479006631 0.011235920020017 0.013155801285361 0.0083842014033764 -0.0014556361843219 -0.011852066028982 -0.0176067065696 -0.015467461958916 -0.0058421271852826 0.0072703692159536 0.018083251658955 0.021663704915417 0.016152171682404 0.0035598449861857 -0.011143156965146 -0.022151362330118 -0.025173384808703 -0.019021541263642 -0.0058797012060132 0.0097084238582294 0.022592977327003 0.028777821327042 0.026571898135227 0.016845894328188 0.0024696730570951 -0.012740067760101 -0.02514943759104 -0.032175698249621 -0.032714656931446 -0.027120061345651 -0.016851728404965 -0.0039636305556149 0.00940316352769 0.021414343607574 0.030767806285872 0.036762040844009 0.03923958544486 0.038461887766037 0.0349589309266 0.029388732455288 0.022426447264773 0.014687112801417 0.006683702614724 -0.0011903464603446 -0.0086574935106347 -0.015543224764432 -0.021756132004616 -0.027268255838641 -0.032096336612756 -0.036286330212019 -0.039900980040767 -0.043010549354307 -0.045686691045394 -0.047998073676153 -0.050007747257 -0.051771696990851 -0.053338425446256 -0.054749005990198
0 0.016152967280709 0.020604463824211 0.0086891307113484 -0.014169478805617 -0.035171087762739 -0.041180770312735 -0.026244533856888 0.0045564856191746 0.037099770533475 0.055113156810387 0.048416815094329 0.018287240171575 -0.022757975609142 -0.056604855677124 -0.067812521403569 -0.050560118511753 -0.011143156965146 0.034880717455885 0.0693390044775 0.078798649760303 0.059541924112511 0.018404855745409 -0.030389663414063 -0.070721363891338 -0.090081388770181 -0.083176327320919 -0.052731634508167 -0.007730660923326 0.039879426027907 0.078723689303783 0.10071754737918 0.10240461555564 0.08489220784942 0.052749896548653 0.012407101321676 -0.029434126363536 -0.067031961518206 -0.096310512465334 -0.11507388469823 -0.1228291854157 -0.12039480769977 -0.10942972409206 -0.09199368512584 -0.070200085400267 -0.045974137622875 -0.02092157035861 0.0037260660230992 0.02710000280577 0.048653970598927 0.068101840058392 0.085356091671092 0.10046912668109 0.11358479788046 0.1248995069681 0.1346331945554 0.14301015114775 0.15024532558962 0.15653607932945 0.1620576592969 0.16696189000585 0.17137734081174
0 0.032110310575422 0.040959392855677 0.017273029835518 -0.028167355089215 -0.069916228499127 -0.081862812045453 -0.052171227639289 0.0090577889388083 0.073750236312895 0.10955885387615 0.096247267931285 0.036353008786062 -0.045240335857681 -0.11252418606952 -0.134803784675 -0.10050791782891 -0.022151362330118 0.0693390044775 0.13783826402113 0.15664299151704 0.11836275294102 0.036586815525016 -0.060411286270201 -0.14058624148767 -0.17907182749824 -0.1653453298322 -0.10482465121 -0.015367698014081 0.079275883685776 0.15649397842874 0.20021533322876 0.2035690379795 0.16875631034885 0.1048609541246 0.024663943773076 -0.058511784406206 -0.13325211804272 -0.19145463574567 -0.2287541423546 -0.24417082155143 -0.23933154817472 -0.21753417596378 -0.18287326093306 -0.13954999756087 -0.091391495559502 -0.041589765537556 0.0074070067218628 0.05387180519627 0.096718706817711 0.13537891812882 0.16967846002735 0.19972150038488 0.22579400262537 0.24828639158158 0.26763588483821 0.28428834708756 0.29867107283437 0.31117639478726 0.32215268443984 0.33190175211645 0.34067917946116
0 0.036490992851624 0.046547320319207 0.019629520766337 -0.032010115591858 -0.079454622165101 -0.093031030707346 -0.05928874124011 0.010293507147532 0.08381168845372 0.12450553364273 0.10937790084027 0.041312505546509 -0.051412295390607 -0.12787541434248 -0.15319453019282 -0.11421981429957 -0.025173384808703 0.078798649760303 0.15664299151704 0.17801317337867 0.13451051372811 0.041578209611245 -0.068652958378132 -0.15976586464692 -0.20350188646781 -0.1879027371842 -0.11912546248948 -0.017464252083784 0.090091177975032 0.17784383102593 0.22752991679963 0.23134115418391 0.19177906423988 0.1191667180667 0.028028747769419 -0.066494315010985 -0.15143117583804 -0.21757403211644 -0.25996216242862 -0.27748207800359 -0.27198260175959 -0.24721150053759 -0.2078219343842 -0.15858825007241 -0.10385967470877 -0.047263692245112 0.0084175152621014 0.061221321846258 0.10991365626357 0.15384812682194 0.19282701914045 0.22696871230012 0.2565981825803 0.28215911892469 0.30414838677844 0.32307267838489 0.3394175823428 0.35362895575565 0.36610269705781 0.37718179135874 0.38715668829221
0 0.027573364946872 0.035172138387112 0.014832480497946 -0.024187519446092 -0.060037590716763 -0.070296211766766 -0.044799825154153 0.0077779914160243 0.063329882032659 0.094079010976632 0.082648252111272 0.031216601777193 -0.038848216307124 -0.096625364010634 -0.11575702272741 -0.086306904190081 -0.019021541263642 0.059541924112511 0.11836275294102 0.13451051372811 0.10163898525034 0.031417373380603 -0.051875625410899 -0.12072246183803 -0.15377032370069 -0.14198327702299 -0.090013715577521 -0.013196357747469 0.068074796947833 0.1343825550696 0.17192641092988 0.17480626239688 0.1449123116205 0.090044889163047 0.021179113826595 -0.050244508888679 -0.11442459493207 -0.16440353417904 -0.19643290074809 -0.2096713190052 -0.20551579859749 -0.18679823130884 -0.15703464315264 -0.11983263139243 -0.078478563892542 -0.035713444145248 0.0063604523234411 0.046260123879354 0.083053080225128 0.11625089414538 0.14570416847785 0.17150235295651 0.19389100652206 0.21320538991177 0.22982094515061 0.24412053959978 0.25647109426091 0.26720950817862 0.27663493057191 0.2850065282339 0.29254377104262
0 0.0085231341080573 0.010871972025109 0.0045848310745796 -0.0074765438450295 -0.018558070013928 -0.021729086795571 -0.013847962283243 0.0024042355388189 0.019575741976064 0.029080528577206 0.025547195197183 0.009649285963374 -0.012008275307798 -0.029867625416386 -0.035781364753855 -0.026678112021535 -0.0058797012060132 0.018404855745409 0.036586815525016 0.041578209611245 0.031417373380603 0.0097113459732512 -0.016035145263132 -0.037316219260251 -0.047531561463957 -0.043888096846361 -0.027823915249734 -0.0040790932494561 0.021042430798094 0.041538656629268 0.053143744330653 0.054033928039162 0.044793483429747 0.027833551239051 0.0065466230828804 -0.015530954900746 -0.03536950131931 -0.050818366650077 -0.060718884312326 -0.064810978781076 -0.063526476226097 -0.057740735657791 -0.048540587112953 -0.037041165989243 -0.024258313265453 -0.011039293698722 0.0019660635633354 0.01429935158218 0.025672330606363 0.035934024116817 0.045038252329105 0.053012664827531 0.059933165724164 0.065903386629815 0.071039379492974 0.075459491489314 0.079277140655041 0.082596465014066 0.085509933835805 0.088097657521664 0.09042747585858
-0 -0.014073197875587 -0.017951543606778 -0.0075703648588262 0.012345092734976 0.030642647198067 0.035878555265346 0.022865428481468 -0.0039698169767541 -0.032323003122777 -0.048017082425912 -0.042182925742812 -0.015932673239567 0.019827780768041 0.049316718149649 0.059081344967167 0.0440502689112 0.0097084238582294 -0.030389663414063 -0.060411286270201 -0.068652958378132 -0.051875625410899 -0.016035145263132 0.026476853395808 0.06161566050238 0.078482992445882 0.072466989662628 0.04594219215827 0.0067353024984436 -0.034744765088817 -0.068587649427825 -0.08774969633622 -0.089219546665528 -0.073961942620114 -0.045958102876401 -0.010809629520574 0.025644346169375 0.058401285784878 0.083910087593787 0.10025758868495 0.10701435848983 0.10489341818798 0.095340139917063 0.080149071782407 0.061161499033119 0.040054754317425 0.018227821205109 -0.0032463177526028 -0.02361075183815 -0.042389546376995 -0.059333412504212 -0.074366099249681 -0.087533260954412 -0.098960228696762 -0.10881811654658 -0.11729854674215 -0.1245969313467 -0.13090054354471 -0.13638133358339 -0.14119198453794 -0.14546477281239 -0.14931171386176
-0 -0.032750469609138 -0.041775969365908 -0.017617389198312 0.028728906394486 0.071310095592751 0.083494849161172 0.053211326039924 -0.0092383672424986 -0.075220539127424 -0.11174304608033 -0.098166077090481 -0.037077751292757 0.046142258298439 0.1147674958642 0.13749126601643 0.10251166835032 0.022592977327003 -0.070721363891338 -0.14058624148767 -0.15976586464692 -0.12072246183803 -0.037316219260251 0.06161566050238 0.14338900330753 0.18264184740782 0.16864169491489 0.10691446118772 0.015674072213983 -0.080856347162706 -0.15961388079711 -0.20420687525866 -0.20762744029054 -0.1721206775764 -0.10695148784614 -0.025155650210369 0.059678289702956 0.13590866497729 0.19527152236007 0.23331464108863 0.24903867098625 0.2441029206676 0.22187099069368 0.18651906715273 0.14233210056744 0.093213498848753 0.04241890931231 -0.0075546746260602 -0.05494580672852 -0.098646914698271 -0.13807786547196 -0.17306121145726 -0.20370319724198 -0.23029548728714 -0.25323629003076 -0.27297153953465 -0.28995598935907 -0.30462545265688 -0.31738008377789 -0.32857519943532 -0.33851862691823 -0.34747104320907
-0 -0.041715934520151 -0.053212171409529 -0.022440162323893 0.036593465446172 0.090831286203689 0.10635162493687 0.067777965302594 -0.011767377004379 -0.095812216504354 -0.14233278633868 -0.12503911219838 -0.047227812716661 0.058773735117754 0.14618518145391 0.17512960023735 0.13057431223093 0.028777821327042 -0.090081388770181 -0.17907182749824 -0.20350188646781 -0.15377032370069 -0.047531561463957 0.078482992445882 0.18264184740782 0.23264018617242 0.2148074817368 0.13618237281458 0.019964860899588 -0.10299083109443 -0.20330829692841 -0.26010865610543 -0.26446560330634 -0.219238838436 -0.13622953554771 -0.032042027778886 0.076015264978932 0.17311376101097 0.24872724384232 0.29718469403351 0.31721318856902 0.31092627300543 0.28260833600737 0.23757879764667 0.18129561677277 0.11873076205551 0.054031116634578 -0.009622772307785 -0.069987261343093 -0.12565157945154 -0.17587678172112 -0.22043684415183 -0.25946709586481 -0.29333904467971 -0.32255990888452 -0.3476976973153 -0.36933165265066 -0.38801689221152 -0.4042631128924 -0.41852289961561 -0.43118834761477 -0.44259149438619
-0 -0.038518258560581 -0.049133267670945 -0.020720043419274 0.033788445108487 0.083868742427281 0.098199391546109 0.062582541234317 -0.010865365363337 -0.088467866560544 -0.13142246791075 -0.1154544159023 -0.043607631529681 0.054268517579133 0.13497956312706 0.1617052884263 0.12056532300509 0.026571898135227 -0.083176327320919 -0.1653453298322 -0.1879027371842 -0.14198327702299 -0.043888096846361 0.072466989662628 0.16864169491489 0.2148074817368 0.19834171803795 0.12574350563647 0.018434482724698 -0.095096214602315 -0.18772398697714 -0.24017039495722 -0.24419336653271 -0.20243339535688 -0.125787053177 -0.029585891458246 0.070188422354418 0.15984397050471 0.22966140875381 0.27440442163654 0.2928976602508 0.28709265930782 0.26094539371878 0.21936753093344 0.16739865768512 0.1096296234174 0.049889437808046 -0.0088851523065321 -0.064622486811557 -0.11601993534442 -0.16239519577021 -0.20353956963896 -0.23957801260946 -0.27085355509485 -0.29783453528267 -0.321045422095 -0.34102105718219 -0.35827400613205 -0.37327489574453 -0.38644161868484 -0.39813621468106 -0.40866526936479
-0 -0.024419577032668 -0.031149217529404 -0.013135970194535 0.021420997962384 0.053170607729186 0.062255867633524 0.039675708188312 -0.006888359868627 -0.0560863331605 -0.083318436474027 -0.07319510560047 -0.027646107512271 0.03440483279866 0.085573542594951 0.10251695935592 0.076435288162386 0.016845894328188 -0.052731634508167 -0.10482465121 -0.11912546248948 -0.090013715577521 -0.027823915249734 0.04594219215827 0.10691446118772 0.13618237281458 0.12574350563647 0.079718121664775 0.011686983985664 -0.060288533925906 -0.11901213949374 -0.15226180205941 -0.15481226171047 -0.12833752294713 -0.079745729676151 -0.018756687933036 0.044497639574994 0.10133693206322 0.14559937733618 0.17396528718243 0.18568952087835 0.1820093008217 0.16543261251579 0.1390733257494 0.10612640781976 0.069502338219497 0.031628609786551 -0.0056329561435158 -0.040968980782334 -0.073553630261147 -0.10295434272058 -0.12903880875553 -0.15188624701319 -0.17171412987968 -0.18881937162048 -0.20353447193113 -0.21619850654788 -0.22713642876103 -0.23664660375698 -0.24499396464826 -0.25240803523368 -0.25908318285299
-0 -0.0035800041415625 -0.0045665953842081 -0.0019257838756571 0.003140400888973 0.0077950160899688 0.0091269502197529 0.0058166117883026 -0.0010098601145002 -0.0082224726796468 -0.012214804017551 -0.010730684681444 -0.0040530259496144 0.0050438811345584 0.012545411269338 0.015029381491072 0.011205707937398 0.0024696730570951 -0.007730660923326 -0.015367698014081 -0.017464252083784 -0.013196357747469 -0.0040790932494561 0.0067353024984436 0.015674072213983 0.019964860899588 0.018434482724698 0.011686983985664 0.0017133569109358 -0.00883853151325 -0.017447638495697 -0.022322167220392 -0.022696074438418 -0.018814775663557 -0.011691031426573 -0.0027498027665439 0.0065235255203284 0.014856384940421 0.02134543006929 0.02550398181623 0.027222799678305 0.026683265229079 0.024253058812761 0.020388685745772 0.015558540551936 0.010189310746096 0.004636876137381 -0.00082581308824672 -0.0060062105367402 -0.010783245778975 -0.015093503578642 -0.018917586866844 -0.02226710940268 -0.025173953476413 -0.027681647864099 -0.029838938303042 -0.03169553460347 -0.033299076170581 -0.034693304491038 -0.035917059780571 -0.037003991113006 -0.037982593489726
0 0.018467827234831 0.023557261743871 0.0099343583138244 -0.016200087701672 -0.04021140891179 -0.047082330962257 -0.030005602605691 0.0052094694275401 0.042416488609021 0.063011348977097 0.055355363561634 0.020907959895012 -0.026019390398077 -0.064716821196445 -0.077530642381418 -0.057805820900954 -0.012740067760101 0.039879426027907 0.079275883685776 0.090091177975032 0.068074796947833 0.021042430798094 -0.034744765088817 -0.080856347162706 -0.10299083109443 -0.095096214602315 -0.060288533925906 -0.00883853151325 0.045594492783203 0.090005475036594 0.1151512432478 0.11708008288913 0.097057995655002 0.060309413074783 0.014185146277576 -0.033652291312393 -0.07663822151169 -0.11011264210459 -0.13156496790443 -0.14043167030749 -0.13764842520453 -0.12511195025455 -0.10517717606154 -0.080260364954172 -0.052562629276392 -0.023919812388007 0.0042600435192084 0.030983667655794 0.055626505501724 0.077861422902435 0.097588358041479 0.11486722171452 0.12986248206326 0.14279868684914 0.15392729607593 0.16350474301882 0.17177678055126 0.17896905372468 0.18528192386983 0.19088897326693 0.19593719637233
0 0.036456279293824 0.046503040266293 0.019610847377359 -0.031979664652847 -0.079379037687851 -0.092942531113082 -0.059232340386499 0.010283715025493 0.08373195913796 0.12438709263303 0.10927385061346 0.041273205326452 -0.051363387330064 -0.12775376759516 -0.15304879759519 -0.11411115800344 -0.02514943759104 0.078723689303783 0.15649397842874 0.17784383102593 0.1343825550696 0.041538656629268 -0.068587649427825 -0.15961388079711 -0.20330829692841 -0.18772398697714 -0.11901213949374 -0.017447638495697 0.090005475036594 0.17767464976707 0.22731346960813 0.23112108139609 0.19159662651728 0.11905335582489 0.028002084270299 -0.066431059558964 -0.15128712070376 -0.21736705586971 -0.25971486272954 -0.27721811176424 -0.27172386712321 -0.24697633043006 -0.20762423522154 -0.1584373864769 -0.10376087392153 -0.04721873071394 0.0084095077545016 0.06116308254586 0.10980909637738 0.15370177246364 0.19264358450765 0.22675279897747 0.25635408300541 0.2818907034578 0.3038590531161 0.32276534221182 0.33909469740758 0.35329255166697 0.36575442680968 0.37682298166648 0.38678838956898
0 0.046641450235845 0.059495079596981 0.025089734327024 -0.040914157076843 -0.10155598727582 -0.11890885531038 -0.075780697043254 0.013156783739102 0.10712502978724 0.1591384119116 0.13980282585585 0.052804131129027 -0.065713312507606 -0.16344566996832 -0.19580763629659 -0.14599158225874 -0.032175698249621 0.10071754737918 0.20021533322876 0.22752991679963 0.17192641092988 0.053143744330653 -0.08774969633622 -0.20420687525866 -0.26010865610543 -0.24017039495722 -0.15226180205941 -0.022322167220392 0.1151512432478 0.22731346960813 0.29082040422213 0.29569178822416 0.24512497419273 0.15231453342683 0.035825318581383 -0.084990597465024 -0.19355378135981 -0.27809515714833 -0.33227411244793 -0.35466742670355 -0.34763819763871 -0.31597668353218 -0.26563038308962 -0.20270169145077 -0.1327496313717 -0.060410719948788 0.010758959637057 0.078250850775023 0.14048760881081 0.19664303956378 0.2464644317554 0.29010309319026 0.32797439664333 0.36064544906812 0.38875132567427 0.41293966192481 0.4338311193774 0.45199557624799 0.46793905541188 0.48209994787091 0.4948494957065
0 0.047422717338194 0.060491651277443 0.025509999647619 -0.041599489217736 -0.10325709973059 -0.1209006367915 -0.077050060780736 0.01337716630131 0.10891942642774 0.16180405814082 0.1421445915622 0.053688626150314 -0.066814042630468 -0.16618346487653 -0.19908750996805 -0.14843701266156 -0.032714656931446 0.10240461555564 0.2035690379795 0.23134115418391 0.17480626239688 0.054033928039162 -0.089219546665528 -0.20762744029054 -0.26446560330634 -0.24419336653271 -0.15481226171047 -0.022696074438418 0.11708008288913 0.23112108139609 0.29569178822416 0.30064477029067 0.24923093739354 0.15486587635408 0.036425410188682 -0.08641423153885 -0.19679590185878 -0.28275338703835 -0.33783986633647 -0.36060827955776 -0.35346130746831 -0.32126944751582 -0.27007982191802 -0.20609704391773 -0.13497325262093 -0.061422629052955 0.010939177472854 0.079561590795588 0.14284084496656 0.19993690664854 0.25059283152547 0.29496246188169 0.33346812818929 0.36668643672061 0.39526310050562 0.41985660321813 0.44109800280042 0.45956672320727 0.47577726344462 0.490175357778 0.50313846677525
0 0.039312868421159 0.050146859158015 0.02114748618091 -0.03448548159612 -0.085598907087301 -0.10022518938177 -0.063873583618453 0.011089511697547 0.090292908546873 0.13413363899703 0.11783617511862 0.044507232272416 -0.055388046363632 -0.13776411507322 -0.16504117695015 -0.12305251734055 -0.027120061345651 0.08489220784942 0.16875631034885 0.19177906423988 0.1449123116205 0.044793483429747 -0.073961942620114 -0.1721206775764 -0.219238838436 -0.20243339535688 -0.12833752294713 -0.018814775663557 0.097057995655002 0.19159662651728 0.24512497419273 0.24923093739354 0.20660948166172 0.12838196884876 0.03019623164405 -0.071636369758726 -0.16314146109394 -0.23439919355535 -0.28006522945515 -0.29893997310899 -0.29301521828402 -0.26632854941351 -0.22389295886514 -0.17085199719254 -0.11189122046343 -0.050918628656813 0.0090684479668073 0.065955612117697 0.11841336090657 0.16574531669186 0.20773847569279 0.2445203713326 0.27644111054761 0.30397869307693 0.3276684073395 0.348056128466 0.36566499598206 0.380975345452 0.39441369043004 0.40634953931881 0.41709580243789
0 0.02442803403023 0.03116000513872 0.01314051944892 -0.021428416490857 -0.053189021795052 -0.062277428110188 -0.03968944869524 0.0068907454481369 0.056105757001549 0.083347291347849 0.073220454558347 0.027655681923142 -0.034416747893942 -0.085603178458016 -0.10255246306977 -0.076461759261567 -0.016851728404965 0.052749896548653 0.1048609541246 0.1191667180667 0.090044889163047 0.027833551239051 -0.045958102876401 -0.10695148784614 -0.13622953554771 -0.125787053177 -0.079745729676151 -0.011691031426573 0.060309413074783 0.11905335582489 0.15231453342683 0.15486587635408 0.12838196884876 0.079773347248744 0.018763183756608 -0.044513050015104 -0.10137202710955 -0.14564980137004 -0.17402553490938 -0.18575382894655 -0.18207233435464 -0.16548990520349 -0.1391214896785 -0.10616316155922 -0.069526408296715 -0.031639563419183 0.0056349069511119 0.040983169175937 0.073579103383425 0.1029899979092 0.12908349752674 0.15193884831823 0.17177359798495 0.18888476361983 0.20360496006982 0.21627338050004 0.22721509073873 0.23672855930225 0.24507881105485 0.25249544928412 0.25917290864319
0 0.0057456244112796 0.0073290255760685 0.0030907312978678 -0.0050400958477696 -0.012510386290585 -0.014648035563517 -0.0093352033573965 0.0016207458696731 0.013196420417726 0.019603797472593 0.017221902941301 0.0065047871216959 -0.0080950315777183 -0.020134396047707 -0.024120972425424 -0.017984277817813 -0.0039636305556149 0.012407101321676 0.024663943773076 0.028028747769419 0.021179113826595 0.0065466230828804 -0.010809629520574 -0.025155650210369 -0.032042027778886 -0.029585891458246 -0.018756687933036 -0.0027498027665439 0.014185146277576 0.028002084270299 0.035825318581383 0.036425410188682 0.03019623164405 0.018763183756608 0.0044132166547615 -0.010469744166509 -0.023843326600118 -0.034257732456657 -0.040931880163749 -0.043690447326347 -0.042824537070487 -0.038924247361897 -0.032722233244033 -0.024970231000925 -0.016353040455235 -0.0074418206442041 0.0013253649022075 0.0096394944012877 0.017306259359092 0.024223883320798 0.030361235520024 0.035736955124536 0.040402210696707 0.044426862490442 0.047889143571157 0.050868834265306 0.053442392062498 0.055680018600386 0.057644049363185 0.059388488461598 0.060959068126393
-0 -0.013630696693317 -0.017387096255166 -0.0073323311560485 0.011956928070572 0.029679155621176 0.034750431916024 0.022146474678244 -0.0038449946924986 -0.031306676398546 -0.046507289418631 -0.040856575138079 -0.0154317048877 0.019204339208474 0.04776606091596 0.057223660222789 0.042665203750825 0.00940316352769 -0.029434126363536 -0.058511784406206 -0.066494315010985 -0.050244508888679 -0.015530954900746 0.025644346169375 0.059678289702956 0.076015264978932 0.070188422354418 0.044497639574994 0.0065235255203284 -0.033652291312393 -0.066431059558964 -0.084990597465024 -0.08641423153885 -0.071636369758726 -0.044513050015104 -0.010469744166509 0.02483801532696 0.056564984026431 0.081271716891341 0.097105206268609 0.10364952410249 0.10159527216808 0.092342376011227 0.077628958064464 0.059238408356015 0.038795319447135 0.017654686903668 -0.0031442443321726 -0.022868362958591 -0.041056699034583 -0.057467802042869 -0.072027818559696 -0.084780967424347 -0.095848638951263 -0.10539656689952 -0.11361034836173 -0.12067925109267 -0.12678465987773 -0.13209311836154 -0.13675250883118 -0.14089094854606 -0.1446169308782
-0 -0.031041938358485 -0.039596594534347 -0.016698322682336 0.027230172637143 0.067589980178795 0.079139077755054 0.050435389862125 -0.0087564187597076 -0.071296423127747 -0.10591361863853 -0.093044934936957 -0.035143473783346 0.043735102272298 0.10878028848723 0.13031860170094 0.097163824761407 0.021414343607574 -0.067031961518206 -0.13325211804272 -0.15143117583804 -0.11442459493207 -0.03536950131931 0.058401285784878 0.13590866497729 0.17311376101097 0.15984397050471 0.10133693206322 0.014856384940421 -0.07663822151169 -0.15128712070376 -0.19355378135981 -0.19679590185878 -0.16314146109394 -0.10137202710955 -0.023843326600118 0.056564984026431 0.12881856202244 0.18508456924775 0.22114304903843 0.2360467854628 0.23136852408295 0.21029639265776 0.17678871339365 0.13490689889269 0.088350723515561 0.040205993496335 -0.0071605612639869 -0.052079385910486 -0.093500688138654 -0.13087459935097 -0.16403292906682 -0.19307637929099 -0.21828139889054 -0.24002542250792 -0.25873112065212 -0.27482952323366 -0.28873370784162 -0.30082295351561 -0.31143404075502 -0.32085873807021 -0.329344123409
-0 -0.044600589383186 -0.056891790499808 -0.023991898467875 0.039123901819439 0.097112265270253 0.11370583467937 0.072464808339092 -0.012581090557516 -0.10243762666133 -0.15217509165928 -0.13368556078503 -0.050493613691534 0.062837936070613 0.15629387971119 0.18723980365955 0.13960351963326 0.030767806285872 -0.096310512465334 -0.19145463574567 -0.21757403211644 -0.16440353417904 -0.050818366650077 0.083910087593787 0.19527152236007 0.24872724384232 0.22966140875381 0.14559937733618 0.02134543006929 -0.11011264210459 -0.21736705586971 -0.27809515714833 -0.28275338703835 -0.23439919355535 -0.14564980137004 -0.034257732456657 0.081271716891341 0.18508456924775 0.26592672077536 0.31773500131356 0.33914846528163 0.3324268098096 0.30215068883191 0.25400736006218 0.19383219994144 0.12694098853359 0.057767365747728 -0.010288186549437 -0.074826877094392 -0.13434038011925 -0.18803865270694 -0.23568004130872 -0.27740923304797 -0.31362342549214 -0.34486491104945 -0.37174097633959 -0.3948709186445 -0.41484824162112 -0.43221788767966 -0.44746373796803 -0.46100500108637 -0.47319667490786
-0 -0.053289749465317 -0.067975542572337 -0.028666039535172 0.046746084634692 0.11603183630152 0.13585819215862 0.086582521326461 -0.015032159284946 -0.12239469334595 -0.18182209297086 -0.15973040132179 -0.060330862448978 0.075080125990061 0.18674331007634 0.22371816975841 0.16680130663335 0.036762040844009 -0.11507388469823 -0.2287541423546 -0.25996216242862 -0.19643290074809 -0.060718884312326 0.10025758868495 0.23331464108863 0.29718469403351 0.27440442163654 0.17396528718243 0.02550398181623 -0.13156496790443 -0.25971486272954 -0.33227411244793 -0.33783986633647 -0.28006522945515 -0.17402553490938 -0.040931880163749 0.097105206268609 0.22114304903843 0.31773500131356 0.37963665616367 0.40522192635459 0.39719074692287 0.3610161823264 0.30349349116815 0.23159490751224 0.15167184042606 0.06902169882823 -0.012292547951813 -0.089404772196474 -0.16051279363428 -0.22467265188935 -0.28159561407169 -0.33145455548767 -0.37472405638728 -0.41205205947643 -0.44416416395155 -0.47180031960829 -0.49566965746087 -0.51642328649498 -0.53463935837852 -0.55081875261973 -0.56538562836049
-0 -0.05688116408859 -0.072556692982475 -0.030597961426547 0.04989649486597 0.12385169730368 0.14501423253984 0.092417672295111 -0.016045238108115 -0.13064337336236 -0.1940758290098 -0.17049528771822 -0.064396806534058 0.08014008339469 0.19932870710552 0.23879545412217 0.17804273031867 0.03923958544486 -0.1228291854157 -0.24417082155143 -0.27748207800359 -0.2096713190052 -0.064810978781076 0.10701435848983 0.24903867098625 0.31721318856902 0.2928976602508 0.18568952087835 0.027222799678305 -0.14043167030749 -0.27721811176424 -0.35466742670355 -0.36060827955776 -0.29893997310899 -0.18575382894655 -0.043690447326347 0.10364952410249 0.2360467854628 0.33914846528163 0.40522192635459 0.43253149276432 0.42395905923509 0.38534654246985 0.32394716139902 0.24720303751586 0.1618936273759 0.073673353996099 -0.013120993139009 -0.095430126218185 -0.17133040865526 -0.23981426271584 -0.30057349661709 -0.35379263644081 -0.39997824634509 -0.43982193655037 -0.47409820735679 -0.50359687680938 -0.52907486716778 -0.55122716832076 -0.57067089594669 -0.58794068587668 -0.60348928307562
-0 -0.055753824215375 -0.071118676472468 -0.029991533929713 0.048907585635694 0.12139705420744 0.14214016466262 0.090586026817432 -0.015727234125877 -0.12805412459569 -0.19022939893096 -0.16711620539598 -0.063120512546817 0.078551770059314 0.19537816911993 0.23406271629432 0.17451406362838 0.038461887766037 -0.12039480769977 -0.23933154817472 -0.27198260175959 -0.20551579859749 -0.063526476226097 0.10489341818798 0.2441029206676 0.31092627300543 0.28709265930782 0.1820093008217 0.026683265229079 -0.13764842520453 -0.27172386712321 -0.34763819763871 -0.35346130746831 -0.29301521828402 -0.18207233435464 -0.042824537070487 0.10159527216808 0.23136852408295 0.3324268098096 0.39719074692287 0.42395905923509 0.41555652458685 0.37770927749308 0.31752678379755 0.24230366800687 0.15868502318707 0.072213206144274 -0.012860945388954 -0.093538776276328 -0.16793477489379 -0.23506133290406 -0.29461636664274 -0.34678074503 -0.39205099252129 -0.43110501216718 -0.46470195428186 -0.49361598333875 -0.51858901999445 -0.5403022799855 -0.55936064824357 -0.57628816453865 -0.59152860078702
-0 -0.050675986095518 -0.06464146828975 -0.027260023465552 0.044453275887689 0.11034068994601 0.12919459982211 0.082335809248086 -0.014294859753569 -0.1163914606542 -0.17290405655305 -0.15189592140385 -0.05737174554714 0.071397585068369 0.17758389708735 0.21274520848274 0.15862001192495 0.0349589309266 -0.10942972409206 -0.21753417596378 -0.24721150053759 -0.18679823130884 -0.057740735657791 0.095340139917063 0.22187099069368 0.28260833600737 0.26094539371878 0.16543261251579 0.024253058812761 -0.12511195025455 -0.24697633043006 -0.31597668353218 -0.32126944751582 -0.26632854941351 -0.16548990520349 -0.038924247361897 0.092342376011227 0.21029639265776 0.30215068883191 0.3610161823264 0.38534654246985 0.37770927749308 0.34330900819372 0.28860769834407 0.22023560685947 0.14423261797309 0.065636312521695 -0.011689621274913 -0.085019633947617 -0.15263993882459 -0.21365287503553 -0.26778387150315 -0.31519732432072 -0.35634453645718 -0.39184167023054 -0.42237873554247 -0.44865938902361 -0.47135798012721 -0.49109368215089 -0.5084162894956 -0.52380211445871 -0.53765451196293
-0 -0.042601502900532 -0.054341788113404 -0.022916534205124 0.037370291287436 0.092759501786935 0.10860931465015 0.069216792543288 -0.012017181236622 -0.097846169965221 -0.1453543035724 -0.12769350998061 -0.048230390223255 0.06002141569871 0.14928847941103 0.17884734594347 0.1333462142279 0.029388732455288 -0.09199368512584 -0.18287326093306 -0.2078219343842 -0.15703464315264 -0.048540587112953 0.080149071782407 0.18651906715273 0.23757879764667 0.21936753093344 0.1390733257494 0.020388685745772 -0.10517717606154 -0.20762423522154 -0.26563038308962 -0.27007982191802 -0.22389295886514 -0.1391214896785 -0.032722233244033 0.077628958064464 0.17678871339365 0.25400736006218 0.30349349116815 0.32394716139902 0.31752678379755 0.28860769834407 0.24262224863165 0.18514425800693 0.12125124277503 0.055178118349838 -0.0098270497136591 -0.071472988712931 -0.12831897901929 -0.17961038899918 -0.2251163964931 -0.26497520346184 -0.2995662042936 -0.32940738478007 -0.35507881175552 -0.3771720243749 -0.39625392428929 -0.4128450285141 -0.42740752968871 -0.44034184665607 -0.45198706558369
-0 -0.03250906991829 -0.041468043824376 -0.017487533585346 0.028517149152382 0.070784477632585 0.082879418878325 0.05281911188822 -0.0091702723717107 -0.074666097768033 -0.1109194018059 -0.097442506987694 -0.036804455739862 0.045802149377217 0.11392155874172 0.13647783477386 0.10175606742785 0.022426447264773 -0.070200085400267 -0.13954999756087 -0.15858825007241 -0.11983263139243 -0.037041165989243 0.061161499033119 0.14233210056744 0.18129561677277 0.16739865768512 0.10612640781976 0.015558540551936 -0.080260364954172 -0.1584373864769 -0.20270169145077 -0.20609704391773 -0.17085199719254 -0.10616316155922 -0.024970231000925 0.059238408356015 0.13490689889269 0.19383219994144 0.23159490751224 0.24720303751586 0.24230366800687 0.22023560685947 0.18514425800693 0.14128298812768 0.092526433592179 0.042106244739365 -0.007498990046848 -0.054540807932596 -0.097919800400507 -0.13706011047682 -0.17178559851362 -0.20220172598292 -0.22859800752278 -0.25136971642572 -0.27095949982834 -0.28781875935821 -0.30238009584297 -0.31504071414382 -0.32615331197812 -0.33602344767776 -0.34490987680717
-0 -0.021290236983237 -0.027157481972608 -0.011452611078081 0.018675922290811 0.046356856942391 0.054277851485371 0.034591312891164 -0.0060056246606029 -0.048898935592143 -0.072641276924319 -0.063815238984783 -0.024103291380227 0.029995893977697 0.074607393850611 0.089379531699853 0.06664019596581 0.014687112801417 -0.045974137622875 -0.091391495559502 -0.10385967470877 -0.078478563892542 -0.024258313265453 0.040054754317425 0.093213498848753 0.11873076205551 0.1096296234174 0.069502338219497 0.010189310746096 -0.052562629276392 -0.10376087392153 -0.1327496313717 -0.13497325262093 -0.11189122046343 -0.069526408296715 -0.016353040455235 0.038795319447135 0.088350723515561 0.12694098853359 0.15167184042606 0.1618936273759 0.15868502318707 0.14423261797309 0.12125124277503 0.092526433592179 0.060595695396468 0.027575440676354 -0.0049110994449737 -0.035718854124733 -0.064127819132258 -0.089760864901227 -0.11250263732105 -0.13242220326254 -0.14970916628154 -0.16462239142996 -0.17745176895876 -0.18849292244777 -0.19802916280569 -0.20632062007152 -0.21359827649129 -0.22006224265921 -0.22588197796924
-0 -0.0096886035068257 -0.012358625941249 -0.0052117695045279 0.0084989005215124 0.021095735434561 0.024700363018889 0.015741558708196 -0.0027329952312513 -0.022252565776093 -0.033057054785411 -0.029040566749149 -0.010968747486295 0.013650309473375 0.033951780727725 0.04067417591206 0.030326127268487 0.006683702614724 -0.02092157035861 -0.041589765537556 -0.047263692245112 -0.035713444145248 -0.011039293698722 0.018227821205109 0.04241890931231 0.054031116634578 0.049889437808046 0.031628609786551 0.004636876137381 -0.023919812388007 -0.04721873071394 -0.060410719948788 -0.061422629052955 -0.050918628656813 -0.031639563419183 -0.0074418206442041 0.017654686903668 0.040205993496335 0.057767365747728 0.06902169882823 0.073673353996099 0.072213206144274 0.065636312521695 0.055178118349838 0.042106244739365 0.027575440676354 0.012548827495417 -0.0022349067951853 -0.016254671829401 -0.02918281340969 -0.040847710203624 -0.051196867716133 -0.060261716387713 -0.068128539601573 -0.074915139750024 -0.080753437943407 -0.08577796437293 -0.090117646070526 -0.093890861089487 -0.097202723121159 -0.10014429701401 -0.10279269909511
0 0.0017255098790042 0.0022010324952939 0.00092819979275858 -0.0015136275109423 -0.003757084276547 -0.0043990571369812 -0.0028035222044932 0.00048673787377852 0.003963112129915 0.0058873577149508 0.0051720338005611 0.001953499504296 -0.0024310772786996 -0.0060467055973753 -0.0072439430829395 -0.0054009880946049 -0.0011903464603446 0.0037260660230992 0.0074070067218628 0.0084175152621014 0.0063604523234411 0.0019660635633354 -0.0032463177526028 -0.0075546746260602 -0.009622772307785 -0.0088851523065321 -0.0056329561435158 -0.00082581308824672 0.0042600435192084 0.0084095077545016 0.010758959637057 0.010939177472854 0.0090684479668073 0.0056349069511119 0.0013253649022075 -0.0031442443321726 -0.0071605612639869 -0.010288186549437 -0.012292547951813 -0.013120993139009 -0.012860945388954 -0.011689621274913 -0.0098270497136591 -0.007498990046848 -0.0049110994449737 -0.0022349067951853 0.0003980298864567 0.0028949060410865 0.0051973674843934 0.0072748489956676 0.0091180014700798 0.010732422570445 0.01213347909653 0.013342151284711 0.014381933870731 0.015276786259453 0.016049669950653 0.016721667704121 0.017311499938408 0.017835385017238 0.018307057116453
0 0.012549783678686 0.016008301095117 0.0067508779587192 -0.011008744756302 -0.027325601265447 -0.031994725808904 -0.020390261239819 0.0035400869612345 0.02882405979241 0.04281926557518 0.037616652425864 0.014207972086189 -0.017681436846631 -0.043978216606651 -0.052685829144063 -0.039281856953244 -0.0086574935106347 0.02710000280577 0.05387180519627 0.061221321846258 0.046260123879354 0.01429935158218 -0.02361075183815 -0.05494580672852 -0.069987261343093 -0.064622486811557 -0.040968980782334 -0.0060062105367402 0.030983667655794 0.06116308254586 0.078250850775023 0.079561590795588 0.065955612117697 0.040983169175937 0.0096394944012877 -0.022868362958591 -0.052079385910486 -0.074826877094392 -0.089404772196474 -0.095430126218185 -0.093538776276328 -0.085019633947617 -0.071472988712931 -0.054540807932596 -0.035718854124733 -0.016254671829401 0.0028949060410865 0.021054903844842 0.03780090651548 0.052910610539898 0.066316019064164 0.078057844377607 0.088247850553714 0.097038628679458 0.10460105801481 0.1111093973987 0.11673064781945 0.12161814602574 0.12590804725267 0.12971830907256 0.13314882134284
0 0.022531245125764 0.028740491888612 0.012120183900886 -0.019764542001824 -0.049058998631689 -0.057441708031695 -0.03660764089129 0.0063556925866028 0.051749255073251 0.076875537736803 0.067535029950932 0.025508272493781 -0.031744354959977 -0.078956259639856 -0.094589465563063 -0.070524653704737 -0.015543224764432 0.048653970598927 0.096718706817711 0.10991365626357 0.083053080225128 0.025672330606363 -0.042389546376995 -0.098646914698271 -0.12565157945154 -0.11601993534442 -0.073553630261147 -0.010783245778975 0.055626505501724 0.10980909637738 0.14048760881081 0.14284084496656 0.11841336090657 0.073579103383425 0.017306259359092 -0.041056699034583 -0.093500688138654 -0.13434038011925 -0.16051279363428 -0.17133040865526 -0.16793477489379 -0.15263993882459 -0.12831897901929 -0.097919800400507 -0.064127819132258 -0.02918281340969 0.0051973674843934 0.03780090651548 0.067865830398561 0.094993026680843 0.11906041725939 0.14014109491365 0.15843571519279 0.17421823239536 0.18779543447817 0.1994801769227 0.20957228483355 0.2183470512325 0.22604892232318 0.23288967314848 0.23904864089228
0 0.03153739012423 0.040228584793877 0.016964839977822 -0.02766478586776 -0.068668765100004 -0.080402194618452 -0.051240375126726 0.0088961775301167 0.072434365556534 0.10760407652053 0.09452999932874 0.035704389018061 -0.044433146105631 -0.11051650049135 -0.1323985807466 -0.098714629610918 -0.021756132004616 0.068101840058392 0.13537891812882 0.15384812682194 0.11625089414538 0.035934024116817 -0.059333412504212 -0.13807786547196 -0.17587678172112 -0.16239519577021 -0.10295434272058 -0.015093503578642 0.077861422902435 0.15370177246364 0.19664303956378 0.19993690664854 0.16574531669186 0.1029899979092 0.024223883320798 -0.057467802042869 -0.13087459935097 -0.18803865270694 -0.22467265188935 -0.23981426271584 -0.23506133290406 -0.21365287503553 -0.17961038899918 -0.13706011047682 -0.089760864901227 -0.040847710203624 0.0072748489956676 0.052910610539898 0.094993026680843 0.13296345252085 0.16665101313773 0.196158017813 0.22176532773739 0.24385640168299 0.26286065628549 0.27921600100423 0.29334210644508 0.30562430521519 0.31640475307405 0.32597987536826 0.33460069358822
0 0.039527689122683 0.050420880970622 0.021263044215704 -0.034673923590977 -0.086066652586641 -0.10077285853841 -0.064222613556812 0.011150109073879 0.090786303883709 0.13486659702285 0.11848007750531 0.044750436984858 -0.055690708048055 -0.13851691142294 -0.16594302570443 -0.12372492383646 -0.027268255838641 0.085356091671092 0.16967846002735 0.19282701914045 0.14570416847785 0.045038252329105 -0.074366099249681 -0.17306121145726 -0.22043684415183 -0.20353956963896 -0.12903880875553 -0.018917586866844 0.097588358041479 0.19264358450765 0.2464644317554 0.25059283152547 0.20773847569279 0.12908349752674 0.030361235520024 -0.072027818559696 -0.16403292906682 -0.23568004130872 -0.28159561407169 -0.30057349661709 -0.29461636664274 -0.26778387150315 -0.2251163964931 -0.17178559851362 -0.11250263732105 -0.051196867716133 0.0091180014700798 0.066316019064164 0.11906041725939 0.16665101313773 0.20887363898344 0.24585652511166 0.27795169157827 0.30563975009764 0.32945891411142 0.34995804162293 0.36766313079425 0.38305714192883 0.39656891921571 0.40856999019421 0.41937497504677
0 0.046526408697112 0.059348334470719 0.025027850281207 -0.040813241956016 -0.10130549855849 -0.11861556559459 -0.075593783301293 0.013124332418689 0.1068608049786 0.15874589564795 0.13945800098175 0.052673889284792 -0.065551230056312 -0.16304252981557 -0.19532467507516 -0.14563149276366 -0.032096336612756 0.10046912668109 0.19972150038488 0.22696871230012 0.17150235295651 0.053012664827531 -0.087533260954412 -0.20370319724198 -0.25946709586481 -0.23957801260946 -0.15188624701319 -0.02226710940268 0.11486722171452 0.22675279897747 0.29010309319026 0.29496246188169 0.2445203713326 0.15193884831823 0.035736955124536 -0.084780967424347 -0.19307637929099 -0.27740923304797 -0.33145455548767 -0.35379263644081 -0.34678074503 -0.31519732432072 -0.26497520346184 -0.20220172598292 -0.13242220326254 -0.060261716387713 0.010732422570445 0.078057844377607 0.14014109491365 0.196158017813 0.24585652511166 0.28938755141223 0.32716544496914 0.35975591396173 0.38779246718115 0.41192114269199 0.43276107118483 0.4508807252661 0.46678487970131 0.48091084419712 0.49362894516316
0 0.052600165867272 0.067095920887182 0.028295093323514 -0.046141177808138 -0.11453035333402 -0.13410015084837 -0.085462120364114 0.01483763912694 0.12081087330803 0.17946926650173 0.1576634472459 0.059550164967414 -0.074108569097011 -0.18432680174283 -0.22082319686028 -0.16464285315326 -0.036286330212019 0.11358479788046 0.22579400262537 0.2565981825803 0.19389100652206 0.059933165724164 -0.098960228696762 -0.23029548728714 -0.29333904467971 -0.27085355509485 -0.17171412987968 -0.025173953476413 0.12986248206326 0.25635408300541 0.32797439664333 0.33346812818929 0.27644111054761 0.17177359798495 0.040402210696707 -0.095848638951263 -0.21828139889054 -0.31362342549214 -0.37472405638728 -0.39997824634509 -0.39205099252129 -0.35634453645718 -0.2995662042936 -0.22859800752278 -0.14970916628154 -0.068128539601573 0.01213347909653 0.088247850553714 0.15843571519279 0.22176532773739 0.27795169157827 0.32716544496914 0.36987502696473 0.4067199957192 0.43841656098148 0.46569509739916 0.48925555964162 0.50974063117029 0.52772098221601 0.54369101077231 0.55806938724846
0 0.057839912610282 0.073779657091076 0.031113698942728 -0.050737514761693 -0.12593925359057 -0.1474584894973 -0.093975398971612 0.016315685251082 0.13284540531946 0.19734703340832 0.17336903525265 0.065482233389424 -0.081490867748599 -0.20268845028818 -0.24282042077492 -0.18104369218762 -0.039900980040767 0.1248995069681 0.24828639158158 0.28215911892469 0.21320538991177 0.065903386629815 -0.10881811654658 -0.25323629003076 -0.32255990888452 -0.29783453528267 -0.18881937162048 -0.027681647864099 0.14279868684914 0.2818907034578 0.36064544906812 0.36668643672061 0.30397869307693 0.18888476361983 0.044426862490442 -0.10539656689952 -0.24002542250792 -0.34486491104945 -0.41205205947643 -0.43982193655037 -0.43110501216718 -0.39184167023054 -0.32940738478007 -0.25136971642572 -0.16462239142996 -0.074915139750024 0.013342151284711 0.097038628679458 0.17421823239536 0.24385640168299 0.30563975009764 0.35975591396173 0.4067199957192 0.44723526288137 0.48208927017562 0.51208514825928 0.53799257753622 0.56051826215142 0.58028971944703 0.59785059669618 0.61366127001149
0 0.062347501575942 0.079529464675239 0.0335384565142 -0.054691598565826 -0.13575397087158 -0.15895024718078 -0.10129910421823 0.017587201743516 0.14319833387921 0.21272671276902 0.18688005757313 0.070585404873477 -0.087841626587752 -0.2184843977707 -0.26174393915395 -0.19515281705275 -0.043010549354307 0.1346331945554 0.26763588483821 0.30414838677844 0.22982094515061 0.071039379492974 -0.11729854674215 -0.27297153953465 -0.3476976973153 -0.321045422095 -0.20353447193113 -0.029838938303042 0.15392729607593 0.3038590531161 0.38875132567427 0.39526310050562 0.3276684073395 0.20360496006982 0.047889143571157 -0.11361034836173 -0.25873112065212 -0.37174097633959 -0.44416416395155 -0.47409820735679 -0.46470195428186 -0.42237873554247 -0.35507881175552 -0.27095949982834 -0.17745176895876 -0.080753437943407 0.014381933870731 0.10460105801481 0.18779543447817 0.26286065628549 0.32945891411142 0.38779246718115 0.43841656098148 0.48208927017562 0.51965952532708 0.55199304679509 0.57991949783516 0.60420065756838 0.6255129471149 0.6444423813508 0.66148521449069
0 0.066226799813406 0.084477834767748 0.035625239014768 -0.058094542012759 -0.14420066282586 -0.16884022509725 -0.10760199409381 0.018681487785475 0.15210821848058 0.22596269402003 0.19850784472796 0.074977270301843 -0.093307184285886 -0.23207862557071 -0.27802980107562 -0.20729534017065 -0.045686691045394 0.14301015114775 0.28428834708756 0.32307267838489 0.24412053959978 0.075459491489314 -0.1245969313467 -0.28995598935907 -0.36933165265066 -0.34102105718219 -0.21619850654788 -0.03169553460347 0.16350474301882 0.32276534221182 0.41293966192481 0.41985660321813 0.348056128466 0.21627338050004 0.050868834265306 -0.12067925109267 -0.27482952323366 -0.3948709186445 -0.47180031960829 -0.50359687680938 -0.49361598333875 -0.44865938902361 -0.3771720243749 -0.28781875935821 -0.18849292244777 -0.08577796437293 0.015276786259453 0.1111093973987 0.1994801769227 0.27921600100423 0.34995804162293 0.41192114269199 0.46569509739916 0.51208514825928 0.55199304679509 0.58633837899604 0.61600243025359 0.64179437803406 0.66443273077774 0.68453996555113 0.70264321379812
0 0.069577348327137 0.08875174026404 0.037427592321413 -0.061033663062624 -0.15149606767513 -0.17738219552087 -0.11304579784699 0.019626622252341 0.15980368265509 0.23739460633861 0.20855076037527 0.078770522916816 -0.098027784533978 -0.24381995530679 -0.29209589424925 -0.21778283308695 -0.047998073676153 0.15024532558962 0.29867107283437 0.3394175823428 0.25647109426091 0.079277140655041 -0.13090054354471 -0.30462545265688 -0.38801689221152 -0.35827400613205 -0.22713642876103 -0.033299076170581 0.17177678055126 0.33909469740758 0.4338311193774 0.44109800280042 0.36566499598206 0.22721509073873 0.053442392062498 -0.12678465987773 -0.28873370784162 -0.41484824162112 -0.49566965746087 -0.52907486716778 -0.51858901999445 -0.47135798012721 -0.39625392428929 -0.30238009584297 -0.19802916280569 -0.090117646070526 0.016049669950653 0.11673064781945 0.20957228483355 0.29334210644508 0.36766313079425 0.43276107118483 0.48925555964162 0.53799257753622 0.57991949783516 0.61600243025359 0.64716724620357 0.67426406108535 0.69804773414275 0.71917223482322 0.73819136322263
0 0.072490543546217 0.092467764970912 0.038994681117321 -0.06358913520567 -0.15783918983589 -0.18480916674593 -0.11777901182744 0.020448386569133 0.16649464365741 0.24733428999786 0.21728275566782 0.08206863525198 -0.10213219610049 -0.25402866755574 -0.30432591426437 -0.22690137415528 -0.050007747257 0.15653607932945 0.31117639478726 0.35362895575565 0.26720950817862 0.082596465014066 -0.13638133358339 -0.31738008377789 -0.4042631128924 -0.37327489574453 -0.23664660375698 -0.034693304491038 0.17896905372468 0.35329255166697 0.45199557624799 0.45956672320727 0.380975345452 0.23672855930225 0.055680018600386 -0.13209311836154 -0.30082295351561 -0.43221788767966 -0.51642328649498 -0.55122716832076 -0.5403022799855 -0.49109368215089 -0.4128450285141 -0.31504071414382 -0.20632062007152 -0.093890861089487 0.016721667704121 0.12161814602574 0.2183470512325 0.30562430521519 0.38305714192883 0.4508807252661 0.50974063117029 0.56051826215142 0.60420065756838 0.64179437803406 0.67426406108535 0.70249541635225 0.72727490894443 0.7492838899316 0.76909934695314
0 0.075047540851814 0.095729429380069 0.040370161140947 -0.065832148424111 -0.16340673510985 -0.19132803828836 -0.12193349324207 0.021169673330181 0.17236749733462 0.256058643302 0.22494708529781 0.084963485655185 -0.10573475910345 -0.26298915518224 -0.31506056329209 -0.23490498640549 -0.051771696990851 0.1620576592969 0.32215268443984 0.36610269705781 0.27663493057191 0.085509933835805 -0.14119198453794 -0.32857519943532 -0.41852289961561 -0.38644161868484 -0.24499396464826 -0.035917059780571 0.18528192386983 0.36575442680968 0.46793905541188 0.47577726344462 0.39441369043004 0.24507881105485 0.057644049363185 -0.13675250883118 -0.31143404075502 -0.44746373796803 -0.53463935837852 -0.57067089594669 -0.55936064824357 -0.5084162894956 -0.42740752968871 -0.32615331197812 -0.21359827649129 -0.097202723121159 0.017311499938408 0.12590804725267 0.22604892232318 0.31640475307405 0.39656891921571 0.46678487970131 0.52772098221601 0.58028971944703 0.6255129471149 0.66443273077774 0.69804773414275 0.72727490894443 0.7529284616925 0.77571377711352 0.79622819523721
0 0.077318648901092 0.098626418077502 0.041591853375992 -0.067824377889464 -0.16835179189921 -0.19711805676035 -0.12562347608275 0.021810315447898 0.177583727023 0.26380755604837 0.23175449204669 0.087534672585177 -0.10893453167111 -0.27094780086773 -0.32459500736822 -0.2420137417276 -0.053338425446256 0.16696189000585 0.33190175211645 0.37718179135874 0.2850065282339 0.088097657521664 -0.14546477281239 -0.33851862691823 -0.43118834761477 -0.39813621468106 -0.25240803523368 -0.037003991113006 0.19088897326693 0.37682298166648 0.48209994787091 0.490175357778 0.40634953931881 0.25249544928412 0.059388488461598 -0.14089094854606 -0.32085873807021 -0.46100500108637 -0.55081875261973 -0.58794068587668 -0.57628816453865 -0.52380211445871 -0.44034184665607 -0.33602344767776 -0.22006224265921 -0.10014429701401 0.017835385017238 0.12971830907256 0.23288967314848 0.32597987536826 0.40856999019421 0.48091084419712 0.54369101077231 0.59785059669618 0.6444423813508 0.68453996555113 0.71917223482322 0.7492838899316 0.77571377711352 0.79918862763016 0.82032385836941
0 0.079363407082671 0.10123467854441 0.042691785716848 -0.069618051906936 -0.17280399985631 -0.20233101333714 -0.12894569697214 0.022387108001683 0.18228008144598 0.27078417380177 0.23788343894974 0.089849602301154 -0.1118153990693 -0.27811324853759 -0.33317920156262 -0.24841400331371 -0.054749005990198 0.17137734081174 0.34067917946116 0.38715668829221 0.29254377104262 0.09042747585858 -0.14931171386176 -0.34747104320907 -0.44259149438619 -0.40866526936479 -0.25908318285299 -0.037982593489726 0.19593719637233 0.38678838956898 0.4948494957065 0.50313846677525 0.41709580243789 0.25917290864319 0.060959068126393 -0.1446169308782 -0.329344123409 -0.47319667490786 -0.56538562836049 -0.60348928307562 -0.59152860078702 -0.53765451196293 -0.45198706558369 -0.34490987680717 -0.22588197796924 -0.10279269909511 0.018307057116453 0.13314882134284 0.23904864089228 0.33460069358822 0.41937497504677 0.49362894516316 0.55806938724846 0.61366127001149 0.66148521449069 0.70264321379812 0.73819136322263 0.76909934695314 0.79622819523721 0.82032385836941 0.8420180284666
