0 0 0 0 0 0 0 0 -0 -0 -0 -0 -0 -0 0 0 0 0 0 0 -0 -0 -0 -0 -0 -0 -0 0 0 0 0 0 0 -0 -0 -0 -0 -0 -0 -0 -0 0 0 0 0 0 0 0 0 -0 -0 -0 -0 -0 -0 -0 -0 -0 -0 -0 -0 -0 0 0 0 0 0 0 0 0 0 0 0 0 0 0 0 0 0 0 0 0 0 0 0 0 0 0 0 0 0 0 0 0 0 0 0 0 0 0
0 0.00058169386727585 0.0020907316808417 0.0038999389352999 0.0052072919433354 0.0053164204811593 0.0038886360246047 0.0010840933813223 -0.0024544718051445 -0.0057730371685287 -0.0078827006488361 -0.0080586532515574 -0.0060731964068701 -0.0022927812848818 0.0023920135788047 0.0067873757839621 0.0097094410561605 0.010305421860212 0.0082950602208793 0.0040656667552578 -0.0014073587643347 -0.0067967065035923 -0.010755029488864 -0.012256778248561 -0.010859994625586 -0.0068207760536522 -0.0010324018903945 0.0051919307077226 0.010434091432756 0.013502123362046 0.013697045589033 0.010955545192346 0.0058432947083039 -0.00058923093709293 -0.0070459916292063 -0.012260480437058 -0.015245409685963 -0.015467751644659 -0.012921123980215 -0.0080919430073546 -0.0018373825224491 0.0047918316663897 0.010744275909492 0.015139533946976 0.017391006055377 0.017265413497767 0.014878163964595 0.010635315760272 0.0051403638330124 -0.00091324382566509 -0.0068447363300689 -0.012068863952057 -0.016150728311848 -0.018830214047025 -0.020019265497224 -0.019778185161534 -0.018279265772527 -0.015765650331484 -0.012512115816997 -0.0087920364838727 -0.0048534273976941 -0.00090362488281 0.0028970894841375 0.0064362241710411 0.0096443717166111 0.012488893396931 0.014965300903405 0.01708989929064 0.018892174836998 0.020409375519963 0.021681464386479 0.022748146861237 0.023646421598014 0.024409475351912 0.025065971135431 0.025639999687505 0.026151306243445 0.026615686289376 0.027045548005909 0.027450395276024 0.027837424994517 0.028211938626414 0.028577814868615 0.028937803206948 0.029293851501197 0.029647291949603 0.029999038964573 0.030349695499014 0.030699663676884 0.031049200577742 0.031398472663403 0.03174758260844 0.032096595385548 0.032445550341216 0.032794471668549 0.033143373453966 0.033492264142897 0.033841148550282 0.034190029591993 0.034538909019673
0 0.0020907316808417 0.0075145350624823 0.014017211361648 0.018716116586047 0.019108347799315 0.01397658629268 0.003896462563609 -0.008821894559041 -0.020749525449606 -0.028332105432526 -0.028964516570981 -0.021828361696989 -0.0082407443832825 0.0085974063877125 0.02439527452432 0.034897799618289 0.037039881593536 0.029814213581967 0.014612872452602 -0.0050583472173851 -0.024428811118452 -0.038655867193613 -0.044053472162817 -0.039033134256366 -0.024515322209053 -0.0037106723330556 0.018660905032755 0.037502347448539 0.048529507804275 0.049230099813558 0.039376563349033 0.021002046014957 -0.002117821515433 -0.025324794966665 -0.044066778616975 -0.054795250235531 -0.055594394601972 -0.046441272252075 -0.029084167045239 -0.0066039442146765 0.017222863842625 0.038617216538449 0.054414710274248 0.062506980676907 0.062055574269094 0.053475290876301 0.038225590549695 0.018475562699435 -0.0032823928634366 -0.024601440546901 -0.043378068148634 -0.058049158242606 -0.067679800802295 -0.071953505025317 -0.071087010940008 -0.065699575331822 -0.056665105945624 -0.044971209779921 -0.031600452145101 -0.017444252023053 -0.0032478203336324 0.010412756790931 0.023133160819476 0.034663926549823 0.044887743454989 0.053788479597706 0.0614247388178 0.067902501081348 0.073355643554597 0.077927801941838 0.0817616859981 0.084990276767116 0.087732854516699 0.090092440220036 0.092155621125051 0.093993365813906 0.095662446628745 0.097207461214069 0.098662568549989 0.1000536358096 0.10139971758759 0.10271475474695 0.10400862952547 0.10528834294617 0.10655868321336 0.10782293692001 0.10908327120732 0.11034113139448 0.11159744148018 0.11285279976364 0.11410757527916 0.11536200155244 0.11661622000315 0.11787031758646 0.11912434493196 0.12037833239433 0.12163229727948 0.12288625006768 0.12414019705471
0 0.0038999389352999 0.014017211361648 0.026146955563236 0.034912041779627 0.035643688883979 0.026071175734734 0.0072682526414099 -0.016455889767769 -0.038705053800751 -0.052849192513717 -0.054028858390777 -0.040717457173473 -0.015371843345904 0.016037141552539 0.045505638923701 0.065096486906855 0.069092211931935 0.055613837700516 0.027258069869362 -0.0094355700648321 -0.045568196290775 -0.072106584947074 -0.082174988257582 -0.072810318726267 -0.045729569447197 -0.0069216894929328 0.034809053104259 0.06995487097647 0.090524345486857 0.091831192309813 0.073450932967818 0.039176092142879 -0.0039504708623002 -0.047239516588384 -0.082199809404713 -0.10221212593718 -0.10370280705048 -0.086629062696277 -0.054252047979122 -0.012318643949087 0.032126608063919 0.072034488084369 0.10150228706831 0.11659717500037 0.11575514565647 0.099749944421856 0.07130396993342 0.0344633254393 -0.0061227999012831 -0.045890209983663 -0.080915125772067 -0.10828179171255 -0.12624627669867 -0.13421821573324 -0.13260190406041 -0.12255247013146 -0.10570005466281 -0.083886886870937 -0.058945791477242 -0.032539573722105 -0.0060583101552717 0.01942339899705 0.043151359594889 0.064660232606992 0.08373119325737 0.10033414989399 0.11457841898188 0.12666168987537 0.13683368987233 0.14536234932498 0.15251387136937 0.15853631172439 0.16365216941512 0.16805361424898 0.17190216144218 0.17533019198808 0.17844360597401 0.18132559345816 0.1840398727731 0.18663469515852 0.18914560403517 0.1915986039424 0.19401212867748 0.19639923757394 0.19876886229167 0.20112713346527 0.2034780935639 0.20582443860856 0.20816789217695 0.21050957030442 0.21285016136777 0.21519010097335 0.21752965291782 0.21986897940272 0.22220817486978 0.22454729594096 0.22688637489782 0.22922543128969 0.23156447686035
0 0.0052072919433354 0.018716116586047 0.034912041779627 0.046615394984501 0.047592307734948 0.034810858736259 0.0097047451382285 -0.021972298446137 -0.051679915549117 -0.070565508576942 -0.072140626731188 -0.054366924767304 -0.020524853680352 0.021413175792262 0.06076021980726 0.086918389603819 0.092253577430109 0.074256929095631 0.036395628233262 -0.012598599310017 -0.060843747903204 -0.096278440530878 -0.10972201395878 -0.097218082740522 -0.061059217209583 -0.0092420057156731 0.046477882036632 0.093405420463288 0.12087027585553 0.12261520905711 0.098073446230606 0.052308857233758 -0.0052747633834567 -0.063075334824142 -0.10975515574937 -0.13647608045507 -0.13846647360741 -0.11566920090823 -0.072438634819137 -0.016448148664144 0.042896217123736 0.096182175071717 0.13552828658336 0.15568334275685 0.15455904499443 0.13318851668023 0.095206769726914 0.046016258171696 -0.0081753091844639 -0.061273708304235 -0.10803981537071 -0.14458044368105 -0.16856705462197 -0.17921137869888 -0.17705324061224 -0.16363499555726 -0.14113324649106 -0.11200778201952 -0.078705833641307 -0.043447618768844 -0.0080892009298466 0.025934587896759 0.05761672961814 0.086335892406142 0.11179989617489 0.13396856182933 0.15298785133377 0.16912172425247 0.18270362245922 0.19409129298227 0.20364017662946 0.21168148334227 0.21851229915198 0.22438921379158 0.22952788624906 0.23410507479978 0.23826217977864 0.24211027854532 0.24573444934468 0.24919911838853 0.25255174410414 0.25582704837578 0.25904964445139 0.26223696946612 0.26540094918633 0.2685497693823 0.27168882765572 0.27482172379846 0.27795075917279 0.28107742393584 0.28420263722482 0.28732698067178 0.29045080650433 0.29357433129786 0.29669768115322 0.29982093167344 0.30294412596159 0.30606729012042 0.30919043983052
0 0.0053164204811593 0.019108347799315 0.035643688883979 0.047592307734948 0.048589693518441 0.035540385360773 0.0099081262158429 -0.02243276903779 -0.052762964796232 -0.072044340733003 -0.073652468432891 -0.055506285316011 -0.020954990360907 0.02186192892341 0.062033563805941 0.088739926953883 0.094186923615328 0.075813121869857 0.037158366665349 -0.012862626511927 -0.062118842389293 -0.098296135246947 -0.1120214438891 -0.099255469415778 -0.062338827257812 -0.009435689223586 0.047451912946173 0.095362905672665 0.12340333845582 0.12518483999484 0.10012875864692 0.053405087129696 -0.0053853059114477 -0.064397196386162 -0.11205528022787 -0.13933619186616 -0.14136829742809 -0.11809326525947 -0.073956721837455 -0.016792850369591 0.043795187549022 0.098197852365119 0.13836853520194 0.15894597825788 0.15779811873396 0.13597973104624 0.097202005577774 0.046980614890131 -0.0083466380723517 -0.062557813414349 -0.11030399168471 -0.14761039717483 -0.17209969239154 -0.18296708817928 -0.18076372227435 -0.16706427280852 -0.14409095752311 -0.11435511449285 -0.080355261527615 -0.044358144846462 -0.0082587252582776 0.02647809567144 0.058824195903081 0.088145222438437 0.1141428720117 0.13677612349976 0.15619399777275 0.17266598616111 0.18653251843645 0.19815883888482 0.2079078372407 0.21611766456907 0.22309163289445 0.22909170926734 0.23433807221304 0.239011184307 0.24325540919249 0.24718415206293 0.25088427413687 0.2544215517978 0.2578444380531 0.26118838244901 0.2644785140501 0.26773263541929 0.27096292224967 0.27417773185963 0.27738257496772 0.28058112680615 0.28377573696656 0.28696792683509 0.2901586348112 0.29334845471611 0.29653774615905 0.29972673025413 0.30291553574488 0.30610423981874 0.30929288648208 0.31248150238469 0.31567010353577
0 0.0038886360246047 0.01397658629268 0.026071175734734 0.034810858736259 0.035540385360773 0.025995615533423 0.0072471875909362 -0.016408196853716 -0.038592877745222 -0.052696023524866 -0.053872270461712 -0.040599448714929 -0.015327292245119 0.015990662266124 0.045373753224612 0.06490782247126 0.068891966975755 0.055452656140656 0.027179069778702 -0.0094082236351646 -0.045436129286198 -0.071897603651798 -0.081936826437853 -0.072599297850323 -0.045597034746483 -0.0069016288613442 0.034708168545513 0.06975212583803 0.09026198532949 0.091565044612903 0.073238055445992 0.039062550911022 -0.003939021498579 -0.047102605717177 -0.081961575647651 -0.10191589193183 -0.10340225271197 -0.086377991955038 -0.05409481319583 -0.01228294171509 0.032033497841448 0.071825715742211 0.10120811033756 0.11625924984866 0.11541966089746 0.099460846378947 0.071097314799136 0.034363442878018 -0.0061050546335655 -0.045757209710111 -0.080680615320577 -0.10796796643426 -0.12588038625402 -0.13382922079479 -0.13221759356107 -0.12219728517898 -0.10539371184612 -0.083643763579384 -0.058774953156955 -0.032445266631162 -0.0060407517935165 0.019367105565819 0.04302629713315 0.064472832535653 0.083488521201347 0.10004335869065 0.1142463446446 0.12629459546879 0.13643711469452 0.14494105615087 0.15207185145663 0.15807683740874 0.16317786817947 0.16756655662439 0.17140394985186 0.17482204518499 0.17792643578854 0.180800070617 0.18350648333269 0.18609378533224 0.18859741702345 0.19104330757863 0.19344983736969 0.19583002788124 0.19819278488719 0.20054422125416 0.20288836773533 0.205227912538 0.20756457424456 0.20989946565583 0.21223327315354 0.21456643108154 0.21689920247198 0.21923174905628 0.22156416500245 0.22389650676837 0.22622880654202 0.22856108381606 0.23089335030028
0 0.0010840933813223 0.003896462563609 0.0072682526414099 0.0097047451382285 0.0099081262158429 0.0072471875909362 0.0020204071686893 -0.0045743591058652 -0.010759115295196 -0.014690860744962 -0.015018780743379 -0.011318517176382 -0.0042730191181149 0.0044579567272374 0.012649521643402 0.018095327074044 0.019206046786619 0.015459368559683 0.0075771168788114 -0.0026228715951677 -0.012666911153526 -0.020043973197458 -0.02284275788883 -0.020239595012284 -0.012711769181742 -0.0019240705793972 0.0096761166537392 0.019445846172207 0.025163687283038 0.025526960661076 0.020417671046491 0.010890053127178 -0.0010981400955184 -0.013131499779853 -0.022849657597202 -0.028412621596819 -0.028826996682018 -0.024080888202923 -0.015080822318778 -0.0034242998656193 0.0089304585903087 0.02002393192682 0.028215302707391 0.03241133458646 0.032177269783463 0.027728191730438 0.019820864672302 0.0095800123096612 -0.0017019976359274 -0.01275642355845 -0.022492545076634 -0.030099849167063 -0.035093563067566 -0.037309578878854 -0.036860281385806 -0.034066769746483 -0.02938218561018 -0.023318626354214 -0.016385575122439 -0.009045253550994 -0.0016840709688759 0.0053992584614313 0.011995086104669 0.017974058406278 0.023275347108364 0.027890587423339 0.031850166815771 0.035209038382142 0.038036620571109 0.040407391862033 0.042395350607881 0.04406945059678 0.04549154144341 0.046715041937084 0.047784849595376 0.048737763291573 0.049603220815769 0.050404347091964 0.051158854352001 0.05188015533143 0.052578130284227 0.053260007874601 0.053930912274482 0.054594473678412 0.05525317488254 0.055908720062369 0.056562232931406 0.057214462921519 0.057865889147693 0.0585168218421 0.059167452357668 0.05981790178295 0.060468243447356 0.061118522439183 0.061768765011059 0.062418986902596 0.063069197087317 0.063719400999487 0.064369601903613
-0 -0.0024544718051445 -0.008821894559041 -0.016455889767769 -0.021972298446137 -0.02243276903779 -0.016408196853716 -0.0045743591058652 0.010356705100678 0.024359474557577 0.033261252317427 0.034003688720348 0.02562600396249 0.0096744479109946 -0.010093161054274 -0.028639501686125 -0.040969229102697 -0.043483984994488 -0.035001213833441 -0.017155182444379 0.0059383854654674 0.02867887289071 0.045381115615913 0.051717782024913 0.045824018632605 0.028780434958505 0.0043562455685121 -0.021907481328707 -0.04402690947033 -0.056972546843111 -0.05779502604953 -0.046227196636144 -0.024655928001868 0.0024862746595326 0.029730737706006 0.051733403501765 0.064328387038551 0.06526656448793 0.054521005436653 0.034144155676596 0.0077528814559048 -0.020219253428324 -0.045335740619103 -0.063881641712855 -0.07338178452168 -0.072851843587226 -0.062778784542518 -0.044875980547369 -0.021689893612597 0.0038534551375187 0.028881535943433 0.050924872956243 0.068148401597608 0.07945455859747 0.084471790897079 0.083454546397842 0.077129818589155 0.066523555439244 0.052795185273901 0.037098217590858 0.020479158155379 0.0038128677678363 -0.012224341454891 -0.027157808682755 -0.040694667398873 -0.052697197692279 -0.063146461032726 -0.072111257005469 -0.079716003698696 -0.086117869883952 -0.091485480636194 -0.095986373986841 -0.099776666679832 -0.1029963910574 -0.10576649141688 -0.10818861923303 -0.11034609001954 -0.11230555322473 -0.11411936547666 -0.11582762864701 -0.11746071021317 -0.11904097983925 -0.12058480378373 -0.12210378357073 -0.1236061382433 -0.12509748904518 -0.12658169436237 -0.12806129836972 -0.12953799783933 -0.13101287752481 -0.13248663981595 -0.13395971795067 -0.1354323860829 -0.13690481023611 -0.13837709249372 -0.13984929229373 -0.14132144527185 -0.14279357174481 -0.14426568401624 -0.14573778947722
-0 -0.0057730371685287 -0.020749525449606 -0.038705053800751 -0.051679915549117 -0.052762964796232 -0.038592877745222 -0.010759115295196 0.024359474557577 0.057294669970121 0.078232084596716 0.07997833115793 0.060273608784686 0.022754772435399 -0.023739606131203 -0.06736150212669 -0.096361621217284 -0.10227644949221 -0.0823245587831 -0.040349824217459 0.013967371693306 0.067454105116449 0.10673859306546 0.12164274092613 0.10778032252108 0.06769298404391 0.010246101637651 -0.051527462533645 -0.10355343428877 -0.13400220357865 -0.13593671471014 -0.10872861681197 -0.057991942902344 0.0058478390302013 0.069928142366438 0.12167948340014 0.15130349779805 0.15351013682914 0.12823605885048 0.080308716276908 0.018235154591845 -0.047556668329601 -0.10663186886412 -0.15025273104461 -0.17259752939459 -0.17135108251942 -0.14765875729327 -0.10555049079445 -0.051015685633262 0.009063514068292 0.067930778482022 0.11977778019809 0.16028835799792 0.18688098964137 0.19868176424716 0.19628915566585 0.18141308797428 0.15646664073651 0.12417684581536 0.087256813701953 0.048167976899706 0.00896805059902 -0.02875224617857 -0.063876488054467 -0.095715838724322 -0.12394637425339 -0.1485235502966 -0.16960918682763 -0.18749592124651 -0.20255342215484 -0.21517830393752 -0.22576462420016 -0.2346795771242 -0.2422525255953 -0.2487679364883 -0.25446489902022 -0.25953937533501 -0.2641481281796 -0.26841430289189 -0.27243222102622 -0.27627330836766 -0.27999017945517 -0.28362132852539 -0.28719404292783 -0.29072765425181 -0.29423538393626 -0.29772630709289 -0.30120640774479 -0.30467967678252 -0.3081486655994 -0.31161502625039 -0.3150797777322 -0.31854356486815 -0.3220067781536 -0.32546965769369 -0.32893234328949 -0.3323949187579 -0.33585743188493 -0.33931991160923 -0.34278237531503
-0 -0.0078827006488361 -0.028332105432526 -0.052849192513717 -0.070565508576942 -0.072044340733003 -0.052696023524866 -0.014690860744962 0.033261252317427 0.078232084596716 0.10682074028072 0.10920512453103 0.08229962863652 0.031070137642359 -0.032414862955271 -0.091977678476641 -0.13157542415165 -0.13965173118371 -0.1124087432647 -0.055095017796404 0.019071522786925 0.092104121737987 0.14574449327985 0.16609512200127 0.14716690599192 0.092430295123247 0.013990374506412 -0.070357344061646 -0.14139536951315 -0.18297115127774 -0.18561259835426 -0.14846173916272 -0.079184164695077 0.0079848376464558 0.095482256065971 0.1661452914208 0.20659492489771 0.20960794463313 0.17509786180062 0.10965624357214 0.024898898229231 -0.064935487050358 -0.14559876843753 -0.20516017235284 -0.23567051748136 -0.23396857666496 -0.20161827266022 -0.14412221816379 -0.069658546533249 0.012375629350931 0.092754987709987 0.1635486414033 0.21886315759043 0.25517363829421 0.27128681597284 0.2680198671094 0.24770758000276 0.21364485529014 0.16955527472009 0.11914341132833 0.065770188494594 0.012245280293892 -0.039259291598337 -0.087219122124697 -0.13069365084452 -0.16924058103667 -0.2027990903424 -0.23159013323925 -0.2560132867533 -0.27657330892446 -0.29381175047866 -0.30826667102862 -0.32043944995714 -0.33077981051332 -0.33967617341111 -0.34745499917228 -0.35438386115107 -0.36067680851617 -0.36650198808646 -0.3719881897096 -0.37723294057379 -0.38230808235408 -0.38726617638608 -0.39214448174184 -0.39696939442872 -0.40175896744764 -0.40652559226373 -0.41127743966501 -0.41601995894872 -0.42075663387378 -0.42548972021205 -0.43022060933616 -0.43495018170976 -0.43967897052842 -0.44440730363986 -0.44913537193319 -0.45386328985484 -0.45859112265346 -0.46331890984287 -0.46804667516007
-0 -0.0080586532515574 -0.028964516570981 -0.054028858390777 -0.072140626731188 -0.073652468432891 -0.053872270461712 -0.015018780743379 0.034003688720348 0.07997833115793 0.10920512453103 0.11164273148171 0.084136668314506 0.031763665384769 -0.033138406796135 -0.09403074539383 -0.13451236662416 -0.14276894781681 -0.11491785934396 -0.056324813549169 0.019497225121913 0.094160011040792 0.14899770865201 0.16980259109306 0.15045187155097 0.094493465059763 0.014302658698989 -0.071927815700707 -0.14455150652595 -0.18705531630245 -0.18975572407134 -0.15177560715973 -0.08095166297937 0.0081630700859191 0.097613549922854 0.16985388036229 0.21120640468924 0.2142866791243 0.17900628429276 0.11210392011355 0.025454675512106 -0.066384935464611 -0.14884873103294 -0.20973962651562 -0.24093100405605 -0.23919107360518 -0.20611866680318 -0.14733922214829 -0.071213420060777 0.012651870234813 0.094825405226776 0.16719926958371 0.22374848102632 0.26086946105901 0.27734230678505 0.27400243517836 0.25323675018909 0.2184136991193 0.17333997912804 0.12180285436115 0.067238268580676 0.012518611609484 -0.040135612398207 -0.089165971590201 -0.13361091093718 -0.17301826105346 -0.2073258419425 -0.23675954008639 -0.26172785161402 -0.28274680145151 -0.30037002847371 -0.31514760251594 -0.32759209443095 -0.33816326590257 -0.34725820772354 -0.35521066745862 -0.36229419106334 -0.36872760557505 -0.37468281107837 -0.3802914721856 -0.38565329302444 -0.39084171887388 -0.39591048431006 -0.40089768007818 -0.40583029138042 -0.41072677418523 -0.41559979655211 -0.42045771165217 -0.42530609041838 -0.43014849437191 -0.43498722963651 -0.43982371864214 -0.44465886150559 -0.4494932033241 -0.45432707926338 -0.45916068447344 -0.46399413595534 -0.46882750041413 -0.47366081824566 -0.47849411371676
-0 -0.0060731964068701 -0.021828361696989 -0.040717457173473 -0.054366924767304 -0.055506285316011 -0.040599448714929 -0.011318517176382 0.02562600396249 0.060273608784686 0.08229962863652 0.084136668314506 0.063407432450941 0.023937868085654 -0.024973906532682 -0.070863848739337 -0.10137177964613 -0.10759413934656 -0.086604884050333 -0.042447744627594 0.0146935814035 0.070961266463882 0.1122882844776 0.12796734813033 0.11338417688261 0.071212565494459 0.010778830247176 -0.054206545216861 -0.1089375187934 -0.1409694200001 -0.14300451274416 -0.11438177612058 -0.061007135235836 0.0061518874639819 0.073563937068361 0.12800600096671 0.15917026555507 0.16149163502553 0.1349034743943 0.084484231245228 0.019183260407475 -0.050029296328895 -0.11217601133313 -0.15806486597333 -0.18157144406902 -0.18026019031079 -0.15533602297332 -0.11103840885189 -0.053668159347899 0.0095347560506347 0.071462723649508 0.12600542194453 0.16862227826332 0.19659754851216 0.20901188430145 0.20649487611063 0.1908453526076 0.16460185731979 0.13063320948868 0.091793583165981 0.050672388847282 0.0094343291208151 -0.030247170264736 -0.067197637294052 -0.10069242079196 -0.13039075495024 -0.15624577941646 -0.17842772771827 -0.19724445243911 -0.21308484247011 -0.22636613348582 -0.23750287144613 -0.24688134216875 -0.25484803320183 -0.261702201791 -0.26769536819005 -0.27303368326098 -0.27788206036281 -0.28237004756563 -0.2865968705124 -0.29063766865028 -0.2945477921216 -0.29836773660529 -0.30212620821015 -0.30584354363855 -0.30953365175565 -0.31320607951812 -0.31686712207816 -0.32052097782588 -0.32417033080995 -0.32781691898113 -0.33146181431711 -0.33510569516772 -0.33874897233144 -0.34239189839728 -0.34603462043502 -0.34967722661949 -0.35331976722125 -0.35696227268356 -0.36060476129452
-0 -0.0022927812848818 -0.0082407443832825 -0.015371843345904 -0.020524853680352 -0.020954990360907 -0.015327292245119 -0.0042730191181149 0.0096744479109946 0.022754772435399 0.031070137642359 0.031763665384769 0.023937868085654 0.009037135022452 -0.0094282650638049 -0.026752848957832 -0.038270344579154 -0.040619438682684 -0.032695477640957 -0.016025069493471 0.0055471890241722 0.026789626549184 0.042391594131633 0.048310826986801 0.042805320516903 0.026884498125141 0.0040692740046553 -0.020464306448368 -0.041126597524234 -0.05321942948383 -0.053987727138637 -0.043181938809708 -0.023031696744526 0.0023224890978597 0.027772198831205 0.048325419384927 0.060090697142858 0.060967071315634 0.050929385555007 0.031894878954937 0.0072421534721843 -0.01888729206731 -0.042349208253226 -0.059673381564119 -0.068547693988537 -0.068052663386001 -0.058643176093945 -0.041919735286457 -0.020261052517208 0.003599605341938 0.026978938992476 0.047570151510534 0.06365906483428 0.074220418653414 0.078907136298463 0.07795690368829 0.072048822967487 0.062141256866431 0.049317255335406 0.03465433940472 0.01913007533856 0.0035616917014491 -0.011419052053902 -0.025368763803158 -0.038013869872558 -0.049225722773157 -0.058986631567287 -0.067360863606134 -0.074464640825312 -0.080444778363298 -0.085458792967774 -0.089663185952849 -0.093203789732651 -0.096211411893925 -0.098799029420488 -0.10106159740551 -0.10307694287887 -0.10490732469701 -0.1066016504484 -0.10819738025814 -0.10972288111895 -0.11119904907335 -0.11264117223795 -0.11406008787612 -0.11546347359409 -0.11685658033118 -0.11824301229876 -0.1196251460719 -0.1210045666463 -0.12238228731648 -0.12375896420167 -0.12513500199986 -0.12651065680483 -0.12788608370312 -0.12926137805331 -0.13063659537786 -0.13201176896496 -0.13338691779296 -0.13476205335495 -0.13613718255515
0 0.0023920135788047 0.0085974063877125 0.016037141552539 0.021413175792262 0.02186192892341 0.015990662266124 0.0044579567272374 -0.010093161054274 -0.023739606131203 -0.032414862955271 -0.033138406796135 -0.024973906532682 -0.0094282650638049 0.009836323336159 0.027910720660887 0.039926697109093 0.042377460743018 0.034110548179351 0.016718639532879 -0.0057872731069071 -0.027949089997941 -0.04422631563624 -0.050401734747966 -0.04465794822937 -0.028048067645494 -0.0042453934612932 0.021350008057066 0.042906569578474 0.055522783102324 0.05632433292087 0.045050866680142 0.02402851581138 -0.0024230071552563 -0.028974188316847 -0.050416958709664 -0.062691441383154 -0.0636057453053 -0.053133625353208 -0.033275299330819 -0.0075555961484331 0.019704739998428 0.044182095283705 0.062256064255133 0.071514459707736 0.070998004025287 0.061181271168735 0.043734034592084 0.021137957231946 -0.0037553973913816 -0.02814659594322 -0.049629002604521 -0.066414249148696 -0.077432701677294 -0.08232226193361 -0.081330902957703 -0.075167118648219 -0.06483074997542 -0.051451721631509 -0.036154190095315 -0.019958031005889 -0.0037158428366278 0.011913272212277 0.026466731866128 0.039659122096664 0.051356227511225 0.061539591502804 0.070276262933728 0.077687493861476 0.083926453629817 0.089157476360731 0.093543836794342 0.097237679017454 0.10037547201023 0.10307508243584 0.10543557507368 0.10753814533193 0.10944774664988 0.11121540335179 0.11288019684874 0.1144717218658 0.11601177883277 0.11751631754075 0.11899664429326 0.12046076898576 0.12191416981986 0.12336060699832 0.12480255995513 0.12624168228512 0.1276790311385 0.12911529103155 0.13055088417771 0.13198607775458 0.1334210335609 0.13485585108239 0.13629058824456 0.1377252797763 0.13915994547736 0.14059459733826 0.14202924256201
0 0.0067873757839621 0.02439527452432 0.045505638923701 0.06076021980726 0.062033563805941 0.045373753224612 0.012649521643402 -0.028639501686125 -0.06736150212669 -0.091977678476641 -0.09403074539383 -0.070863848739337 -0.026752848957832 0.027910720660887 0.07919710456715 0.11329262488019 0.12024670486055 0.096789211709196 0.047439400056818 -0.01642147757398 -0.079305978158617 -0.12549285941482 -0.1430157073226 -0.12671762362023 -0.079586828775064 -0.012046370065747 0.060580980374844 0.1217480594217 0.1575467617852 0.15982117187895 0.12783253584376 0.068181287843779 -0.006875320539849 -0.082214710603774 -0.14305890555103 -0.17788794130438 -0.18048229292318 -0.15076748946245 -0.094419180093014 -0.021439121744827 0.055912506634444 0.1253673834758 0.1766525519229 0.20292339321334 0.20145794217091 0.17360280980102 0.12409600428506 0.059979282856007 -0.010655998585993 -0.079866404354379 -0.14082306783076 -0.18845146631949 -0.21971649697485 -0.23359070035396 -0.23077770382003 -0.21328786984482 -0.18395826275332 -0.14599506145754 -0.10258807747418 -0.056631223812964 -0.010543761920842 0.033804095444042 0.075099763872806 0.11253337661511 0.14572409540398 0.17461954932956 0.19940999058295 0.22043947376569 0.23814261927622 0.25298572774507 0.26543209379024 0.27591342862759 0.28481696511375 0.29247715174113 0.29917508636418 0.30514116221817 0.31055968569869 0.31557543912052 0.32029931659623 0.32481529361912 0.32918522924833 0.33345438126445 0.33765483147986 0.34180930809765 0.3459333556002 0.35003764362143 0.3541292075939 0.35821273961867 0.36229123937594 0.36636664919129 0.37044016710198 0.37451255122858 0.37858426067755 0.38265557774117 0.38672666678396 0.39079762634967 0.39486851262044 0.39893935961954 0.40301018778565
0 0.0097094410561605 0.034897799618289 0.065096486906855 0.086918389603819 0.088739926953883 0.06490782247126 0.018095327074044 -0.040969229102697 -0.096361621217284 -0.13157542415165 -0.13451236662416 -0.10137177964613 -0.038270344579154 0.039926697109093 0.11329262488019 0.16206676901125 0.17201468287638 0.13845839332828 0.067862760697539 -0.023491165604293 -0.1134483701568 -0.17951938425692 -0.20458607635002 -0.181271427497 -0.11385013110135 -0.017232509856083 0.086661984955045 0.17416239269529 0.2253729638422 0.2286265409898 0.18286632585855 0.097534336763337 -0.0098352473251311 -0.11760935477344 -0.20464787205221 -0.25447132082739 -0.2581825790402 -0.2156751149067 -0.13506802818408 -0.03066897951475 0.079983664489608 0.17933988907754 0.2527040781164 0.29028490362601 0.2881885543196 0.24834137707974 0.17752116241418 0.085801247789647 -0.015243562970198 -0.1142500680865 -0.20144947325317 -0.26958259899204 -0.31430768596667 -0.33415493830667 -0.33013090532151 -0.30511144014534 -0.26315500509306 -0.20884808633434 -0.14675375623875 -0.081011800002214 -0.015083006767137 0.048357256562439 0.10743131865154 0.16098065318218 0.20846046540262 0.24979583795476 0.28525892940091 0.31534191491746 0.34066652538757 0.36189981073315 0.37970452073087 0.39469822463533 0.40743486475301 0.41839287457964 0.42797436873741 0.43650892814367 0.44426020581271 0.45143531497883 0.45819289130389 0.46465306296823 0.47090432026729 0.47701140512301 0.48302021104064 0.48896325104956 0.49486276176081 0.50073400624294 0.50658704878584 0.51242860150922 0.5182629554998 0.52409288928296 0.52992011666861 0.53574572215942 0.54157036251394 0.54739444155546 0.55321819440979 0.55904176204527 0.56486522483125 0.57068863143853 0.57651201110493
0 0.010305421860212 0.037039881593536 0.069092211931935 0.092253577430109 0.094186923615328 0.068891966975755 0.019206046786619 -0.043483984994488 -0.10227644949221 -0.13965173118371 -0.14276894781681 -0.10759413934656 -0.040619438682684 0.042377460743018 0.12024670486055 0.17201468287638 0.18257321538266 0.14695718786301 0.072028283970373 -0.024933090395222 -0.12041201002786 -0.19053856716903 -0.21714389235358 -0.1923981535862 -0.12083843169277 -0.018290268487135 0.091981434259637 0.18485275501724 0.23920671178146 0.24265999862535 0.19409094932438 0.10352114816788 -0.010438950316371 -0.12482840244223 -0.21720948117343 -0.27009117180721 -0.27403023290187 -0.22891359358456 -0.14335871675957 -0.032551489843089 0.084893187952158 0.19034805429247 0.26821545295164 0.30810304879691 0.30587802226407 0.26358496244527 0.18841769131834 0.091067863689623 -0.016179236904778 -0.12126291744077 -0.21381475961215 -0.28613000405646 -0.33360038740214 -0.35466589539037 -0.35039486091458 -0.3238396615096 -0.27930787430749 -0.22166751123203 -0.15576173323091 -0.085984432043922 -0.016008825508771 0.051325501230808 0.11402562241217 0.1708618995449 0.22125609751624 0.26512870042251 0.30276857234779 0.33469809895693 0.36157717395523 0.38411379184073 0.40301138301656 0.41892542411212 0.43244385928621 0.44407448903705 0.45424411041646 0.46330253453829 0.4715295978546 0.47914512653667 0.48631749355341 0.49317420074236 0.49980917007282 0.506291117428 0.5126687533289 0.51897658650588 0.52523821848826 0.53146984921579 0.53768216074037 0.54388227718218 0.55007475302162 0.55626253733434 0.5624474491266 0.56863063946956 0.57481280543464 0.58099437563243 0.58717559962117 0.59335662702202 0.59953754313755 0.60571839962604 0.61189922751997
0 0.0082950602208793 0.029814213581967 0.055613837700516 0.074256929095631 0.075813121869857 0.055452656140656 0.015459368559683 -0.035001213833441 -0.0823245587831 -0.1124087432647 -0.11491785934396 -0.086604884050333 -0.032695477640957 0.034110548179351 0.096789211709196 0.13845839332828 0.14695718786301 0.11828906567341 0.057977146520091 -0.020069191647507 -0.09692226946619 -0.15336867432565 -0.1747838844544 -0.15486549624381 -0.097265505622643 -0.014722238508509 0.074037875085191 0.14879203934229 0.19254273200855 0.19532235837597 0.15622806468403 0.083326444063643 -0.008402540205694 -0.10047712064387 -0.17483667833493 -0.21740231168204 -0.22057294840484 -0.18425757527628 -0.11539257730922 -0.026201408558565 0.068332390071717 0.15321532633026 0.21589250441016 0.24799890569006 0.24620793300274 0.21216532097957 0.15166153480811 0.073302522083918 -0.013023022858595 -0.097607183517094 -0.17210419244877 -0.23031231975205 -0.26852227310495 -0.28547836279405 -0.2820405134112 -0.26066565062249 -0.22482103779679 -0.17842504456624 -0.12537603746698 -0.069210756389918 -0.012885854986055 0.041313022344107 0.091781725916919 0.13753049272547 0.1780938886374 0.21340790955675 0.24370506852429 0.26940584522608 0.29104140258771 0.3091816209185 0.32439270678761 0.3372022677193 0.34808355287019 0.35744530200561 0.36563105343918 0.37292237781348 0.37954452163015 0.38567442779881 0.39144762341731 0.39696673751286 0.40230736993979 0.40752483162056 0.41265833072253 0.4177356440801 0.4227757690822 0.42779174541586 0.43279217129907 0.43778278109253 0.44276724079745 0.44774792418956 0.45272629542691 0.45770328103194 0.46267944209273 0.46765512360736 0.47263052645072 0.47760577105617 0.48258092608563 0.48755603311997 0.49253111713793
0 0.0040656667552578 0.014612872452602 0.027258069869362 0.036395628233262 0.037158366665349 0.027179069778702 0.0075771168788114 -0.017155182444379 -0.040349824217459 -0.055095017796404 -0.056324813549169 -0.042447744627594 -0.016025069493471 0.016718639532879 0.047439400056818 0.067862760697539 0.072028283970373 0.057977146520091 0.028416400953682 -0.0098365344088505 -0.047504615797841 -0.075170752701015 -0.085667012590508 -0.0759043916318 -0.047672846503025 -0.0072158265369019 0.036288263056381 0.072927601692182 0.094371175573056 0.095733556823237 0.076572228761566 0.040840879323658 -0.0041183460353933 -0.049246958815029 -0.085692888511744 -0.10655562799859 -0.10810965557327 -0.090310362825286 -0.056557487574201 -0.012842124454908 0.033491827572584 0.075095592083703 0.10581562454247 0.12155196940782 0.12067415804534 0.10398881613349 0.074334030579869 0.035927843701844 -0.006382988149487 -0.047840313455582 -0.084353612276161 -0.11288322408863 -0.13161110947225 -0.13992181588215 -0.13823681908004 -0.12776033467556 -0.1101917761793 -0.087451658298084 -0.061450691599855 -0.033922342197404 -0.006315757913126 0.020248795913606 0.0449850756793 0.067407967780723 0.087289348487805 0.10459784740441 0.11944742639638 0.13204417562284 0.14264843453771 0.1515395191877 0.15899494500532 0.16527330883182 0.17060656478349 0.17519504891952 0.17920714004171 0.18278084467086 0.18602656311618 0.18903102059559 0.19186064315079 0.19456573245687 0.19718334235144 0.1997405824362 0.20225666985223 0.20474521888916 0.20721554075756 0.20967402661323 0.21212489070995 0.21457094363608 0.21701398221273 0.21945516990113 0.22189522433064 0.2243345996187 0.22677357077201 0.22921230688484 0.23165090641223 0.23408942838229 0.23652790644839 0.23896636099058 0.24140480425173
-0 -0.0014073587643347 -0.0050583472173851 -0.0094355700648321 -0.012598599310017 -0.012862626511927 -0.0094082236351646 -0.0026228715951677 0.0059383854654674 0.013967371693306 0.019071522786925 0.019497225121913 0.0146935814035 0.0055471890241722 -0.0057872731069071 -0.01642147757398 -0.023491165604293 -0.024933090395222 -0.020069191647507 -0.0098365344088505 0.0034049846542569 0.016444052455353 0.026020877756052 0.029654230964135 0.026274831963627 0.016502286681526 0.0024978084358475 -0.012561434108891 -0.025244395466173 -0.032667237390164 -0.033138835115268 -0.026506008421095 -0.014137353826394 0.0014255940627643 0.017047176583159 0.029663188093858 0.036884970161183 0.037422907591597 0.03126155887421 0.019577766850509 0.004445390508437 -0.011593428558036 -0.025994860386731 -0.036628812828992 -0.042076057819302 -0.041772197323891 -0.035996450419601 -0.025731240586704 -0.012436672447895 0.0022095156478842 0.016560256529427 0.029199588329914 0.039075311463253 0.04555809896619 0.048434907668884 0.04785163433143 0.044225126544732 0.038143648089946 0.030271998461813 0.021271583384359 0.011742454183323 0.002186243434969 -0.007009261238488 -0.015571896156921 -0.023333735879731 -0.030215813794504 -0.036207270820898 -0.041347555649703 -0.04570800781983 -0.049378745640095 -0.052456456298605 -0.055037203688366 -0.057210502900724 -0.059056646462862 -0.060644982092068 -0.062033795279187 -0.063270857939197 -0.064394385905349 -0.065434399713724 -0.066413893199674 -0.067350278637139 -0.068256382469178 -0.069141588872566 -0.070012549994062 -0.070873978514506 -0.071729097574062 -0.072580119515663 -0.073428503132509 -0.074275221329264 -0.075120896088025 -0.075965930148973 -0.076810571924491 -0.077654978610482 -0.078499245402424 -0.079343430833474 -0.080187568984523 -0.08103168028857 -0.08187577639495 -0.08271986435837 -0.083563948416778
-0 -0.0067967065035923 -0.024428811118452 -0.045568196290775 -0.060843747903204 -0.062118842389293 -0.045436129286198 -0.012666911153526 0.02867887289071 0.067454105116449 0.092104121737987 0.094160011040792 0.070961266463882 0.026789626549184 -0.027949089997941 -0.079305978158617 -0.1134483701568 -0.12041201002786 -0.09692226946619 -0.047504615797841 0.016444052455353 0.079415001420442 0.12566537655901 0.14321231342048 0.12689182446837 0.079696238126954 0.012062930413254 -0.060664262067326 -0.12191542852636 -0.15776334396801 -0.16004088073157 -0.12800826938048 -0.068275017806749 0.006884772158614 0.082327732549006 0.14325557103424 0.17813248684875 0.18073040496635 0.1509747520656 0.094548979727689 0.021468594466021 -0.055989370497568 -0.12553972812611 -0.17689539915671 -0.20320235541445 -0.20173488979184 -0.17384146450305 -0.12426660114901 -0.060061737384792 0.010670647566446 0.079976198043519 0.14101665967026 0.18871053371934 0.2200185449381 0.23391182141792 0.23109495781035 0.21358108026625 0.18421115327067 0.14619576332365 0.10272910702946 0.05670907570868 0.010558256607663 -0.033850566502515 -0.075203004781118 -0.11268807814037 -0.1459244247685 -0.17485960176051 -0.19968412285039 -0.2207425156173 -0.23846999793967 -0.25333351147934 -0.26579698775322 -0.27629273145782 -0.28520850778532 -0.29287922500007 -0.29958636738649 -0.30556064490528 -0.31098661732115 -0.31600926598355 -0.32073963745307 -0.32526182266552 -0.32963776571872 -0.33391278660991 -0.33811901125488 -0.34227919910154 -0.34640891600153 -0.35051884625653 -0.3546160349708 -0.35870518069571 -0.36278928723518 -0.36687029958495 -0.3709494174292 -0.37502739993075 -0.37910470682717 -0.38318162079883 -0.38725830643618 -0.39133486241847 -0.39541134500505 -0.39948778826598 -0.40356421266802
-0 -0.010755029488864 -0.038655867193613 -0.072106584947074 -0.096278440530878 -0.098296135246947 -0.071897603651798 -0.020043973197458 0.045381115615913 0.10673859306546 0.14574449327985 0.14899770865201 0.1122882844776 0.042391594131633 -0.04422631563624 -0.12549285941482 -0.17951938425692 -0.19053856716903 -0.15336867432565 -0.075170752701015 0.026020877756052 0.12566537655901 0.19885143339748 0.22661750263773 0.20079215033513 0.12611040225937 0.019088241083837 -0.095994424227293 -0.19291755915243 -0.2496428844972 -0.25324683223882 -0.20255879980661 -0.1080375957791 0.010894383559282 0.13027444849176 0.22668595298369 0.28187477978788 0.28598569526578 0.23890069545907 0.14961320818779 0.033971654719013 -0.088596930063993 -0.19865260877553 -0.2799172265816 -0.32154504884592 -0.31922294827607 -0.27508471582955 -0.19663802742286 -0.095040996162539 0.016885108865851 0.12655340758213 0.22314312562608 0.29861335838733 0.34815479197983 0.37013935143644 0.36568197915628 0.33796822259616 0.29149359098505 0.23133847913865 0.16255734669173 0.089735783237174 0.016707262717081 -0.053564743564677 -0.11900036196128 -0.17831630699405 -0.23090911615812 -0.27669580440928 -0.31597783846908 -0.3493003947802 -0.37735215706237 -0.40087200838195 -0.42059406858691 -0.43720241161171 -0.45131063259604 -0.4634486864905 -0.47406199075982 -0.48351561816823 -0.4921016139454 -0.50004939489603 -0.50753467980881 -0.51469053320462 -0.52161497470491 -0.52837971814733 -0.53503559920817 -0.54161863217368 -0.54815344826684 -0.55465695420259 -0.56114029807217 -0.56761091480874 -0.57407355759675 -0.58053130417488 -0.58698605290948 -0.59343900509095 -0.59989088820272 -0.6063421495549 -0.61279304959353 -0.61924374446748 -0.62569432320093 -0.63214483970592 -0.63859532636882
-0 -0.012256778248561 -0.044053472162817 -0.082174988257582 -0.10972201395878 -0.1120214438891 -0.081936826437853 -0.02284275788883 0.051717782024913 0.12164274092613 0.16609512200127 0.16980259109306 0.12796734813033 0.048310826986801 -0.050401734747966 -0.1430157073226 -0.20458607635002 -0.21714389235358 -0.1747838844544 -0.085667012590508 0.029654230964135 0.14321231342048 0.22661750263773 0.25826061006615 0.2288292062107 0.14371947905214 0.021753574768151 -0.10939833982515 -0.21985506829464 -0.28450107735935 -0.28860825236377 -0.23084253688891 -0.12312312628647 0.012415590638701 0.14846496034906 0.25833861828661 0.32123358409192 0.32591851586858 0.27225893250231 0.17050403420207 0.038715192650914 -0.1009679170496 -0.22639091569028 -0.31900269336457 -0.36644310131441 -0.36379676066188 -0.31349540835591 -0.22409503384923 -0.10831178247282 0.019242814283851 0.14422434219637 0.25430109804177 0.3403094077614 0.39676842224275 0.42182273477913 0.41674296966405 0.38515947945198 0.33219549135406 0.26364078704738 0.18525559164093 0.10226579083189 0.019040135080592 -0.061044108200083 -0.13561664796626 -0.20321501072511 -0.26315147115606 -0.31533145682802 -0.36009852893339 -0.39807398811773 -0.43004268054483 -0.45684666117191 -0.47932255663898 -0.49824995965 -0.51432814300279 -0.52816106043992 -0.54025632406038 -0.55102998255285 -0.5608148600739 -0.56987240740847 -0.57840287935169 -0.58655792052032 -0.59444923723425 -0.60215855689423 -0.60974381347544 -0.61724605001926 -0.62469333706128 -0.63210494203877 -0.63949356967581 -0.64686769306187 -0.65423272907913 -0.66159218521782 -0.6689482249174 -0.67630221720712 -0.68365499115055 -0.69100705651672 -0.69835871011832 -0.70571012990764 -0.71306141733951 -0.7204126338538 -0.7277638163591
-0 -0.010859994625586 -0.039033134256366 -0.072810318726267 -0.097218082740522 -0.099255469415778 -0.072599297850323 -0.020239595012284 0.045824018632605 0.10778032252108 0.14716690599192 0.15045187155097 0.11338417688261 0.042805320516903 -0.04465794822937 -0.12671762362023 -0.181271427497 -0.1923981535862 -0.15486549624381 -0.0759043916318 0.026274831963627 0.12689182446837 0.20079215033513 0.2288292062107 0.20275180795712 0.12734119345608 0.019274535304344 -0.096931294542154 -0.19480036365738 -0.25207930733826 -0.25571842828585 -0.20453569927843 -0.10909200302399 0.011000708740537 0.13154587924994 0.22889832460689 0.2846257740859 0.28877681058864 0.24123227848149 0.1510733781361 0.034303205588859 -0.089461603553447 -0.20059138525791 -0.28264911587948 -0.32468321039623 -0.32233844697789 -0.27776944159781 -0.19855714233134 -0.09596856136975 0.017049901325277 0.12778852234804 0.22532092055581 0.30152771506321 0.35155265484748 0.37375177552788 0.36925090093178 0.34126666828887 0.29433846134668 0.23359625770792 0.16414384667654 0.090611571515217 0.016870319463431 -0.054087515783718 -0.12016176177671 -0.18005660864201 -0.23316270430244 -0.27939625381021 -0.31906166609134 -0.35270943831032 -0.38103497548694 -0.40478437191488 -0.42469891218213 -0.44146934653342 -0.4557152585716 -0.46797177541289 -0.47868866163286 -0.48823455297179 -0.49690434491349 -0.50492969328642 -0.51248803183007 -0.51971372372616 -0.52670574523165 -0.5335365100849 -0.54025735009972 -0.54690463104855 -0.55350322454607 -0.56007020231056 -0.56661682123451 -0.57315058881331 -0.57967630462074 -0.58619707643308 -0.59271482114405 -0.59923075176818 -0.60574560288887 -0.61225982618185 -0.61877368463498 -0.6252873359211 -0.63180086993323 -0.63831434110957 -0.64482778215258
-0 -0.0068207760536522 -0.024515322209053 -0.045729569447197 -0.061059217209583 -0.062338827257812 -0.045597034746483 -0.012711769181742 0.028780434958505 0.06769298404391 0.092430295123247 0.094493465059763 0.071212565494459 0.026884498125141 -0.028048067645494 -0.079586828775064 -0.11385013110135 -0.12083843169277 -0.097265505622643 -0.047672846503025 0.016502286681526 0.079696238126954 0.12611040225937 0.14371947905214 0.12734119345608 0.079978470792462 0.0121056495313 -0.060879095750656 -0.12234717432978 -0.15832203996338 -0.16060764229298 -0.12846159209587 -0.06851680387741 0.0069091535804152 0.082619284270249 0.14376288985646 0.17876331720861 0.18137043547633 0.15150940724759 0.094883811222835 0.021544622378796 -0.056187648730607 -0.12598430886077 -0.17752184854997 -0.20392196707686 -0.20244930463763 -0.17445709882978 -0.12470667328918 -0.060274437314369 0.010708436116773 0.080259422146457 0.14151604971269 0.18937882469759 0.22079770869612 0.23474018619904 0.23191334707766 0.21433744667704 0.1848635103458 0.14671349441032 0.10309290725872 0.056909902673313 0.010595647141715 -0.033970443372961 -0.075469325312582 -0.11308714662104 -0.14644119494904 -0.17547884167264 -0.20039127520257 -0.22152424321245 -0.23931450484167 -0.25423065535825 -0.26673826922523 -0.2772711820835 -0.28621853233942 -0.29391641428637 -0.30064730904452 -0.30664274360044 -0.31208793131045 -0.31712836695444 -0.32187549034826 -0.3264136902236 -0.33080513004429 -0.33509529030177 -0.3393164106811 -0.34349133122948 -0.34763567292277 -0.35176015789953 -0.35587185621323 -0.3599754830545 -0.36407405286478 -0.36816951752774 -0.37226308097607 -0.37635550506103 -0.38044725114832 -0.38453860291936 -0.38862972554748 -0.39272071806137 -0.39681163691965 -0.400902516313 -0.40499337678068
-0 -0.0010324018903945 -0.0037106723330556 -0.0069216894929328 -0.0092420057156731 -0.009435689223586 -0.0069016288613442 -0.0019240705793972 0.0043562455685121 0.010246101637651 0.013990374506412 0.014302658698989 0.010778830247176 0.0040692740046553 -0.0042453934612932 -0.012046370065747 -0.017232509856083 -0.018290268487135 -0.014722238508509 -0.0072158265369019 0.0024978084358475 0.012062930413254 0.019088241083837 0.021753574768151 0.019274535304344 0.0121056495313 0.0018323274891682 -0.0092147422879878 -0.018518633813648 -0.023963838141524 -0.024309790002017 -0.0194441203581 -0.010370796122085 0.0010457788323994 0.0125053666317 0.021760145486218 0.027057857517625 0.027452474465449 0.022932668837765 0.014361742022279 0.0032610231880864 -0.0085046385206033 -0.019069155416451 -0.026869947142038 -0.030865904795449 -0.03064300061648 -0.026406062478501 -0.018875770767993 -0.00912322036911 0.0016208433766427 0.012148174708302 0.021420060722608 0.028664635091456 0.03342023987587 0.035530592131621 0.035102717938157 0.032442405877439 0.027981191003005 0.022206752982968 0.015604281903256 0.0086139598544119 0.0016037714848008 -0.0051418122629909 -0.011423139171647 -0.017117023493003 -0.02216553736815 -0.026560714857374 -0.030331494497158 -0.033530209123092 -0.036222967189352 -0.038480695909601 -0.040373865264382 -0.041968141203176 -0.043322424241583 -0.044487586066506 -0.045506383402425 -0.046413860487228 -0.047238051465081 -0.048000978622684 -0.04871950964132 -0.049406417713573 -0.050071111985423 -0.050720476445578 -0.051359390936382 -0.051991312558276 -0.052618605723296 -0.053242893348841 -0.053865245567769 -0.05448637607771 -0.0551067411486 -0.05572663622019 -0.056346243521362 -0.056965678366955 -0.057585010589901 -0.058204283128607 -0.05882352098393 -0.059442739144989 -0.060061946157434 -0.060681147196414 -0.061300345370779
0 0.0051919307077226 0.018660905032755 0.034809053104259 0.046477882036632 0.047451912946173 0.034708168545513 0.0096761166537392 -0.021907481328707 -0.051527462533645 -0.070357344061646 -0.071927815700707 -0.054206545216861 -0.020464306448368 0.021350008057066 0.060580980374844 0.086661984955045 0.091981434259637 0.074037875085191 0.036288263056381 -0.012561434108891 -0.060664262067326 -0.095994424227293 -0.10939833982515 -0.096931294542154 -0.060879095750656 -0.0092147422879878 0.046340774744681 0.093129879416836 0.12051371493937 0.12225350068037 0.097784134755216 0.052154548873607 -0.0052592031106667 -0.062889265924965 -0.10943138384921 -0.13607348324136 -0.13805800483925 -0.11532798288787 -0.07222494468057 -0.01639962749618 0.042769675553702 0.095898442746142 0.1351284853114 0.15522408513597 0.15410310399245 0.13279561760564 0.094925914795478 0.045880512645713 -0.0081511924550858 -0.061092954107932 -0.10772110363387 -0.14415393902478 -0.16806979073303 -0.17868271461731 -0.17653094292379 -0.1631522809815 -0.14071691088404 -0.11167736499109 -0.078473655597935 -0.043319450593143 -0.0080653382152619 0.025858082235171 0.057446763315398 0.086081206093271 0.11147009239871 0.13357336166284 0.15253654526992 0.16862282411748 0.1821646564434 0.19351873394115 0.203039448887 0.21105703417063 0.21786769943526 0.22372727748773 0.22885079113345 0.23341447722022 0.23755931895942 0.24139606603841 0.24500954572575 0.2484639941793 0.2518067298265 0.2550723721239 0.25828546171166 0.2614633842863 0.26461803043381 0.26775756177686 0.27088735999452 0.27401101425947 0.27713081914506 0.28024826041256 0.28336425448775 0.2864793812869 0.2895939919986 0.29270830255931 0.29582243869791 0.29893647579441 0.30205045682472 0.30516440781459 0.30827834439836
0 0.010434091432756 0.037502347448539 0.06995487097647 0.093405420463288 0.095362905672665 0.06975212583803 0.019445846172207 -0.04402690947033 -0.10355343428877 -0.14139536951315 -0.14455150652595 -0.1089375187934 -0.041126597524234 0.042906569578474 0.1217480594217 0.17416239269529 0.18485275501724 0.14879203934229 0.072927601692182 -0.025244395466173 -0.12191542852636 -0.19291755915243 -0.21985506829464 -0.19480036365738 -0.12234717432978 -0.018518633813648 0.093129879416836 0.18716075611554 0.24219335568331 0.24568975895155 0.19651429499845 0.10481367379806 -0.010569287074365 -0.12638696233445 -0.21992147603151 -0.27346342731465 -0.27745167002595 -0.23177172153272 -0.14514863909912 -0.032957915348093 0.085953131965508 0.19272466760465 0.27156428894781 0.31194990612368 0.30969709875695 0.26687598390049 0.1907702028536 0.092204902352616 -0.016381244694937 -0.12277696004517 -0.21648436926969 -0.28970251431501 -0.33776559478813 -0.35909411868633 -0.3547697577007 -0.32788300018944 -0.28279520605219 -0.2244351673556 -0.15770651491045 -0.087058000915403 -0.01620870560714 0.051966331891949 0.11544930290715 0.17299521615016 0.22401861688483 0.26843899640219 0.30654882543324 0.33887701195133 0.36609168884321 0.38890969035659 0.40804322965873 0.42415596741057 0.43784318861777 0.44961903398218 0.45991562938105 0.46908715353658 0.4774169368322 0.48512755010503 0.49238946856476 0.4993317859883 0.50604959701891 0.51261247550013 0.51906974013397 0.52545633051367 0.53179614284825 0.53810557934374 0.54439545542407 0.55067298415847 0.55694277689285 0.56320781952389 0.56946995376927 0.575730345072 0.58198969920685 0.5882484501359 0.59450685053325 0.60076505188819 0.60702314056835 0.61328116887698 0.61953916823404
0 0.013502123362046 0.048529507804275 0.090524345486857 0.12087027585553 0.12340333845582 0.09026198532949 0.025163687283038 -0.056972546843111 -0.13400220357865 -0.18297115127774 -0.18705531630245 -0.1409694200001 -0.05321942948383 0.055522783102324 0.1575467617852 0.2253729638422 0.23920671178146 0.19254273200855 0.094371175573056 -0.032667237390164 -0.15776334396801 -0.2496428844972 -0.28450107735935 -0.25207930733826 -0.15832203996338 -0.023963838141524 0.12051371493937 0.24219335568331 0.31340769696897 0.3179321798677 0.25429720168491 0.13563300290889 -0.013677071822367 -0.16354968401338 -0.28458701157425 -0.35387239554166 -0.35903333796131 -0.29992169381841 -0.18782802926154 -0.042648834510764 0.11122672238707 0.24939327527244 0.35141483604299 0.40367540790735 0.40076018685792 0.34534798551596 0.24686412126363 0.11931675835636 -0.021197972829769 -0.158878199528 -0.28013926067944 -0.37488641074163 -0.4370819210925 -0.46468186715967 -0.45908597451618 -0.4242934562541 -0.36594808306209 -0.29042790509802 -0.20407841286826 -0.11265646612245 -0.020974700486104 0.067246470706146 0.14939592392499 0.22386259163594 0.28988887245881 0.34737058496799 0.39668619775517 0.43852013847262 0.47373699726866 0.5032643857619 0.5280239357117 0.54887445003081 0.56658625085355 0.58182465640398 0.59514885450792 0.60701716631677 0.61779623245408 0.62777406830857 0.63717127548472 0.64615490639069 0.65484801722289 0.66334063926235 0.67169659284291 0.67996109116798 0.68816505686881 0.69632971504304 0.70446906127322 0.71259242955372 0.72070578714691 0.72881299792016 0.73691644512836 0.74501763690044 0.75311748653662 0.76121655560084 0.76931517106331 0.77741352895709 0.78551174104529 0.79360987501037 0.80170797151098
0 0.013697045589033 0.049230099813558 0.091831192309813 0.12261520905711 0.12518483999484 0.091565044612903 0.025526960661076 -0.05779502604953 -0.13593671471014 -0.18561259835426 -0.18975572407134 -0.14300451274416 -0.053987727138637 0.05632433292087 0.15982117187895 0.2286265409898 0.24265999862535 0.19532235837597 0.095733556823237 -0.033138835115268 -0.16004088073157 -0.25324683223882 -0.28860825236377 -0.25571842828585 -0.16060764229298 -0.024309790002017 0.12225350068037 0.24568975895155 0.3179321798677 0.32252198006942 0.25796834107091 0.13759105693277 -0.013874519677552 -0.16591075477063 -0.28869542716047 -0.35898104353418 -0.36421649144921 -0.30425148720818 -0.19053959223371 -0.043264530692641 0.1128324372696 0.25299361955224 0.35648800569202 0.40950303274675 0.40654572636274 0.35033357160618 0.25042795363204 0.12103926433798 -0.021503995516778 -0.16117183080667 -0.28418346669756 -0.38029842573287 -0.44339181614758 -0.47139020643036 -0.46571352917049 -0.43041873175125 -0.3712310606649 -0.29462064223446 -0.20702457308689 -0.11428282137579 -0.021277499921387 0.068217268518875 0.15155266515846 0.22709436442684 0.29407382789754 0.3523853701389 0.40241292347142 0.44485079622753 0.48057606013586 0.5105297181993 0.53564670723375 0.55679822818537 0.57476572387682 0.5902241173407 0.60374066906915 0.61578031672691 0.62671499391295 0.63683687392501 0.64636974306344 0.65548306537392 0.6643016735429 0.67291689858016 0.68139348215624 0.68977729019099 0.69809969172755 0.70638221827783 0.71463906747038 0.72287970804898 0.73111019342186 0.73933444323676 0.74755487515424 0.75577301907518 0.7639898014846 0.7722057920534 0.78042132247207 0.78863659160368 0.7968517128248 0.80506675479499 0.81328175875985
0 0.010955545192346 0.039376563349033 0.073450932967818 0.098073446230606 0.10012875864692 0.073238055445992 0.020417671046491 -0.046227196636144 -0.10872861681197 -0.14846173916272 -0.15177560715973 -0.11438177612058 -0.043181938809708 0.045050866680142 0.12783253584376 0.18286632585855 0.19409094932438 0.15622806468403 0.076572228761566 -0.026506008421095 -0.12800826938048 -0.20255879980661 -0.23084253688891 -0.20453569927843 -0.12846159209587 -0.0194441203581 0.097784134755216 0.19651429499845 0.25429720168491 0.25796834107091 0.20633528598751 0.11005183800341 -0.011097497366237 -0.13270327239337 -0.23091226341633 -0.28713002523576 -0.29131758421426 -0.24335473633939 -0.15240258200784 -0.034605018881473 0.09024872244416 0.20235626831812 0.28513597560159 0.32753990285701 0.32517450927436 0.28021336799819 0.20030412731045 0.09681293107215 -0.017199913161471 -0.12891285676595 -0.22730338393672 -0.30418067623507 -0.35464575540369 -0.37704019280714 -0.37249971772012 -0.34426926863037 -0.29692816859523 -0.23565153080765 -0.1655880497467 -0.09140880828299 -0.017018751266736 0.054563399333018 0.12121899291139 0.18164081854247 0.23521416282628 0.28185449355367 0.32186889796186 0.35581271670909 0.38438747326605 0.40834582636175 0.42843558270183 0.44535357002735 0.45972482328496 0.47208917785279 0.48290035551465 0.49253023541519 0.50127630764636 0.50937226623706 0.51699710605963 0.52428637247668 0.53133991257777 0.53823077722624 0.54501074987369 0.55171651625313 0.55837316680963 0.56499792346526 0.57160214215515 0.57819339642863 0.58477652808804 0.59135467225312 0.59792976268317 0.60450302306534 0.61107519444616 0.61764673247539 0.62421790245476 0.63078886344439 0.63735970612821 0.64393048542337 0.65050123432009
0 0.0058432947083039 0.021002046014957 0.039176092142879 0.052308857233758 0.053405087129696 0.039062550911022 0.010890053127178 -0.024655928001868 -0.057991942902344 -0.079184164695077 -0.08095166297937 -0.061007135235836 -0.023031696744526 0.02402851581138 0.068181287843779 0.097534336763337 0.10352114816788 0.083326444063643 0.040840879323658 -0.014137353826394 -0.068275017806749 -0.1080375957791 -0.12312312628647 -0.10909200302399 -0.06851680387741 -0.010370796122085 0.052154548873607 0.10481367379806 0.13563300290889 0.13759105693277 0.11005183800341 0.058697701607193 -0.0059190069044535 -0.070779163951835 -0.12316031591433 -0.15314485291224 -0.15537834661704 -0.12979668452156 -0.081286068866786 -0.018457075404347 0.048135430325965 0.10792957275019 0.15208129838612 0.17469803168352 0.17343641561952 0.14945575611917 0.10683503436983 0.05163654367694 -0.0091738165280834 -0.068757492260547 -0.12123546909057 -0.16223905835872 -0.18915532084342 -0.2010997102168 -0.19867798372274 -0.18362087511856 -0.15837083101177 -0.12568807109061 -0.088318724249271 -0.048754178487212 -0.0090771912737244 0.029102159408044 0.064653861345021 0.096880695133519 0.12545479470261 0.15033107360503 0.17167332115448 0.18977773613183 0.20501848598488 0.21779701187345 0.22851216706218 0.23753561446518 0.24520072529605 0.25179542837557 0.25756172262318 0.2626979550312 0.26736279614039 0.27168088996056 0.27574770593408 0.27963553909385 0.28339764429482 0.28707298424633 0.29068917838343 0.29426579355978 0.2978162121185 0.30134961961489 0.30487207289727 0.30838761142512 0.31189881764208 0.31540736370851 0.31891428102226 0.32242022225412 0.32592558265175 0.32943060524236 0.33293543152838 0.33644014634677 0.33994479806509 0.34344941597417 0.34695401766981
-0 -0.00058923093709293 -0.002117821515433 -0.0039504708623002 -0.0052747633834567 -0.0053853059114477 -0.003939021498579 -0.0010981400955184 0.0024862746595326 0.0058478390302013 0.0079848376464558 0.0081630700859191 0.0061518874639819 0.0023224890978597 -0.0024230071552563 -0.006875320539849 -0.0098352473251311 -0.010438950316371 -0.008402540205694 -0.0041183460353933 0.0014255940627643 0.006884772158614 0.010894383559282 0.012415590638701 0.011000708740537 0.0069091535804152 0.0010457788323994 -0.0052592031106667 -0.010569287074365 -0.013677071822367 -0.013874519677552 -0.011097497366237 -0.0059190069044535 0.00059686566553187 0.007137287298333 0.012419340796851 0.015442946094128 0.015668168961426 0.013088544369242 0.0081967911806521 0.0018611896848268 -0.0048539199431501 -0.010883490644629 -0.015335698511837 -0.017616343185786 -0.017489123311939 -0.015070941930566 -0.010773118687071 -0.0052069680784311 0.00092507682384725 0.0069334243127028 0.012225241516506 0.016359995030532 0.019074199149718 0.020278657267067 0.020034453227615 0.018516112179345 0.015969927553481 0.012674236643392 0.008905955843421 0.0049163137769504 0.00091533324731809 -0.0029346273832571 -0.0065196190178231 -0.0097693348751714 -0.01265071332794 -0.015159207912036 -0.017311334948409 -0.01913696277229 -0.020673821987204 -0.021962393445578 -0.023042897039548 -0.023952810818418 -0.024725751541632 -0.025390753611419 -0.025972219912998 -0.026490151522814 -0.026960548590799 -0.02739598007169 -0.027806072991298 -0.028198117495358 -0.028577483740544 -0.028948100680451 -0.029312753426287 -0.029673415076467 -0.030031435090664 -0.030387739729427 -0.030742939758188 -0.031097442511268 -0.031451508399234 -0.031805306040763 -0.032158939440795 -0.032512474413883 -0.032865950816332 -0.033219393154721 -0.033572815697986 -0.033926227000988 -0.034279631941052 -0.034633033471834 -0.034986433367671
-0 -0.0070459916292063 -0.025324794966665 -0.047239516588384 -0.063075334824142 -0.064397196386162 -0.047102605717177 -0.013131499779853 0.029730737706006 0.069928142366438 0.095482256065971 0.097613549922854 0.073563937068361 0.027772198831205 -0.028974188316847 -0.082214710603774 -0.11760935477344 -0.12482840244223 -0.10047712064387 -0.049246958815029 0.017047176583159 0.082327732549006 0.13027444849176 0.14846496034906 0.13154587924994 0.082619284270249 0.0125053666317 -0.062889265924965 -0.12638696233445 -0.16354968401338 -0.16591075477063 -0.13270327239337 -0.070779163951835 0.007137287298333 0.085347294911915 0.14850980453708 0.18466591290393 0.18735911575156 0.15651210460735 0.098016784947118 0.022256005437112 -0.058042911760554 -0.13014419160837 -0.18338345212413 -0.21065527760077 -0.20913398924036 -0.18021750726621 -0.12882436971835 -0.062264642238877 0.011062018551433 0.082909512372285 0.14618877585639 0.19563193441217 0.22808824025058 0.24249108517661 0.23957090650051 0.22141466648846 0.19096752865017 0.15155783526322 0.10649693757157 0.058789013845484 0.010945505391073 -0.035092115290627 -0.077961251070479 -0.11682117726706 -0.15127654473121 -0.18127298709157 -0.20700800561943 -0.22883876424962 -0.24721644349534 -0.26262511119723 -0.27554571464688 -0.28642641432779 -0.29566919762853 -0.30362125635824 -0.31057439889656 -0.31676779703222 -0.32239277969144 -0.32759964575415 -0.33250351467355 -0.33719156161743 -0.34172800262845 -0.34615981992085 -0.35052031770361 -0.35483309018069 -0.35911427411779 -0.36337494568836 -0.36762240839235 -0.37186153311153 -0.37609543382133 -0.38032612685477 -0.38455485589729 -0.38878240795574 -0.39300925962966 -0.39723570396739 -0.40146191159612 -0.40568798481437 -0.40991398194497 -0.41413993830755 -0.41836587511955
-0 -0.012260480437058 -0.044066778616975 -0.082199809404713 -0.10975515574937 -0.11205528022787 -0.081961575647651 -0.022849657597202 0.051733403501765 0.12167948340014 0.1661452914208 0.16985388036229 0.12800600096671 0.048325419384927 -0.050416958709664 -0.14305890555103 -0.20464787205221 -0.21720948117343 -0.17483667833493 -0.085692888511744 0.029663188093858 0.14325557103424 0.22668595298369 0.25833861828661 0.22889832460689 0.14376288985646 0.021760145486218 -0.10943138384921 -0.21992147603151 -0.28458701157425 -0.28869542716047 -0.23091226341633 -0.12316031591433 0.012419340796851 0.14850980453708 0.25841665006964 0.32133061344627 0.32601696031751 0.27234116894876 0.17055553534383 0.038726886665277 -0.10099841464477 -0.22645929759512 -0.31909904887316 -0.36655378630903 -0.36390664632312 -0.3135901003762 -0.2241627222776 -0.10834449829969 0.019248626620849 0.14426790549578 0.25437791028238 0.34041219901284 0.39688826707138 0.42195014732138 0.41686884785138 0.38527581777233 0.3322958317781 0.26372042036287 0.18531154852506 0.10229668045287 0.019045886197863 -0.061062546715539 -0.13565761129152 -0.20327639229373 -0.26323095667254 -0.31542670343105 -0.3602072975351 -0.39819422729558 -0.43017257594089 -0.45698465277293 -0.47946733713672 -0.49840045721402 -0.51448349701965 -0.5283205927218 -0.54041950974489 -0.55119642244606 -0.56098425551222 -0.57004453870012 -0.57857758729231 -0.58673509171018 -0.59462879201475 -0.60234044029274 -0.60992798801842 -0.61743249063031 -0.62488202714277 -0.63229587081286 -0.63968673020213 -0.64706308095938 -0.65443034160298 -0.66179202068258 -0.66915028229113 -0.6765064958714 -0.68386149073737 -0.69121577681206 -0.6985696509978 -0.70592329130064 -0.71327679920604 -0.72063023617245 -0.72798363911959
-0 -0.015245409685963 -0.054795250235531 -0.10221212593718 -0.13647608045507 -0.13933619186616 -0.10191589193183 -0.028412621596819 0.064328387038551 0.15130349779805 0.20659492489771 0.21120640468924 0.15917026555507 0.060090697142858 -0.062691441383154 -0.17788794130438 -0.25447132082739 -0.27009117180721 -0.21740231168204 -0.10655562799859 0.036884970161183 0.17813248684875 0.28187477978788 0.32123358409192 0.2846257740859 0.17876331720861 0.027057857517625 -0.13607348324136 -0.27346342731465 -0.35387239554166 -0.35898104353418 -0.28713002523576 -0.15314485291224 0.015442946094128 0.18466591290393 0.32133061344627 0.39956157279312 0.40538885487635 0.33864518738013 0.21207888417376 0.048155311376663 -0.12558742838806 -0.2815929430137 -0.39678671284108 -0.45579475232726 -0.45250314122047 -0.38993655903134 -0.27873724484021 -0.13472198518472 0.023934885768424 0.17939128365404 0.31630860448114 0.4232887497919 0.49351444766932 0.5246778783255 0.51835948871958 0.47907483839541 0.41319637663487 0.32792563648926 0.23042738751621 0.12720176921486 0.023682786283074 -0.07592879789057 -0.1686847323623 -0.25276594142555 -0.32731700826105 -0.39222030036965 -0.44790315118467 -0.49513835619017 -0.53490213450874 -0.56824186356213 -0.59619816884118 -0.61974073503129 -0.639739342108 -0.65694520887042 -0.67198972101008 -0.68539037444473 -0.6975611475068 -0.70882724183152 -0.71943774134058 -0.7295812669148 -0.73939676278375 -0.7489858843484 -0.75842069191436 -0.76775223625269 -0.77701543247784 -0.78623424610251 -0.79542447970708 -0.80459667241673 -0.81375756193909 -0.82291151101321 -0.83206121060082 -0.84120836354841 -0.85035400107424 -0.85949875724689 -0.86864300125235 -0.87778695443391 -0.88693074298464 -0.89607444332562 -0.90521810136502
-0 -0.015467751644659 -0.055594394601972 -0.10370280705048 -0.13846647360741 -0.14136829742809 -0.10340225271197 -0.028826996682018 0.06526656448793 0.15351013682914 0.20960794463313 0.2142866791243 0.16149163502553 0.060967071315634 -0.0636057453053 -0.18048229292318 -0.2581825790402 -0.27403023290187 -0.22057294840484 -0.10810965557327 0.037422907591597 0.18073040496635 0.28598569526578 0.32591851586858 0.28877681058864 0.18137043547633 0.027452474465449 -0.13805800483925 -0.27745167002595 -0.35903333796131 -0.36421649144921 -0.29131758421426 -0.15537834661704 0.015668168961426 0.18735911575156 0.32601696031751 0.40538885487635 0.41130112315142 0.34358405329558 0.21517188301581 0.048857617610058 -0.12741901936467 -0.28569974813041 -0.40257352583823 -0.46244214981171 -0.45910253322158 -0.39562346808057 -0.28280240191083 -0.13668679627753 0.024283956701416 0.18200756030401 0.32092170941708 0.42946207354386 0.50071195637521 0.53232988043987 0.52591934223645 0.4860617570893 0.41922251129439 0.33270816643273 0.23378798442589 0.12905690404557 0.024028180549153 -0.077036157941377 -0.17114486262893 -0.25645232806034 -0.33209066185451 -0.39794051593754 -0.45443545605492 -0.50235954828724 -0.54270324912273 -0.57652921113495 -0.6048932364951 -0.62877915195474 -0.64906942252625 -0.66652622292678 -0.68179014709706 -0.69538623821386 -0.70773451214847 -0.71916491333871 -0.72993015839362 -0.74022161907688 -0.75018026600717 -0.75990923714718 -0.76948164374375 -0.77894928110212 -0.7883475735454 -0.79770083610391 -0.80702510182586 -0.81633106354104 -0.82562555722109 -0.83491300923209 -0.84419614978126 -0.85347670654972 -0.86275572579522 -0.87203385083372 -0.88131145623548 -0.89058876657192 -0.89986590987652 -0.9091429636849 -0.91841997457476
-0 -0.012921123980215 -0.046441272252075 -0.086629062696277 -0.11566920090823 -0.11809326525947 -0.086377991955038 -0.024080888202923 0.054521005436653 0.12823605885048 0.17509786180062 0.17900628429276 0.1349034743943 0.050929385555007 -0.053133625353208 -0.15076748946245 -0.2156751149067 -0.22891359358456 -0.18425757527628 -0.090310362825286 0.03126155887421 0.1509747520656 0.23890069545907 0.27225893250231 0.24123227848149 0.15150940724759 0.022932668837765 -0.11532798288787 -0.23177172153272 -0.29992169381841 -0.30425148720818 -0.24335473633939 -0.12979668452156 0.013088544369242 0.15651210460735 0.27234116894876 0.33864518738013 0.34358405329558 0.28701599639338 0.17974574724076 0.040813645642901 -0.10644061169787 -0.23866182697496 -0.33629337721519 -0.38630516500811 -0.38351538657108 -0.33048758462041 -0.23624150302764 -0.11418253161378 0.020285819327693 0.15204163514202 0.26808480576765 0.35875496481589 0.41827418847485 0.44468650270266 0.43933140256858 0.40603601413272 0.35020125537136 0.27793072752056 0.19529687321394 0.10780883324122 0.020072154442809 -0.064352840062808 -0.14296738397457 -0.21422973435358 -0.27741488957612 -0.33242315116659 -0.3796167021287 -0.4196505190401 -0.45335198854203 -0.48160880691814 -0.50530294790748 -0.52525625994178 -0.54220591802199 -0.55678861158049 -0.56953946646617 -0.58089708216898 -0.59121232268461 -0.6007608100353 -0.60975365328928 -0.61835071655231 -0.62666976088516 -0.63479694350278 -0.6427933385358 -0.65070221365337 -0.65855316087903 -0.66636649198974 -0.674155600335 -0.68192941826532 -0.68969365627045 -0.69745201195466 -0.70520676602087 -0.71295936170288 -0.7207106730014 -0.72846123731614 -0.73621136754771 -0.74396125129384 -0.75171099550843 -0.75946066496156 -0.76721029856232
-0 -0.0080919430073546 -0.029084167045239 -0.054252047979122 -0.072438634819137 -0.073956721837455 -0.05409481319583 -0.015080822318778 0.034144155676596 0.080308716276908 0.10965624357214 0.11210392011355 0.084484231245228 0.031894878954937 -0.033275299330819 -0.094419180093014 -0.13506802818408 -0.14335871675957 -0.11539257730922 -0.056557487574201 0.019577766850509 0.094548979727689 0.14961320818779 0.17050403420207 0.1510733781361 0.094883811222835 0.014361742022279 -0.07222494468057 -0.14514863909912 -0.18782802926154 -0.19053959223371 -0.15240258200784 -0.081286068866786 0.0081967911806521 0.098016784947118 0.17055553534383 0.21207888417376 0.21517188301581 0.17974574724076 0.11256701388468 0.025559827068482 -0.06665916717818 -0.14946361515218 -0.21060604683795 -0.24192627386586 -0.24017915587906 -0.20697012918392 -0.14794787058762 -0.071507597920192 0.012704134261735 0.095217122612403 0.16788995854627 0.22467277098655 0.2619470952967 0.27848798924301 0.27513432085084 0.25428285421038 0.21931595145346 0.17405603494964 0.12230601377879 0.067516025356083 0.012570325153967 -0.040301409919679 -0.089534310235258 -0.13416284864415 -0.17373298787929 -0.20818229108274 -0.23773757785847 -0.2628090318055 -0.28391480951426 -0.30161083690466 -0.3164494561136 -0.32894535538961 -0.33956019566118 -0.3486927080765 -0.35667801888908 -0.36379080405446 -0.3702507945698 -0.37623060062743 -0.38186243073731 -0.38724640089823 -0.39245625978668 -0.39754596395273 -0.4025537614919 -0.40750674908041 -0.41242345892711 -0.41731661142237 -0.42219459424372 -0.42706300133725 -0.43192540893656 -0.43678413269183 -0.44164060090898 -0.44649571742314 -0.45135002958329 -0.45620387393969 -0.46105744644851 -0.46591086459412 -0.47076419535715 -0.47561747930029 -0.48047074079064
-0 -0.0018373825224491 -0.0066039442146765 -0.012318643949087 -0.016448148664144 -0.016792850369591 -0.01228294171509 -0.0034242998656193 0.0077528814559048 0.018235154591845 0.024898898229231 0.025454675512106 0.019183260407475 0.0072421534721843 -0.0075555961484331 -0.021439121744827 -0.03066897951475 -0.032551489843089 -0.026201408558565 -0.012842124454908 0.004445390508437 0.021468594466021 0.033971654719013 0.038715192650914 0.034303205588859 0.021544622378796 0.0032610231880864 -0.01639962749618 -0.032957915348093 -0.042648834510764 -0.043264530692641 -0.034605018881473 -0.018457075404347 0.0018611896848268 0.022256005437112 0.038726886665277 0.048155311376663 0.048857617610058 0.040813645642901 0.025559827068482 0.0058036962803329 -0.015135844212308 -0.033937687644744 -0.047820884209198 -0.054932555372468 -0.054535849161031 -0.04699530108973 -0.033593517824356 -0.016236744440916 0.0028846414555989 0.021620305131525 0.038121632251642 0.051014919693044 0.059478547274372 0.063234375684804 0.062472880987641 0.057738280121348 0.049798583075614 0.039521721328559 0.02777119560819 0.015330405177316 0.0028542583305899 -0.0091509673448233 -0.020329947533772 -0.03046344654636 -0.039448369225059 -0.04727053845673 -0.053981456627848 -0.059674261341474 -0.06446660689427 -0.068484723607938 -0.071854028058921 -0.074691387011047 -0.077101626674854 -0.079175284223194 -0.080988454497631 -0.082603506301249 -0.084070332458734 -0.085428126393755 -0.086706907794451 -0.087929409320483 -0.089112376582779 -0.090268061128584 -0.091405147693094 -0.092529788934483 -0.093646192835506 -0.094757247728789 -0.095864858147275 -0.096970294270305 -0.09807436812894 -0.099177605522139 -0.10028033076562 -0.10138274908709 -0.10248498476935 -0.1035871142306 -0.10468918196526 -0.10579121464972 -0.10689322749281 -0.10799522970483 -0.10909722681864
0 0.0047918316663897 0.017222863842625 0.032126608063919 0.042896217123736 0.043795187549022 0.032033497841448 0.0089304585903087 -0.020219253428324 -0.047556668329601 -0.064935487050358 -0.066384935464611 -0.050029296328895 -0.01888729206731 0.019704739998428 0.055912506634444 0.079983664489608 0.084893187952158 0.068332390071717 0.033491827572584 -0.011593428558036 -0.055989370497568 -0.088596930063993 -0.1009679170496 -0.089461603553447 -0.056187648730607 -0.0085046385206033 0.042769675553702 0.085953131965508 0.11122672238707 0.1128324372696 0.09024872244416 0.048135430325965 -0.0048539199431501 -0.058042911760554 -0.10099841464477 -0.12558742838806 -0.12741901936467 -0.10644061169787 -0.06665916717818 -0.015135844212308 0.039473771361125 0.088508345079589 0.1247152536114 0.14326225221661 0.14222765579318 0.12256216067252 0.087610761792604 0.042344882037604 -0.0075230476529704 -0.056385026797882 -0.099419931541743 -0.13304519045801 -0.15511804581677 -0.1649131196736 -0.16292716717919 -0.15057948775935 -0.12987302557172 -0.10307131664668 -0.072426341767665 -0.039981179797733 -0.0074438094873936 0.023865414286501 0.053019817690724 0.079447641438129 0.10288001683401 0.12327997044531 0.14078181875943 0.15562846150476 0.16812673711999 0.17860585002792 0.18739288243118 0.19479261890934 0.20107844268501 0.2064864716523 0.21121515859225 0.21542715924039 0.21925259240123 0.22279367320219 0.22612869197775 0.22931693473781 0.23240207347104 0.23541605979957 0.23838154321996 0.24131456965729 0.24422611338868 0.24712370708824 0.25001231771366 0.25289525784986 0.25577464524644 0.25865185116937 0.2615277214231 0.26440279123457 0.26727738472916 0.27015170120291 0.27302585669582 0.27589992077898 0.27877393311651 0.28164791772856 0.28452188904467
0 0.010744275909492 0.038617216538449 0.072034488084369 0.096182175071717 0.098197852365119 0.071825715742211 0.02002393192682 -0.045335740619103 -0.10663186886412 -0.14559876843753 -0.14884873103294 -0.11217601133313 -0.042349208253226 0.044182095283705 0.1253673834758 0.17933988907754 0.19034805429247 0.15321532633026 0.075095592083703 -0.025994860386731 -0.12553972812611 -0.19865260877553 -0.22639091569028 -0.20059138525791 -0.12598430886077 -0.019069155416451 0.095898442746142 0.19272466760465 0.24939327527244 0.25299361955224 0.20235626831812 0.10792957275019 -0.010883490644629 -0.13014419160837 -0.22645929759512 -0.2815929430137 -0.28569974813041 -0.23866182697496 -0.14946361515218 -0.033937687644744 0.088508345079589 0.19845398295139 0.27963734709669 0.32122354715149 0.31890376836911 0.27480966820381 0.19644141590844 0.0949459679809 -0.01686822603363 -0.12642687123794 -0.22292001258719 -0.29831478529144 -0.3478066841301 -0.36976926199146 -0.36531634648259 -0.33763029994234 -0.2912021366966 -0.23110717185123 -0.1623948112629 -0.08964605955315 -0.01669055770703 0.053511186043329 0.11888137764432 0.17813801472971 0.23067823817579 0.27641914591219 0.31566190323438 0.34895114148213 0.37697485578428 0.40047119042376 0.42017353122767 0.43676526814877 0.45085938281435 0.4629853002915 0.47358799268757 0.48303216774322 0.49160957868227 0.49954941292357 0.50702721356069 0.51417591206793 0.52109343006035 0.52785140967143 0.53450063574864 0.54107708656878 0.54760536872694 0.55410237203364 0.56057923343351 0.56704338042579 0.57349956144237 0.57995085114463 0.5863991460008 0.59284564610016 0.59929107819872 0.60573588915939 0.61218033916777 0.6186245842166 0.62506871324106 0.63151278009927 0.63795681714524
0 0.015139533946976 0.054414710274248 0.10150228706831 0.13552828658336 0.13836853520194 0.10120811033756 0.028215302707391 -0.063881641712855 -0.15025273104461 -0.20516017235284 -0.20973962651562 -0.15806486597333 -0.059673381564119 0.062256064255133 0.1766525519229 0.2527040781164 0.26821545295164 0.21589250441016 0.10581562454247 -0.036628812828992 -0.17689539915671 -0.2799172265816 -0.31900269336457 -0.28264911587948 -0.17752184854997 -0.026869947142038 0.1351284853114 0.27156428894781 0.35141483604299 0.35648800569202 0.28513597560159 0.15208129838612 -0.015335698511837 -0.18338345212413 -0.31909904887316 -0.39678671284108 -0.40257352583823 -0.33629337721519 -0.21060604683795 -0.047820884209198 0.1247152536114 0.27963734709669 0.39403112363046 0.45262936633745 0.44936061468578 0.38722854250731 0.27680148106682 0.13378637308685 -0.023768663687779 -0.17814545391801 -0.31411191656411 -0.42034911024714 -0.49008710737976 -0.52103411543281 -0.51475960553773 -0.47574777775291 -0.4103268262178 -0.32564827105198 -0.22882712419508 -0.12631838322567 -0.023518314973307 0.075401490474592 0.16751325707482 0.25101054216831 0.32504386960185 0.38949642380598 0.44479257048511 0.49169973824273 0.53118736659216 0.56429555916842 0.59205771456618 0.61543678324166 0.63529650475567 0.65238288087166 0.66732291245794 0.68063050154637 0.69271675148846 0.70390460547156 0.71444141758882 0.724514498794 0.73426182838208 0.74378435578149 0.75315364085616 0.76242037984173 0.77161924537548 0.78077403653534 0.78990044615654 0.79900894017253 0.80810620949918 0.81719658657734 0.82628274368067 0.83536637182979 0.84444849508139 0.85352974310059 0.86261048250949 0.87169093311419 0.88077122023139 0.88985141975142 0.89893157726365
0 0.017391006055377 0.062506980676907 0.11659717500037 0.15568334275685 0.15894597825788 0.11625924984866 0.03241133458646 -0.07338178452168 -0.17259752939459 -0.23567051748136 -0.24093100405605 -0.18157144406902 -0.068547693988537 0.071514459707736 0.20292339321334 0.29028490362601 0.30810304879691 0.24799890569006 0.12155196940782 -0.042076057819302 -0.20320235541445 -0.32154504884592 -0.36644310131441 -0.32468321039623 -0.20392196707686 -0.030865904795449 0.15522408513597 0.31194990612368 0.40367540790735 0.40950303274675 0.32753990285701 0.17469803168352 -0.017616343185786 -0.21065527760077 -0.36655378630903 -0.45579475232726 -0.46244214981171 -0.38630516500811 -0.24192627386586 -0.054932555372468 0.14326225221661 0.32122354715149 0.45262936633745 0.51994203245524 0.51618716919678 0.44481514101722 0.31796594599478 0.15368238101841 -0.027303414726643 -0.20463831176552 -0.3608249938317 -0.48286122593227 -0.56297029234548 -0.59851957717362 -0.5913119550657 -0.54649849280105 -0.47134848037132 -0.37407697447114 -0.26285709431008 -0.14510379086153 -0.027015835463993 0.086614804789943 0.19242495035496 0.28833951389134 0.37338268960636 0.44742028973159 0.51093978941393 0.56482274521498 0.61018276660946 0.6482146359915 0.6801054335764 0.70696131476326 0.72977446993156 0.74940184231557 0.76656367706521 0.781850301028 0.79573395469038 0.80858560765726 0.82068939922558 0.83226049625202 0.84345739758886 0.85439606533422 0.8651587013598 0.87580354117957 0.88637041376365 0.89688665746405 0.90737029887217 0.91783336036021 0.92828352788196 0.93872577817617 0.94916318092301 0.95959767862283 0.97003044762467 0.98046221123414 0.99089339059544 1.0013242382031 1.0117548980102 1.0221854571932 1.0326159681213
0 0.017265413497767 0.062055574269094 0.11575514565647 0.15455904499443 0.15779811873396 0.11541966089746 0.032177269783463 -0.072851843587226 -0.17135108251942 -0.23396857666496 -0.23919107360518 -0.18026019031079 -0.068052663386001 0.070998004025287 0.20145794217091 0.2881885543196 0.30587802226407 0.24620793300274 0.12067415804534 -0.041772197323891 -0.20173488979184 -0.31922294827607 -0.36379676066188 -0.32233844697789 -0.20244930463763 -0.03064300061648 0.15410310399245 0.30969709875695 0.40076018685792 0.40654572636274 0.32517450927436 0.17343641561952 -0.017489123311939 -0.20913398924036 -0.36390664632312 -0.45250314122047 -0.45910253322158 -0.38351538657108 -0.24017915587906 -0.054535849161031 0.14222765579318 0.31890376836911 0.44936061468578 0.51618716919678 0.51245942241901 0.44160282132472 0.31566969261741 0.15257253359324 -0.027106237767696 -0.20316047610277 -0.3582192254431 -0.47937414898327 -0.55890469207778 -0.59419725078044 -0.58704167992774 -0.54255184686105 -0.46794454497005 -0.37137550430792 -0.26095882030251 -0.14405589540596 -0.026820735315036 0.085989299006905 0.19103531587457 0.28625721359805 0.37068623335732 0.44418915644723 0.50724993761738 0.56074376709594 0.60577621220863 0.64353342699443 0.67519391893627 0.70185585511533 0.72450426061385 0.74398989008264 0.76102778728016 0.77620401589293 0.78998740603019 0.80274624826717 0.81476262993321 0.82625016401537 0.83736620473543 0.84822587674848 0.85891078828929 0.86947875431269 0.87996931615606 0.89040961474216 0.9008175464798 0.91120504691931 0.92157974650882 0.9319465860466 0.94230861304453 0.95266775597481 0.96302518269122 0.97338161127592 0.9837374598317 0.99409297902967 1.0044483117834 1.0148035446396 1.0251587295893
0 0.014878163964595 0.053475290876301 0.099749944421856 0.13318851668023 0.13597973104624 0.099460846378947 0.027728191730438 -0.062778784542518 -0.14765875729327 -0.20161827266022 -0.20611866680318 -0.15533602297332 -0.058643176093945 0.061181271168735 0.17360280980102 0.24834137707974 0.26358496244527 0.21216532097957 0.10398881613349 -0.035996450419601 -0.17384146450305 -0.27508471582955 -0.31349540835591 -0.27776944159781 -0.17445709882978 -0.026406062478501 0.13279561760564 0.26687598390049 0.34534798551596 0.35033357160618 0.28021336799819 0.14945575611917 -0.015070941930566 -0.18021750726621 -0.3135901003762 -0.38993655903134 -0.39562346808057 -0.33048758462041 -0.20697012918392 -0.04699530108973 0.12256216067252 0.27480966820381 0.38722854250731 0.44481514101722 0.44160282132472 0.38054340162469 0.2720227607652 0.13147667570125 -0.023358319800638 -0.17506993823074 -0.30868906627125 -0.41309217354591 -0.48162620897497 -0.51203894569722 -0.50587275938373 -0.46753443454665 -0.40324291493527 -0.32002625632118 -0.22487663657579 -0.12413761374401 -0.023112293124039 0.074099753822334 0.16462129638411 0.24667707845576 0.31943228930033 0.38277213006059 0.43711364016148 0.48321099926493 0.52201691041209 0.55455352081543 0.58183638840337 0.6048118391875 0.62432870106788 0.64112009678091 0.65580220260764 0.668880048539 0.68075764060922 0.69175234669168 0.70210725054103 0.71200642936147 0.72158548036372 0.73094361017815 0.74015114325415 0.74925790060396 0.75829795627402 0.7672946984733 0.77626354911478 0.78521479344735 0.79415500687439 0.80308844704122 0.81201774008715 0.82094454783891 0.82986987667382 0.8387943453864 0.84771831426936 0.85664199933406 0.86556552373371 0.87448896204849 0.88341235908068
0 0.010635315760272 0.038225590549695 0.07130396993342 0.095206769726914 0.097202005577774 0.071097314799136 0.019820864672302 -0.044875980547369 -0.10555049079445 -0.14412221816379 -0.14733922214829 -0.11103840885189 -0.041919735286457 0.043734034592084 0.12409600428506 0.17752116241418 0.18841769131834 0.15166153480811 0.074334030579869 -0.025731240586704 -0.12426660114901 -0.19663802742286 -0.22409503384923 -0.19855714233134 -0.12470667328918 -0.018875770767993 0.094925914795478 0.1907702028536 0.24686412126363 0.25042795363204 0.20030412731045 0.10683503436983 -0.010773118687071 -0.12882436971835 -0.2241627222776 -0.27873724484021 -0.28280240191083 -0.23624150302764 -0.14794787058762 -0.033593517824356 0.087610761792604 0.19644141590844 0.27680148106682 0.31796594599478 0.31566969261741 0.2720227607652 0.19444925876628 0.093983099293776 -0.01669716151135 -0.12514474754049 -0.22065932996508 -0.29528950710668 -0.34427949732646 -0.36601934768332 -0.36161159020486 -0.33420631416862 -0.28824898950129 -0.22876346138224 -0.16074792849324 -0.088736938444551 -0.016521294959717 0.052968516917428 0.11767577451604 0.17633147654787 0.2283388776209 0.27361591639354 0.31246070397542 0.34541234847581 0.37315186790826 0.3964099208664 0.41591245574462 0.43233593208251 0.44628711512106 0.45829006090715 0.46878522898465 0.47813362850997 0.48662405397101 0.49448336854481 0.50188533510245 0.50896153702987 0.51580890289673 0.52249834829731 0.52908014305838 0.53558990059284 0.54205197795469 0.54848309367103 0.55489427174421 0.5612928643495 0.56768357176387 0.57406943746785 0.58045233869716 0.58683346337069 0.59321353087427 0.59959298353905 0.60597207891204 0.61235097140403 0.61872974904827 0.62510846515671 0.63148715175524
0 0.0051403638330124 0.018475562699435 0.0344633254393 0.046016258171696 0.046980614890131 0.034363442878018 0.0095800123096612 -0.021689893612597 -0.051015685633262 -0.069658546533249 -0.071213420060777 -0.053668159347899 -0.020261052517208 0.021137957231946 0.059979282856007 0.085801247789647 0.091067863689623 0.073302522083918 0.035927843701844 -0.012436672447895 -0.060061737384792 -0.095040996162539 -0.10831178247282 -0.09596856136975 -0.060274437314369 -0.00912322036911 0.045880512645713 0.092204902352616 0.11931675835636 0.12103926433798 0.09681293107215 0.05163654367694 -0.0052069680784311 -0.062264642238877 -0.10834449829969 -0.13472198518472 -0.13668679627753 -0.11418253161378 -0.071507597920192 -0.016236744440916 0.042344882037604 0.0949459679809 0.13378637308685 0.15368238101841 0.15257253359324 0.13147667570125 0.093983099293776 0.04542482192478 -0.0080702338399324 -0.060486171604947 -0.10665120479134 -0.14272218491804 -0.16640050153616 -0.17690801659527 -0.17477761655472 -0.16153183307769 -0.13931929375052 -0.11056817208914 -0.077694245895828 -0.042889196645815 -0.0079852323146529 0.025601256679914 0.056876195214021 0.085226237292761 0.11036295815284 0.13224669511176 0.15102153411868 0.16694804212711 0.18035537536007 0.19159668280662 0.20102283687668 0.2089607905475 0.21570381147284 0.22150519149758 0.226577817795 0.23109617680753 0.23519985148448 0.23899849153411 0.24257608171044 0.24599622017014 0.24930575536842 0.25253896291723 0.25572013971618 0.25886649878497 0.26198981261088 0.26509816175437 0.26819687444304 0.27128950420146 0.27437832281303 0.27746480128223 0.28054984693281 0.28363403392125 0.28671770994807 0.28980108880504 0.29288429497228 0.29596740308112 0.29905045568063 0.30213347853805 0.30521648713247
-0 -0.00091324382566509 -0.0032823928634366 -0.0061227999012831 -0.0081753091844639 -0.0083466380723517 -0.0061050546335655 -0.0017019976359274 0.0038534551375187 0.009063514068292 0.012375629350931 0.012651870234813 0.0095347560506347 0.003599605341938 -0.0037553973913816 -0.010655998585993 -0.015243562970198 -0.016179236904778 -0.013023022858595 -0.006382988149487 0.0022095156478842 0.010670647566446 0.016885108865851 0.019242814283851 0.017049901325277 0.010708436116773 0.0016208433766427 -0.0081511924550858 -0.016381244694937 -0.021197972829769 -0.021503995516778 -0.017199913161471 -0.0091738165280834 0.00092507682384725 0.011062018551433 0.019248626620849 0.023934885768424 0.024283956701416 0.020285819327693 0.012704134261735 0.0028846414555989 -0.0075230476529704 -0.01686822603363 -0.023768663687779 -0.027303414726643 -0.027106237767696 -0.023358319800638 -0.01669716151135 -0.0080702338399324 0.0014337683995556 0.010746053110401 0.018947793860411 0.025356211816129 0.029562932810228 0.031429711809254 0.031051222125171 0.028697958743538 0.024751649678291 0.019643687442316 0.013803262309643 0.0076197513049524 0.0014186669163425 -0.0045483530644362 -0.010104699938348 -0.015141405846105 -0.019607228863439 -0.023495122465806 -0.026830685153182 -0.029660209594563 -0.032042174119136 -0.034039319642578 -0.03571398262051 -0.037124249950566 -0.038322223951325 -0.039352904786387 -0.040254114272043 -0.041056851900034 -0.041785916161439 -0.0424607875682 -0.043096386962606 -0.043704013277146 -0.044291989670225 -0.044866405592319 -0.045431577662695 -0.04599056396916 -0.046545456027347 -0.047097689440296 -0.047648210827958 -0.0481976515142 -0.04874641510706 -0.049294762947138 -0.049842856230768 -0.050390796963348 -0.050938646917812 -0.051486444076688 -0.05203421055528 -0.052581959612684 -0.053129698808229 -0.053677432719757 -0.054225164097298
-0 -0.0068447363300689 -0.024601440546901 -0.045890209983663 -0.061273708304235 -0.062557813414349 -0.045757209710111 -0.01275642355845 0.028881535943433 0.067930778482022 0.092754987709987 0.094825405226776 0.071462723649508 0.026978938992476 -0.02814659594322 -0.079866404354379 -0.1142500680865 -0.12126291744077 -0.097607183517094 -0.047840313455582 0.016560256529427 0.079976198043519 0.12655340758213 0.14422434219637 0.12778852234804 0.080259422146457 0.012148174708302 -0.061092954107932 -0.12277696004517 -0.158878199528 -0.16117183080667 -0.12891285676595 -0.068757492260547 0.0069334243127028 0.082909512372285 0.14426790549578 0.17939128365404 0.18200756030401 0.15204163514202 0.095217122612403 0.021620305131525 -0.056385026797882 -0.12642687123794 -0.17814545391801 -0.20463831176552 -0.20316047610277 -0.17506993823074 -0.12514474754049 -0.060486171604947 0.010746053110401 0.080541360436843 0.14201317256819 0.1900440816935 0.22157333511912 0.23556479027682 0.23272802092958 0.21509037925076 0.18551290577711 0.14722887504333 0.1034550558669 0.057109817901166 0.010632867926027 -0.034089776012944 -0.075734436772223 -0.11348440336586 -0.14695561903834 -0.17609527028995 -0.20109521714519 -0.22230242183298 -0.24015517775652 -0.25512372628274 -0.26767527736202 -0.27824519062928 -0.28722397147076 -0.29494889482441 -0.30170343412061 -0.30771992966256 -0.31318424543097 -0.31824238730521 -0.32300618657108 -0.32756032840412 -0.33196719463834 -0.33627242553072 -0.3405083740191 -0.34469796038404 -0.34885686047533 -0.35299583409669 -0.35712197613752 -0.36124001835215 -0.36535298577127 -0.36946283713518 -0.37357078060581 -0.37767758071068 -0.38178370043617 -0.38588942446024 -0.38999491853646 -0.39410028204138 -0.39820557163194 -0.40231082161894 -0.40641605261379
-0 -0.012068863952057 -0.043378068148634 -0.080915125772067 -0.10803981537071 -0.11030399168471 -0.080680615320577 -0.022492545076634 0.050924872956243 0.11977778019809 0.1635486414033 0.16719926958371 0.12600542194453 0.047570151510534 -0.049629002604521 -0.14082306783076 -0.20144947325317 -0.21381475961215 -0.17210419244877 -0.084353612276161 0.029199588329914 0.14101665967026 0.22314312562608 0.25430109804177 0.22532092055581 0.14151604971269 0.021420060722608 -0.10772110363387 -0.21648436926969 -0.28013926067944 -0.28418346669756 -0.22730338393672 -0.12123546909057 0.012225241516506 0.14618877585639 0.25437791028238 0.31630860448114 0.32092170941708 0.26808480576765 0.16788995854627 0.038121632251642 -0.099419931541743 -0.22292001258719 -0.31411191656411 -0.3608249938317 -0.3582192254431 -0.30868906627125 -0.22065932996508 -0.10665120479134 0.018947793860411 0.14201317256819 0.25040229111473 0.33509196793698 0.39068538333736 0.41535557670154 0.41035369179843 0.37925442258016 0.32710244970857 0.25959878905875 0.18241535308307 0.100697907025 0.018748222025101 -0.060108212941517 -0.13353744685158 -0.20009942806505 -0.25911697509409 -0.310496965441 -0.35457769300373 -0.39197093298231 -0.42344949870353 -0.44984253519335 -0.4719738423845 -0.49061106068715 -0.50644274202673 -0.52006358065359 -0.53197340623249 -0.54258188881858 -0.55221674988845 -0.56113543180497 -0.56953511916504 -0.57756513165215 -0.58533546296528 -0.59292658750489 -0.60039555103377 -0.60778276734359 -0.61511587660765 -0.6224138508653 -0.62968920005866 -0.63695026737236 -0.64420238663991 -0.65144901157655 -0.65869227245308 -0.66593351730954 -0.67317356249873 -0.68041290997419 -0.68765185199803 -0.69489056379427 -0.70212914526229 -0.70936765690001 -0.71660613505013
-0 -0.016150728311848 -0.058049158242606 -0.10828179171255 -0.14458044368105 -0.14761039717483 -0.10796796643426 -0.030099849167063 0.068148401597608 0.16028835799792 0.21886315759043 0.22374848102632 0.16862227826332 0.06365906483428 -0.066414249148696 -0.18845146631949 -0.26958259899204 -0.28613000405646 -0.23031231975205 -0.11288322408863 0.039075311463253 0.18871053371934 0.29861335838733 0.3403094077614 0.30152771506321 0.18937882469759 0.028664635091456 -0.14415393902478 -0.28970251431501 -0.37488641074163 -0.38029842573287 -0.30418067623507 -0.16223905835872 0.016359995030532 0.19563193441217 0.34041219901284 0.4232887497919 0.42946207354386 0.35875496481589 0.22467277098655 0.051014919693044 -0.13304519045801 -0.29831478529144 -0.42034911024714 -0.48286122593227 -0.47937414898327 -0.41309217354591 -0.29528950710668 -0.14272218491804 0.025356211816129 0.1900440816935 0.33509196793698 0.44842491846221 0.52282083108714 0.55583484069139 0.54914124596382 0.50752375405766 0.43773322960382 0.34739885450926 0.24411086405962 0.1347553957351 0.025089141899392 -0.080437679999177 -0.1787017429416 -0.26777594899345 -0.34675408409251 -0.41551153036539 -0.47450099759962 -0.52454117221696 -0.56666624418974 -0.60198578738494 -0.6316022227885 -0.65654281790089 -0.67772900286834 -0.69595660613869 -0.71189450699915 -0.72609093184324 -0.73898444229129 -0.75091955143708 -0.76216013456038 -0.77290601342149 -0.78330438317941 -0.79346293584084 -0.80345801087071 -0.81334369058958 -0.82315696347719 -0.832923218191 -0.84265919571652 -0.85237606102411 -0.86208095192689 -0.87177849023658 -0.88147152671238 -0.89116186532096 -0.90085059851744 -0.91053839802331 -0.92022565494796 -0.92991260377871 -0.93959937820235 -0.94928605917807 -0.95897269534021
-0 -0.018830214047025 -0.067679800802295 -0.12624627669867 -0.16856705462197 -0.17209969239154 -0.12588038625402 -0.035093563067566 0.07945455859747 0.18688098964137 0.25517363829421 0.26086946105901 0.19659754851216 0.074220418653414 -0.077432701677294 -0.21971649697485 -0.31430768596667 -0.33360038740214 -0.26852227310495 -0.13161110947225 0.04555809896619 0.2200185449381 0.34815479197983 0.39676842224275 0.35155265484748 0.22079770869612 0.03342023987587 -0.16806979073303 -0.33776559478813 -0.4370819210925 -0.44339181614758 -0.35464575540369 -0.18915532084342 0.019074199149718 0.22808824025058 0.39688826707138 0.49351444766932 0.50071195637521 0.41827418847485 0.2619470952967 0.059478547274372 -0.15511804581677 -0.3478066841301 -0.49008710737976 -0.56297029234548 -0.55890469207778 -0.48162620897497 -0.34427949732646 -0.16640050153616 0.029562932810228 0.22157333511912 0.39068538333736 0.52282083108714 0.6095593937019 0.64805059084144 0.64024649563096 0.59172445590856 0.51035533814835 0.40503404328223 0.28461006418358 0.15711198261084 0.029251554672934 -0.093782689088976 -0.20834924625029 -0.31220130379463 -0.40428230226324 -0.48444694906095 -0.55322306076891 -0.6115651479368 -0.66067897777022 -0.70185820793044 -0.73638815649937 -0.76546651973838 -0.79016759761388 -0.81141925045068 -0.83000132791913 -0.84655300988389 -0.86158561750791 -0.8755008203118 -0.88860627178978 -0.90113494512087 -0.91325845586917 -0.92510236267816 -0.93675567010767 -0.94828143300284 -0.95972277641519 -0.97110930110609 -0.98246052547336 -0.99378946681118 -1.0051044471312 -1.0164108550265 -1.0277120142115 -1.0390100279397 -1.05030616991 -1.0616012232858 -1.0728956440634 -1.0841897056329 -1.0954835638602 -1.1067773131362 -1.1180710101638
-0 -0.020019265497224 -0.071953505025317 -0.13421821573324 -0.17921137869888 -0.18296708817928 -0.13382922079479 -0.037309578878854 0.084471790897079 0.19868176424716 0.27128681597284 0.27734230678505 0.20901188430145 0.078907136298463 -0.08232226193361 -0.23359070035396 -0.33415493830667 -0.35466589539037 -0.28547836279405 -0.13992181588215 0.048434907668884 0.23391182141792 0.37013935143644 0.42182273477913 0.37375177552788 0.23474018619904 0.035530592131621 -0.17868271461731 -0.35909411868633 -0.46468186715967 -0.47139020643036 -0.37704019280714 -0.2010997102168 0.020278657267067 0.24249108517661 0.42195014732138 0.5246778783255 0.53232988043987 0.44468650270266 0.27848798924301 0.063234375684804 -0.1649131196736 -0.36976926199146 -0.52103411543281 -0.59851957717362 -0.59419725078044 -0.51203894569722 -0.36601934768332 -0.17690801659527 0.031429711809254 0.23556479027682 0.41535557670154 0.55583484069139 0.64805059084144 0.68897235056856 0.68067545847833 0.62908944924636 0.54258220256035 0.43061029617782 0.30258203246359 0.16703296546853 0.031098671408707 -0.099704684568495 -0.22150565396733 -0.33191554666537 -0.42981108577019 -0.51503780405001 -0.5881568475569 -0.65018300030055 -0.70239816878271 -0.74617769988576 -0.78288807430214 -0.81380261794209 -0.84006346844663 -0.86265707674721 -0.8824125368499 -0.90000939022876 -0.91599124589908 -0.93078513717844 -0.94471814462826 -0.95803795273647 -0.97092701389226 -0.98351881525689 -0.99590798166623 -1.0081615496225 -1.0203253673489 -1.0324309047745 -1.0444989128045 -1.0565432307224 -1.068572706041 -1.0805930676211 -1.0926078490562 -1.1046192864116 -1.1166287338153 -1.1286370238842 -1.1406446414089 -1.1526518770429 -1.1646588964945 -1.1766658001149 -1.1886726481877
-0 -0.019778185161534 -0.071087010940008 -0.13260190406041 -0.17705324061224 -0.18076372227435 -0.13221759356107 -0.036860281385806 0.083454546397842 0.19628915566585 0.2680198671094 0.27400243517836 0.20649487611063 0.07795690368829 -0.081330902957703 -0.23077770382003 -0.33013090532151 -0.35039486091458 -0.2820405134112 -0.13823681908004 0.04785163433143 0.23109495781035 0.36568197915628 0.41674296966405 0.36925090093178 0.23191334707766 0.035102717938157 -0.17653094292379 -0.3547697577007 -0.45908597451618 -0.46571352917049 -0.37249971772012 -0.19867798372274 0.020034453227615 0.23957090650051 0.41686884785138 0.51835948871958 0.52591934223645 0.43933140256858 0.27513432085084 0.062472880987641 -0.16292716717919 -0.36531634648259 -0.51475960553773 -0.5913119550657 -0.58704167992774 -0.50587275938373 -0.36161159020486 -0.17477761655472 0.031051222125171 0.23272802092958 0.41035369179843 0.54914124596382 0.64024649563096 0.68067545847833 0.67247848101935 0.6215136920027 0.53604820162255 0.42542470758724 0.29893821356473 0.16502148490786 0.030724168251048 -0.098503999217227 -0.21883819059696 -0.32791848136735 -0.42463512160431 -0.50883550423483 -0.58107401775642 -0.64235322572694 -0.69393959739597 -0.73719191714574 -0.77346020993885 -0.80400246776444 -0.82994707416621 -0.85226860082253 -0.871786157444 -0.88917110218314 -0.904960497689 -0.91957623476604 -0.93334145513527 -0.94650086056485 -0.95923470627627 -0.97167487192277 -0.98391484282855 -0.99602084821432 -1.0080381841799 -1.0199979416803 -1.0319206217297 -1.0438198969533 -1.0557045083183 -1.0675801156963 -1.0794502101276 -1.0913170007501 -1.1031818253847 -1.1150455066215 -1.1269085234133 -1.1387711629133 -1.1506335888342 -1.1624959003188 -1.1743581569247
-0 -0.018279265772527 -0.065699575331822 -0.12255247013146 -0.16363499555726 -0.16706427280852 -0.12219728517898 -0.034066769746483 0.077129818589155 0.18141308797428 0.24770758000276 0.25323675018909 0.1908453526076 0.072048822967487 -0.075167118648219 -0.21328786984482 -0.30511144014534 -0.3238396615096 -0.26066565062249 -0.12776033467556 0.044225126544732 0.21358108026625 0.33796822259616 0.38515947945198 0.34126666828887 0.21433744667704 0.032442405877439 -0.1631522809815 -0.32788300018944 -0.4242934562541 -0.43041873175125 -0.34426926863037 -0.18362087511856 0.018516112179345 0.22141466648846 0.38527581777233 0.47907483839541 0.4860617570893 0.40603601413272 0.25428285421038 0.057738280121348 -0.15057948775935 -0.33763029994234 -0.47574777775291 -0.54649849280105 -0.54255184686105 -0.46753443454665 -0.33420631416862 -0.16153183307769 0.028697958743538 0.21509037925076 0.37925442258016 0.50752375405766 0.59172445590856 0.62908944924636 0.6215136920027 0.57441134586388 0.4954229856944 0.39318325886194 0.27628273325813 0.15251508448179 0.028395691137173 -0.091038726083442 -0.20225321051603 -0.30306668805463 -0.39245351283548 -0.4702726433412 -0.53703645290657 -0.59367152430845 -0.64134834552725 -0.68132272343538 -0.71484236933143 -0.74306993639724 -0.76704829193938 -0.78767814826174 -0.80571653761851 -0.82178393827898 -0.83637671079487 -0.84988477234402 -0.86260677486809 -0.87476887504519 -0.88653766718482 -0.89803503624318 -0.90934738261912 -0.92053591625266 -0.9316425004108 -0.94269586977404 -0.9537149716565 -0.96471244248282 -0.97569636077306 -0.98667195745697 -0.99764245900109 -1.0086099071206 -1.0195755382474 -1.0305401126307 -1.0415040729248 -1.0524676845207 -1.063431098724 -1.0743944071637 -1.0853576648838
