0 0 0 0 0 0 0 -0 -0 -0 -0 0 0 0 0 0 -0 -0 -0 -0 0 0 0 0 0 -0 -0 -0 -0 -0 0 0 0 0 0 0 0 -0 -0 -0 -0 -0 -0 -0 -0 -0 -0 -0 0 0 0 0 0 0 0 0 0 0 0 0 0 0
0 5.2900754612101e-05 0.00036005125033167 0.00091328098707552 0.0013882210994149 0.0013553829764485 0.00061456160086861 -0.00058970175357515 -0.0016440559505829 -0.0019119154811501 -0.0011384749405755 0.0003472345092501 0.001775494092103 0.0023525405330043 0.0017092099968417 0.00012026435193397 -0.0016300533394409 -0.0026564476503593 -0.002426711415905 -0.0010214047047277 0.00092194295653587 0.0025292293786198 0.0030973372679858 0.0023902608244527 0.00070377370562138 -0.0012986878064938 -0.0028767466375764 -0.0034933664431585 -0.0029785277935604 -0.0015378596227921 0.00036551813373524 0.0021886942121569 0.0034749635336178 0.0039596300339162 0.0035993539279547 0.002537222706404 0.0010309941079117 -0.00062636626556258 -0.0021714474418571 -0.0034105320285109 -0.0042335425971061 -0.0046084921964304 -0.0045638880627562 -0.0041671619380721 -0.003504360508712 -0.0026640351734179 -0.0017265696965047 -0.00075816828122079 0.00019104222802528 0.0010865408650967 0.0019072199030738 0.0026427256849288 0.00329066189897 0.003854129686907 0.004339672974071 0.0047556933970508 0.0051113546693618 0.0054157860459676 0.0056775776502839 0.0059044819361064 0.0061032905402717 0.0062797995710131
0 0.00036005125033167 0.0024505681216832 0.0062159408445464 0.0094484614869146 0.0092249598125185 0.0041828074934107 -0.0040136072775216 -0.011189715628124 -0.013012811718173 -0.0077486479886947 0.0023633352705559 0.012084305271365 0.016011778406094 0.011633164799911 0.00081853899063752 -0.011094411550015 -0.018080220310008 -0.016516597653427 -0.0069518486783124 0.0062748956355962 0.017214351795642 0.021080987676158 0.016268508923427 0.0047899997744373 -0.0088390831463038 -0.019579611507279 -0.023776427481022 -0.020272350821509 -0.010466925927257 0.002487776630698 0.014896613355692 0.023651174247141 0.026949894288205 0.024497795762063 0.017268755701297 0.0070171157360633 -0.0042631519859227 -0.014779228995938 -0.023212642809459 -0.028814188315412 -0.031366157054572 -0.031062573973061 -0.028362390615014 -0.023851254902251 -0.018131862241853 -0.011751317775514 -0.0051602182164886 0.0013002648746889 0.0073951761157871 0.012980852840275 0.017986826352844 0.02239678696137 0.026231841547187 0.029536529144093 0.032368032674727 0.034788721882832 0.03686073198157 0.038642528765974 0.040186876713656 0.041540000823723 0.042741350363618
0 0.00091328098707552 0.0062159408445464 0.01576692369456 0.023966310977022 0.0233993921575 0.010609818887756 -0.010180637375295 -0.028383055258199 -0.033007394140844 -0.019654682151768 0.0059946720548684 0.03065220919574 0.040614364688587 0.029507877618778 0.0020762491357567 -0.028141313554907 -0.045861030717312 -0.041894854119116 -0.017633576378586 0.01591646432166 0.043664728799878 0.053472568740348 0.041265569482533 0.0121499806432 -0.022420604214713 -0.049664282258291 -0.06030963408402 -0.05142143667479 -0.026549677118705 0.0063103213634567 0.037785714497689 0.059991925432912 0.068359229510909 0.062139406748739 0.043802725967258 0.017799128262856 -0.010813615145538 -0.037487965486001 -0.058879577055005 -0.073088068218726 -0.07956121482477 -0.078791167071607 -0.071942069560486 -0.060499436122086 -0.045992022053812 -0.029807576248029 -0.013089051022427 0.0032981615453955 0.018758089956366 0.032926329471506 0.045624134094101 0.056810133792225 0.066537866814669 0.07492030778022 0.082102502917672 0.08824265498587 0.093498371849684 0.098017953782895 0.1019352394936 0.10536748010307 0.10841473988236
0 0.0013882210994149 0.0094484614869146 0.023966310977022 0.036429684888086 0.035567947177509 0.016127319685169 -0.015474947808925 -0.043143300619302 -0.050172467872953 -0.029875848563048 0.0091121246893462 0.046592499079024 0.061735346293119 0.044853072481574 0.0031559759796697 -0.042775844230887 -0.069710473976422 -0.063681737896792 -0.026803692547333 0.02419361829722 0.066372013299352 0.081280295129069 0.062725201822567 0.018468422889634 -0.03408015306676 -0.075491557903808 -0.091672888977494 -0.078162498031144 -0.040356497595403 0.0095919233891979 0.057435692699713 0.091189960000349 0.10390857369173 0.094454211545513 0.066581774131043 0.027055337574487 -0.016437097583799 -0.056983103117532 -0.089499149056112 -0.1110965845699 -0.12093600838938 -0.11976550713771 -0.10935462394684 -0.091961395141187 -0.069909585684366 -0.045308625555031 -0.019895844825191 0.0050133283309208 0.028512995048255 0.050049246557733 0.0693503822901 0.086353518256732 0.10114003458888 0.11388165691285 0.1247988608961 0.13413212062154 0.14212100591112 0.1489909387018 0.15494535881237 0.1601624923121 0.16479444061811
0 0.0013553829764485 0.0092249598125185 0.0233993921575 0.035567947177509 0.034726593719064 0.015745830809107 -0.015108890673456 -0.042122753523805 -0.048985647077449 -0.029169140683983 0.0088965790020197 0.045490361808011 0.060275007667085 0.043792081037059 0.0030813219297181 -0.041763989250841 -0.068061485124824 -0.062175357723883 -0.026169655971895 0.023621322563506 0.064801995140735 0.079357624217841 0.061241448340205 0.018031555634049 -0.033273993113138 -0.073705818541094 -0.089504383108938 -0.076313578055216 -0.039401871829311 0.0093650281490434 0.056077061613979 0.089032877730773 0.10145063487953 0.09221991398676 0.065006794117295 0.026415348380731 -0.016048280966694 -0.055635177957791 -0.087382062618413 -0.10846861464004 -0.11807528864075 -0.11693247538781 -0.1067678597854 -0.089786064710691 -0.068255886880764 -0.044236858083664 -0.019425212157839 0.0048947389417584 0.027838525226459 0.048865340540504 0.067709911343236 0.084310841155587 0.09874758507629 0.11118780659253 0.12184676605911 0.13095924918732 0.1387591588176 0.14546658457115 0.15128015393405 0.15637387706963 0.16089625746308
0 0.00061456160086861 0.0041828074934107 0.010609818887756 0.016127319685169 0.015745830809107 0.0071395193515027 -0.0068507161451582 -0.019099418605962 -0.022211211303823 -0.013225954660935 0.0040339121331315 0.020626369124156 0.027330065264148 0.019856329830867 0.0013971417457825 -0.018936746689788 -0.030860632000418 -0.02819172738726 -0.011865919778933 0.010710447203122 0.02938270478911 0.035982559489008 0.027768271540556 0.0081759191971332 -0.015087188514411 -0.033419901697923 -0.04058333174017 -0.03460231942747 -0.017865708695923 0.0042463176765999 0.025426620635149 0.040369540431692 0.046000035166499 0.041814615467707 0.029475565323053 0.011977322329149 -0.0072766571614497 -0.025226260492029 -0.039621023152208 -0.049182147492993 -0.053538032918361 -0.053019855285599 -0.048410986393651 -0.040711052612511 -0.030948778197041 -0.020058001903293 -0.0088078348986022 0.0022193864406968 0.01262262321888 0.022156661571958 0.030701220417278 0.038228461188827 0.044774410643265 0.050415091235414 0.055248106927066 0.059379914922644 0.062916572112761 0.0659578721589 0.068593877300255 0.07090348771958 0.072954038289144
-0 -0.00058970175357515 -0.0040136072775216 -0.010180637375295 -0.015474947808925 -0.015108890673456 -0.0068507161451582 0.0065735954188083 0.018326821311781 0.021312737789638 0.012690946920919 -0.0038707349357876 -0.019792004617945 -0.026224527189483 -0.019053114454725 -0.0013406254740233 0.018170729694458 0.02961227772995 0.027051333915238 0.011385927287889 -0.010277195139313 -0.028194134671657 -0.034527016329689 -0.026645007429805 -0.0078451922164088 0.014476891349691 0.032068021509511 0.038941681125659 0.033202608843941 0.017143016634879 -0.0040745483879711 -0.024398079468104 -0.038736537964534 -0.044139271578086 -0.040123157762421 -0.028283238871508 -0.011492823454396 0.0069823065453604 0.024205824163546 0.038018299220576 0.047192663160565 0.051372347133792 0.050875130486558 0.046452696569863 0.039064235516108 0.029696858293796 0.019246628619275 0.0084515460737622 -0.0021296092598203 -0.012112021051057 -0.021260394668147 -0.029459314560782 -0.036682068270566 -0.042963225223165 -0.048375732662365 -0.053013246337796 -0.056977917116095 -0.06037151174332 -0.063289787092482 -0.065819162263486 -0.068035345820068 -0.070002948847913
-0 -0.0016440559505829 -0.011189715628124 -0.028383055258199 -0.043143300619302 -0.042122753523805 -0.019099418605962 0.018326821311781 0.051094166585454 0.059418736969722 0.035381659758299 -0.010791395422737 -0.055179016797598 -0.073112534795265 -0.053119031792798 -0.0037375898489508 0.050658991769131 0.082557396373812 0.075417626325377 0.031743337029389 -0.028652252976445 -0.078603691777161 -0.096259416405927 -0.07428481050415 -0.021871963019709 0.040360774281413 0.089403874528943 0.10856725826606 0.092567041413418 0.047793784465866 -0.011359616081467 -0.068020499327238 -0.10799533045217 -0.12305785365635 -0.11186114993819 -0.078852109369781 -0.032041357643325 0.01946628538087 0.067484502146335 0.10599292046477 0.13157054090919 0.14322326920121 0.14183705662399 0.12950755488396 0.10890893314436 0.082793202318855 0.053658538605898 0.023562444116801 -0.0059372331094447 -0.033767646376921 -0.059272807235178 -0.082130943498328 -0.10226758230629 -0.11977910131036 -0.13486887340115 -0.14779800564093 -0.15885128900943 -0.16831244357939 -0.17644843422914 -0.18350019264081 -0.18967879011265 -0.19516435878648
-0 -0.0019119154811501 -0.013012811718173 -0.033007394140844 -0.050172467872953 -0.048985647077449 -0.022211211303823 0.021312737789638 0.059418736969722 0.06909959666672 0.041146253578958 -0.012549594777859 -0.064169115663348 -0.085024470786188 -0.061773505452992 -0.0043465405735523 0.058912660842545 0.096008146288802 0.087705121758149 0.036915153324518 -0.03332045117812 -0.091410280246864 -0.11194258222642 -0.086387740737676 -0.025435475408059 0.046936595529173 0.10397009403852 0.1262556920592 0.10764862318696 0.055580636650865 -0.01321039338009 -0.079102810128329 -0.12559058230969 -0.14310718281776 -0.13008624446769 -0.091699171534871 -0.037261729257828 0.022637850230691 0.07847948504766 0.1232619275865 0.15300680852034 0.16655806972362 0.16494600701638 0.15060770834518 0.12665303467344 0.096282371163396 0.062400911976344 0.027401379901136 -0.0069045630065812 -0.039269275383935 -0.068929891177965 -0.095512213133772 -0.11892963482287 -0.13929423632592 -0.15684252527386 -0.17187814986943 -0.18473230095977 -0.19573492400642 -0.20519647941896 -0.21339715292512 -0.2205824048346 -0.22696171550629
-0 -0.0011384749405755 -0.0077486479886947 -0.019654682151768 -0.029875848563048 -0.029169140683983 -0.013225954660935 0.012690946920919 0.035381659758299 0.041146253578958 0.024501071862251 -0.0074728194367541 -0.038210334537209 -0.050628927000237 -0.036783837278953 -0.0025882041177925 0.035080310146093 0.05716929943742 0.052225155487372 0.021981608183949 -0.01984109603639 -0.054431440300613 -0.066657666567686 -0.051440703824218 -0.015145884658186 0.027949006288578 0.061910344782046 0.075180593981047 0.064100772808267 0.033096213003192 -0.0078663005591287 -0.047102797141447 -0.074784545729951 -0.085215033332106 -0.077461546234749 -0.054603464375521 -0.022187981331177 0.013480002359016 0.046731630114887 0.073397917987386 0.091109894216173 0.099179168954116 0.098219245247799 0.089681318812981 0.075417196808727 0.057332590205703 0.037157434653645 0.016316508058122 -0.004111411846453 -0.023383400783112 -0.041045200238404 -0.056873989589904 -0.070818197913324 -0.082944564750462 -0.093393921646297 -0.10234707987255 -0.11000125132678 -0.1165529063255 -0.1221869125576 -0.12707011025888 -0.13134866196335 -0.1351473054753
0 0.0003472345092501 0.0023633352705559 0.0059946720548684 0.0091121246893462 0.0088965790020197 0.0040339121331315 -0.0038707349357876 -0.010791395422737 -0.012549594777859 -0.0074728194367541 0.0022792076464363 0.011654140366588 0.01544180727588 0.011219059138391 0.00078940146563653 -0.010699483883029 -0.017436618872164 -0.015928656477059 -0.0067043837841725 0.0060515282327577 0.016601572671424 0.020330567949687 0.015689398959324 0.0046194901960559 -0.0085244383839807 -0.018882636254629 -0.022930058208346 -0.019550716133795 -0.010094334860274 0.0023992192686139 0.014366338745629 0.022809263612692 0.025990559146472 0.023625747949252 0.016654039961744 0.0067673275310626 -0.0041113966034746 -0.014253132915861 -0.022386342574607 -0.027788489916158 -0.030249616247333 -0.029956839810013 -0.02735277485439 -0.023002221998543 -0.01748642250663 -0.011333006223596 -0.0049765299755945 0.001253979357777 0.0071319300988898 0.012518773539846 0.017346549458842 0.021599528739718 0.025298066922343 0.028485117584934 0.031215828110155 0.033550348066547 0.035548600840656 0.03726697102114 0.038756344828982 0.040061301792417 0.041219886903672
0 0.001775494092103 0.012084305271365 0.03065220919574 0.046592499079024 0.045490361808011 0.020626369124156 -0.019792004617945 -0.055179016797598 -0.064169115663348 -0.038210334537209 0.011654140366588 0.059590440518436 0.078957698210727 0.057365764889517 0.0040364007643194 -0.054709050848361 -0.089157652736299 -0.081447076015673 -0.034281137049706 0.03094292859503 0.084887859393326 0.103955114835 0.080223694416455 0.023620571496014 -0.043587516753276 -0.096551489613833 -0.11724693772062 -0.099967543741267 -0.051614777421843 0.012267788838971 0.073458567303987 0.11662928571534 0.1328960197956 0.12080416775396 0.08515613734817 0.034602983662761 -0.021022565975734 -0.072879718495502 -0.11446678808177 -0.1420892750008 -0.15467360963493 -0.15317657284589 -0.13986135842741 -0.11761592864677 -0.089412310774037 -0.057948403916472 -0.025446202308417 0.0064118999754968 0.036467284842217 0.064011519213268 0.088697106025153 0.11044361849979 0.12935513943948 0.14565130088635 0.15961408475609 0.17155105035154 0.18176860045225 0.19055504310763 0.19817057188231 0.2048431326944 0.21076725879775
0 0.0023525405330043 0.016011778406094 0.040614364688587 0.061735346293119 0.060275007667085 0.027330065264148 -0.026224527189483 -0.073112534795265 -0.085024470786188 -0.050628927000237 0.01544180727588 0.078957698210727 0.10461943312548 0.076009989393729 0.0053482557040013 -0.072489827037674 -0.11813443526653 -0.10791787394493 -0.045422716293796 0.040999569671021 0.11247693296812 0.13774116306565 0.10629688584236 0.031297401722851 -0.057753726329569 -0.12793131435849 -0.1553529096972 -0.13245760697387 -0.068389895819396 0.016254895255568 0.097333051035024 0.15453451701193 0.17608803917436 0.16006626125149 0.11283240289938 0.045849165024879 -0.027855028516085 -0.096566072822876 -0.15166919441912 -0.18826915855779 -0.2049434789283 -0.20295989602523 -0.18531715546955 -0.15584182493152 -0.11847185872432 -0.076781989668536 -0.033716373716946 0.0084958066901018 0.048319375491872 0.08481565452579 0.11752420805703 0.14633847011265 0.1713963510424 0.1929888646456 0.21148963868548 0.22730619111969 0.24084450750544 0.25248659777183 0.26257721998363 0.27141840387672 0.27926790720244
0 0.0017092099968417 0.011633164799911 0.029507877618778 0.044853072481574 0.043792081037059 0.019856329830867 -0.019053114454725 -0.053119031792798 -0.061773505452992 -0.036783837278953 0.011219059138391 0.057365764889517 0.076009989393729 0.05522414254248 0.0038857107823221 -0.052666610969669 -0.085829151462462 -0.078406431853917 -0.033001327579216 0.029787743660435 0.081718761290669 0.10007418345636 0.077228722466634 0.022738750363443 -0.041960274440541 -0.092946956000538 -0.11286978590494 -0.096235479398239 -0.049687855311124 0.011809798419478 0.070716156222699 0.11227519255389 0.12793464455072 0.1162942147223 0.081977023688944 0.03331115876983 -0.020237735560374 -0.070158917438001 -0.11019342692601 -0.13678469016345 -0.14889921684981 -0.1474580685763 -0.13463994786535 -0.11322500138131 -0.086074302412732 -0.055785030046331 -0.024496225338426 0.0061725260509804 0.035105860440324 0.061621792513399 0.085385798231265 0.10632045336947 0.124525955032 0.14021373579062 0.15365525039776 0.16514657611855 0.17498267687104 0.18344109736934 0.19077231743411 0.19719577313317 0.20289873525702
0 0.00012026435193397 0.00081853899063752 0.0020762491357567 0.0031559759796697 0.0030813219297181 0.0013971417457825 -0.0013406254740233 -0.0037375898489508 -0.0043465405735523 -0.0025882041177925 0.00078940146563653 0.0040364007643194 0.0053482557040013 0.0038857107823221 0.00027340846935269 -0.0037057563719669 -0.00603915686004 -0.0055168754756819 -0.0023220571384492 0.0020959412205154 0.0057499393787943 0.0070414734531975 0.0054340088551438 0.0015999561676453 -0.0029524313699825 -0.0065399836464185 -0.0079418045060971 -0.0067713724962235 -0.0034961635662224 0.00083096738025975 0.0049757681707334 0.0078999674093328 0.0090018061825202 0.0081827560060442 0.0057681113763926 0.0023438576471152 -0.0014239784206018 -0.0049365594360326 -0.0077534890979621 -0.0096245178459012 -0.010476926680166 -0.010375523831204 -0.0094736083362312 -0.0079667983682565 -0.0060564063028906 -0.00392517625016 -0.0017236165658977 0.00043431459369439 0.0024701374101143 0.004335865666201 0.0060079614018305 0.0074809768521315 0.0087619621395589 0.0098657941963006 0.010811573267466 0.011620132100626 0.01231222510543 0.012907381032141 0.013423224276449 0.013875194916833 0.014276469801252
-0 -0.0016300533394409 -0.011094411550015 -0.028141313554907 -0.042775844230887 -0.041763989250841 -0.018936746689788 0.018170729694458 0.050658991769131 0.058912660842545 0.035080310146093 -0.010699483883029 -0.054709050848361 -0.072489827037674 -0.052666610969669 -0.0037057563719669 0.050227523386114 0.081854245658104 0.074775285841581 0.031472975424838 -0.028408218485631 -0.077934215212274 -0.095439564030339 -0.073652118341286 -0.021685677028062 0.040017016985653 0.088642411581669 0.10764257860433 0.091778637414749 0.04738671937867 -0.011262864941912 -0.067441161013706 -0.10707552196454 -0.12200975594891 -0.11090841582721 -0.07818051700406 -0.031768457763378 0.019300488818733 0.066909728981632 0.1050901667303 0.13044993967817 0.14200342036067 0.14062901431331 0.12840452433908 0.10798134339891 0.082088043217147 0.053201522742004 0.02336176010577 -0.0058866650211376 -0.033480043499885 -0.058767974008114 -0.081431424930166 -0.10139655769976 -0.11875892910881 -0.13372017989792 -0.14653919325087 -0.1574983345503 -0.16687890739289 -0.17494560288679 -0.18193730067164 -0.18806327432751 -0.1935021217903
-0 -0.0026564476503593 -0.018080220310008 -0.045861030717312 -0.069710473976422 -0.068061485124824 -0.030860632000418 0.02961227772995 0.082557396373812 0.096008146288802 0.05716929943742 -0.017436618872164 -0.089157652736299 -0.11813443526653 -0.085829151462462 -0.00603915686004 0.081854245658104 0.13339533945864 0.12185897698718 0.051290537305854 -0.046295997450569 -0.12700698674943 -0.15553491378796 -0.12002858555463 -0.035340478985433 0.065214498307391 0.1444578040919 0.17542179025268 0.14956881459917 0.077224674988169 -0.018354743607052 -0.10990677996697 -0.17449767553697 -0.19883553603378 -0.18074402444421 -0.12740837718264 -0.051772075759195 0.031453411328794 0.10904072157565 0.17126220334748 0.21259024313059 0.23141859424641 0.22917876710284 0.20925689284073 0.17597386478964 0.13377635212942 0.086700880679161 0.038071939880517 -0.0095933164182326 -0.054561394242289 -0.095772354617412 -0.13270628155968 -0.1652428426351 -0.1935377638001 -0.21791965275031 -0.23881040342541 -0.25667017798028 -0.27195740820998 -0.2851034530494 -0.29649760727932 -0.3064809175984 -0.31534443955415
-0 -0.002426711415905 -0.016516597653427 -0.041894854119116 -0.063681737896792 -0.062175357723883 -0.02819172738726 0.027051333915238 0.075417626325377 0.087705121758149 0.052225155487372 -0.015928656477059 -0.081447076015673 -0.10791787394493 -0.078406431853917 -0.0055168754756819 0.074775285841581 0.12185897698718 0.11132030798548 0.046854803403026 -0.042292203841776 -0.11602310499243 -0.14208386557513 -0.10964821338036 -0.032284146004497 0.059574585444459 0.13196473202059 0.16025087524201 0.13663372956063 0.070546092018036 -0.016767379489378 -0.10040176684647 -0.15940668027739 -0.18163974174891 -0.165112829314 -0.11638978217742 -0.04729469720698 0.028733241677251 0.099610607350142 0.15645101981218 0.19420490738647 0.21140493562314 0.20935881433096 0.19115983356371 0.16075520499272 0.12220703872959 0.079202771748459 0.034779383332174 -0.0087636624291711 -0.049842788453802 -0.087489721940027 -0.12122951053812 -0.15095222846381 -0.17680013410349 -0.19907341633768 -0.21815748266334 -0.23447269926168 -0.24843785159998 -0.26044699361394 -0.2708557528984 -0.27997568158081 -0.28807266399725
-0 -0.0010214047047277 -0.0069518486783124 -0.017633576378586 -0.026803692547333 -0.026169655971895 -0.011865919778933 0.011385927287889 0.031743337029389 0.036915153324518 0.021981608183949 -0.0067043837841725 -0.034281137049706 -0.045422716293796 -0.033001327579216 -0.0023220571384492 0.031472975424838 0.051290537305854 0.046854803403026 0.019721222853809 -0.01780082118301 -0.048834214286743 -0.059803208495733 -0.046151017495387 -0.013588421928123 0.025074988915598 0.055544057385866 0.067449716862145 0.057509242047918 0.029692904485927 -0.0070574029462911 -0.042259181024914 -0.067094394551085 -0.076452307254951 -0.069496117077166 -0.048988548996428 -0.019906374494829 0.012093843560825 0.041926181383326 0.06585035478395 0.081740995153218 0.088980500290598 0.088119286262193 0.080459321235001 0.067661989642801 0.051437036761413 0.033336507654406 0.014638669241914 -0.0036886322688117 -0.020978868063913 -0.036824491375106 -0.05102559439244 -0.063535909268623 -0.074415312668092 -0.083790154321954 -0.091822652542635 -0.0986897397797 -0.104567683159 -0.10962234028568 -0.11400339508842 -0.11784198009772 -0.1212500062355
0 0.00092194295653587 0.0062748956355962 0.01591646432166 0.02419361829722 0.023621322563506 0.010710447203122 -0.010277195139313 -0.028652252976445 -0.03332045117812 -0.01984109603639 0.0060515282327577 0.03094292859503 0.040999569671021 0.029787743660435 0.0020959412205154 -0.028408218485631 -0.046295997450569 -0.042292203841776 -0.01780082118301 0.016067423259623 0.04407886481356 0.053979726738762 0.041656950785418 0.01226521654843 -0.022633251353697 -0.050135320747299 -0.06088163789883 -0.051909140810086 -0.026801486250439 0.0063701713019847 0.038144091283857 0.060560915955348 0.069007579325189 0.06272876495411 0.044218170808416 0.01796794323614 -0.010916176356679 -0.037843518286033 -0.059438017562917 -0.073781268475587 -0.080315809328316 -0.07953845809439 -0.072624400648362 -0.061073240105169 -0.04642823116808 -0.030090284766876 -0.013213193495363 0.0033294427994519 0.018936000155566 0.033238617654836 0.046056853992764 0.057348946765352 0.06716894200233 0.075630885824804 0.08288120014553 0.089079588189785 0.09438515264663 0.098947600336637 0.10290203935468 0.10636683288462 0.10944299425226
0 0.0025292293786198 0.017214351795642 0.043664728799878 0.066372013299352 0.064801995140735 0.02938270478911 -0.028194134671657 -0.078603691777161 -0.091410280246864 -0.054431440300613 0.016601572671424 0.084887859393326 0.11247693296812 0.081718761290669 0.0057499393787943 -0.077934215212274 -0.12700698674943 -0.11602310499243 -0.048834214286743 0.04407886481356 0.12092457464132 0.14808628858182 0.11428037169033 0.033648010226125 -0.062091351587032 -0.137539665813 -0.16702077509306 -0.14240590811507 -0.073526356413621 0.017475728069292 0.10464330315878 0.1661409165768 0.18931322782974 0.17208812549814 0.12130674233653 0.049292691683413 -0.029947095693695 -0.1038187206278 -0.16306039236084 -0.20240921685812 -0.22033587119541 -0.21820331021166 -0.19923550196063 -0.16754641057392 -0.12736975258088 -0.082548743069071 -0.036248660437117 0.0091338889061517 0.051948428660882 0.091185780726825 0.12635092809104 0.15732930108479 0.18426916789021 0.20748339905745 0.22737368386759 0.24437814713777 0.2589332661929 0.27144974202709 0.28229822594844 0.29180343180163 0.30024247637513
0 0.0030973372679858 0.021080987676158 0.053472568740348 0.081280295129069 0.079357624217841 0.035982559489008 -0.034527016329689 -0.096259416405927 -0.11194258222642 -0.066657666567686 0.020330567949687 0.103955114835 0.13774116306565 0.10007418345636 0.0070414734531975 -0.095439564030339 -0.15553491378796 -0.14208386557513 -0.059803208495733 0.053979726738762 0.14808628858182 0.18134898494357 0.1399496847648 0.041205924993571 -0.07603812406887 -0.16843341151659 -0.20453647881708 -0.17439269451585 -0.090041625257172 0.021401073501583 0.12814796690986 0.2034589891295 0.23183619518121 0.21074204221606 0.14855429763429 0.060364667705102 -0.036673722179613 -0.12713816913299 -0.19968652683736 -0.2478737658427 -0.26982705131318 -0.26721548090084 -0.24398718065866 -0.20518018095735 -0.15597916298844 -0.10109059324336 -0.0443907254263 0.011185515536793 0.063616928327969 0.1116676563 0.15473149320862 0.19266813509101 0.22565915368203 0.25408769557298 0.27844567628209 0.29926963090401 0.31709407698648 0.3324219659446 0.34570720366752 0.35734744024623 0.36768203760803
0 0.0023902608244527 0.016268508923427 0.041265569482533 0.062725201822567 0.061241448340205 0.027768271540556 -0.026645007429805 -0.07428481050415 -0.086387740737676 -0.051440703824218 0.015689398959324 0.080223694416455 0.10629688584236 0.077228722466634 0.0054340088551438 -0.073652118341286 -0.12002858555463 -0.10964821338036 -0.046151017495387 0.041656950785418 0.11428037169033 0.1399496847648 0.1080012345912 0.031799219692829 -0.058679741145815 -0.12998254637566 -0.15784381557063 -0.13458141290601 -0.069486449424421 0.016515523872972 0.098893674965238 0.15701230089652 0.17891140908661 0.16263274031561 0.11464154117457 0.046584303843166 -0.028301651976633 -0.09811439913641 -0.15410103613958 -0.19128783875986 -0.20822951274883 -0.20621412536709 -0.18828850368508 -0.15834057000043 -0.12037141921087 -0.07801310088114 -0.034256977130722 0.0086320272142305 0.04909412130415 0.086175576347845 0.11940857405114 0.14868483977784 0.17414449511211 0.19608321992604 0.21488063267586 0.23095078540267 0.24470617317683 0.25653493101887 0.26678734479404 0.27577028693891 0.28374564805497
0 0.00070377370562138 0.0047899997744373 0.0121499806432 0.018468422889634 0.018031555634049 0.0081759191971332 -0.0078451922164088 -0.021871963019709 -0.025435475408059 -0.015145884658186 0.0046194901960559 0.023620571496014 0.031297401722851 0.022738750363443 0.0015999561676453 -0.021685677028062 -0.035340478985433 -0.032284146004497 -0.013588421928123 0.01226521654843 0.033648010226125 0.041205924993571 0.031799219692829 0.0093627667952158 -0.017277302313044 -0.038271262028422 -0.046474562883317 -0.039625324023086 -0.020459163076103 0.0048627293379255 0.029117645815384 0.046229736813507 0.052677575628032 0.047884584450522 0.033754350749169 0.013715996097206 -0.0083329644543551 -0.028888200630095 -0.04537256191231 -0.056321615510372 -0.06130981786916 -0.060716419595881 -0.055438509726106 -0.046620824204373 -0.035441420819981 -0.022969697922697 -0.010086413788836 0.0025415610369528 0.014454971324043 0.025373007029167 0.035157926609192 0.043777850345738 0.051274034776801 0.057733538066548 0.063268132739942 0.067999729735027 0.072049781564955 0.075532568319533 0.078551226015923 0.081196108288185 0.083544324595333
-0 -0.0012986878064938 -0.0088390831463038 -0.022420604214713 -0.03408015306676 -0.033273993113138 -0.015087188514411 0.014476891349691 0.040360774281413 0.046936595529173 0.027949006288578 -0.0085244383839807 -0.043587516753276 -0.057753726329569 -0.041960274440541 -0.0029524313699825 0.040017016985653 0.065214498307391 0.059574585444459 0.025074988915598 -0.022633251353697 -0.062091351587032 -0.07603812406887 -0.058679741145815 -0.017277302313044 0.031882154254748 0.070622731338841 0.085760447778313 0.073121409234393 0.037753706064569 -0.0089732924759778 -0.053731378811398 -0.085308665296196 -0.097206992243871 -0.088362389001174 -0.062287583897946 -0.0253104041016 0.015376987293468 0.053307978985555 0.083726903171062 0.10393141249966 0.11313624287047 0.11204123307436 0.10230179959325 0.086030346742566 0.065400768309587 0.042386446627348 0.018612662698512 -0.0046899938173109 -0.026674049984827 -0.046821321370292 -0.064877630727404 -0.080784149769167 -0.094617010016842 -0.10653686165579 -0.11674996077957 -0.12548127209979 -0.13295491438733 -0.13938177099573 -0.14495216089658 -0.14983281547228 -0.15416602636201
-0 -0.0028767466375764 -0.019579611507279 -0.049664282258291 -0.075491557903808 -0.073705818541094 -0.033419901697923 0.032068021509511 0.089403874528943 0.10397009403852 0.061910344782046 -0.018882636254629 -0.096551489613833 -0.12793131435849 -0.092946956000538 -0.0065399836464185 0.088642411581669 0.1444578040919 0.13196473202059 0.055544057385866 -0.050135320747299 -0.137539665813 -0.16843341151659 -0.12998254637566 -0.038271262028422 0.070622731338841 0.15643767801592 0.1899695050263 0.16197254420815 0.083628910993259 -0.01987690099898 -0.11902134027527 -0.18896875355251 -0.21532495083746 -0.19573311166572 -0.13797434352213 -0.05606552978391 0.034061840167707 0.11808345973211 0.18546496391794 0.23022033467318 0.25061011941303 0.24818454358694 0.22661054991535 0.19056736305963 0.14487041411243 0.093890977650156 0.041229242752996 -0.010388889367206 -0.059086166221555 -0.10371474818303 -0.14371160267753 -0.1789464181121 -0.20958783478406 -0.23599171179846 -0.25861493072503 -0.27795581492865 -0.29451081391581 -0.30874705918272 -0.32108612969462 -0.3318973551251 -0.34149592823451
-0 -0.0034933664431585 -0.023776427481022 -0.06030963408402 -0.091672888977494 -0.089504383108938 -0.04058333174017 0.038941681125659 0.10856725826606 0.1262556920592 0.075180593981047 -0.022930058208346 -0.11724693772062 -0.1553529096972 -0.11286978590494 -0.0079418045060971 0.10764257860433 0.17542179025268 0.16025087524201 0.067449716862145 -0.06088163789883 -0.16702077509306 -0.20453647881708 -0.15784381557063 -0.046474562883317 0.085760447778313 0.1899695050263 0.23068875284805 0.19669074893799 0.10155445304974 -0.024137439855433 -0.14453311623149 -0.22947349406549 -0.26147904295946 -0.23768776686016 -0.1675486243318 -0.068082964904418 0.041362867302886 0.14339420452673 0.2252186803209 0.27956719621216 0.30432745450639 0.30138196563867 0.2751836676889 0.2314147594988 0.17592284167688 0.1140161550392 0.050066575634027 -0.012615708670006 -0.071751063384283 -0.12594561378143 -0.17451564337594 -0.21730290877576 -0.25451219769069 -0.28657564628452 -0.31404806697044 -0.3375345968495 -0.35763809750989 -0.37492582832441 -0.3899097321215 -0.40303830299908 -0.41469429409841
-0 -0.0029785277935604 -0.020272350821509 -0.05142143667479 -0.078162498031144 -0.076313578055216 -0.03460231942747 0.033202608843941 0.092567041413418 0.10764862318696 0.064100772808267 -0.019550716133795 -0.099967543741267 -0.13245760697387 -0.096235479398239 -0.0067713724962235 0.091778637414749 0.14956881459917 0.13663372956063 0.057509242047918 -0.051909140810086 -0.14240590811507 -0.17439269451585 -0.13458141290601 -0.039625324023086 0.073121409234393 0.16197254420815 0.19669074893799 0.16770323754479 0.086587755934066 -0.020580158607637 -0.12323239224688 -0.19565459023002 -0.22294328681539 -0.20265827570674 -0.14285596500259 -0.058049164476561 0.035266970095357 0.12226132888372 0.19202683425283 0.23836567896175 0.25947686746862 0.25696547320155 0.2346281776853 0.19730975957508 0.14999602302899 0.097212901144174 0.042687960018163 -0.010756454989904 -0.061176672984347 -0.10738424303001 -0.1487962120963 -0.18527765808185 -0.21700318788671 -0.24434125114118 -0.2677648941803 -0.2877900713718 -0.30493079692669 -0.31967072975552 -0.3324463645599 -0.34364009813605 -0.35357827496798
-0 -0.0015378596227921 -0.010466925927257 -0.026549677118705 -0.040356497595403 -0.039401871829311 -0.017865708695923 0.017143016634879 0.047793784465866 0.055580636650865 0.033096213003192 -0.010094334860274 -0.051614777421843 -0.068389895819396 -0.049687855311124 -0.0034961635662224 0.04738671937867 0.077224674988169 0.070546092018036 0.029692904485927 -0.026801486250439 -0.073526356413621 -0.090041625257172 -0.069486449424421 -0.020459163076103 0.037753706064569 0.083628910993259 0.10155445304974 0.086587755934066 0.044706587585675 -0.010625851812351 -0.063626775840828 -0.10101946840288 -0.11510904135499 -0.10463557872714 -0.07375872769341 -0.029971674724112 0.018208878038715 0.063125400919769 0.099146402302667 0.12307185916721 0.13397188986831 0.13267521845615 0.12114212988431 0.10187405774402 0.077445249258508 0.050192513162819 0.022040449054472 -0.0055537228321714 -0.031586455376642 -0.055444133117369 -0.076825768455823 -0.095661699039897 -0.11204207709246 -0.12615713881365 -0.13825112528792 -0.14859043167568 -0.15744045140462 -0.16505090499486 -0.1716471613614 -0.17742665784026 -0.18255789109819
0 0.00036551813373524 0.002487776630698 0.0063103213634567 0.0095919233891979 0.0093650281490434 0.0042463176765999 -0.0040745483879711 -0.011359616081467 -0.01321039338009 -0.0078663005591287 0.0023992192686139 0.012267788838971 0.016254895255568 0.011809798419478 0.00083096738025975 -0.011262864941912 -0.018354743607052 -0.016767379489378 -0.0070574029462911 0.0063701713019847 0.017475728069292 0.021401073501583 0.016515523872972 0.0048627293379255 -0.0089732924759778 -0.01987690099898 -0.024137439855433 -0.020580158607637 -0.010625851812351 0.002525550099785 0.015122797956491 0.024010284823337 0.027359091394662 0.024869761122418 0.017530958023485 0.0071236609946149 -0.00432788208981 -0.01500363127656 -0.023565094888465 -0.029251692164499 -0.031842409041691 -0.031534216468314 -0.028793034536944 -0.024213403428216 -0.018407169650658 -0.011929745385633 -0.0052385690382134 0.0013200076098054 0.0075074617016214 0.013177949250553 0.018259931591002 0.022736851390586 0.026630136009621 0.029985000745922 0.032859496766221 0.035316940813102 0.037420411537544 0.039229262457325 0.040797059206134 0.042170728646161 0.043390319027756
0 0.0021886942121569 0.014896613355692 0.037785714497689 0.057435692699713 0.056077061613979 0.025426620635149 -0.024398079468104 -0.068020499327238 -0.079102810128329 -0.047102797141447 0.014366338745629 0.073458567303987 0.097333051035024 0.070716156222699 0.0049757681707334 -0.067441161013706 -0.10990677996697 -0.10040176684647 -0.042259181024914 0.038144091283857 0.10464330315878 0.12814796690986 0.098893674965238 0.029117645815384 -0.053731378811398 -0.11902134027527 -0.14453311623149 -0.12323239224688 -0.063626775840828 0.015122797956491 0.090554140285048 0.14377172176946 0.16382411557382 0.14891819913315 0.10497401583737 0.042655929075122 -0.025915022010169 -0.089840579455711 -0.14110595899647 -0.17515686207407 -0.19066987363523 -0.18882444042871 -0.17241045580269 -0.14498798020878 -0.11022070304661 -0.071434389345381 -0.031368144766867 0.0079041031044356 0.044954097916878 0.078908537199074 0.10933905297447 0.136146501222 0.15945918731197 0.17954785693794 0.19676011598021 0.21147510017852 0.22407051959856 0.2349017784976 0.24428962373223 0.25251504971063 0.25981786224724
0 0.0034749635336178 0.023651174247141 0.059991925432912 0.091189960000349 0.089032877730773 0.040369540431692 -0.038736537964534 -0.10799533045217 -0.12559058230969 -0.074784545729951 0.022809263612692 0.11662928571534 0.15453451701193 0.11227519255389 0.0078999674093328 -0.10707552196454 -0.17449767553697 -0.15940668027739 -0.067094394551085 0.060560915955348 0.1661409165768 0.2034589891295 0.15701230089652 0.046229736813507 -0.085308665296196 -0.18896875355251 -0.22947349406549 -0.19565459023002 -0.10101946840288 0.024010284823337 0.14377172176946 0.22826463721581 0.26010158220558 0.23643563756207 0.16666598512763 0.067724306668935 -0.041144969433394 -0.14263880980433 -0.22403223765356 -0.27809444781713 -0.30272427009755 -0.29979429794303 -0.27373401154032 -0.23019567614332 -0.17499608744305 -0.11341552266309 -0.049802826990019 0.012549249639949 0.071373081758137 0.12528213751143 0.1735963022044 0.21615816606462 0.25317143798875 0.28506597766516 0.31239367477828 0.33575647859201 0.35575407484468 0.37295073461026 0.38785570382358 0.40091511393426 0.41250970175589
0 0.0039596300339162 0.026949894288205 0.068359229510909 0.10390857369173 0.10145063487953 0.046000035166499 -0.044139271578086 -0.12305785365635 -0.14310718281776 -0.085215033332106 0.025990559146472 0.1328960197956 0.17608803917436 0.12793464455072 0.0090018061825202 -0.12200975594891 -0.19883553603378 -0.18163974174891 -0.076452307254951 0.069007579325189 0.18931322782974 0.23183619518121 0.17891140908661 0.052677575628032 -0.097206992243871 -0.21532495083746 -0.26147904295946 -0.22294328681539 -0.11510904135499 0.027359091394662 0.16382411557382 0.26010158220558 0.29637894809736 0.26941222332892 0.18991152970648 0.077170075633363 -0.046883616227021 -0.162533192029 -0.25527887363323 -0.31688134772902 -0.34494638584759 -0.34160775923199 -0.31191274467015 -0.26230195054328 -0.19940346336122 -0.12923402087663 -0.056749018404319 0.014299541648923 0.081327759387577 0.14275571803973 0.19780844470321 0.24630657506055 0.28848223007 0.3248252236004 0.35596441950852 0.38258572323225 0.40537246098134 0.42496760488201 0.44195142735401 0.45683228351242 0.47004401299541
0 0.0035993539279547 0.024497795762063 0.062139406748739 0.094454211545513 0.09221991398676 0.041814615467707 -0.040123157762421 -0.11186114993819 -0.13008624446769 -0.077461546234749 0.023625747949252 0.12080416775396 0.16006626125149 0.1162942147223 0.0081827560060442 -0.11090841582721 -0.18074402444421 -0.165112829314 -0.069496117077166 0.06272876495411 0.17208812549814 0.21074204221606 0.16263274031561 0.047884584450522 -0.088362389001174 -0.19573311166572 -0.23768776686016 -0.20265827570674 -0.10463557872714 0.024869761122418 0.14891819913315 0.23643563756207 0.26941222332892 0.24489912844682 0.17263198949343 0.070148577637893 -0.042617801859773 -0.1477447332558 -0.23205173429469 -0.28804916466299 -0.31356064031222 -0.31052578636882 -0.28353264145672 -0.23843580029227 -0.18126027758889 -0.11747536428488 -0.051585577579614 0.012998464745732 0.073927964909871 0.12976675852619 0.17981038539627 0.22389580108029 0.26223400647374 0.29527024859657 0.32357617267159 0.34777527544244 0.36848870910164 0.38630094346787 0.40173945353135 0.41526634054007 0.42727597022829
0 0.002537222706404 0.017268755701297 0.043802725967258 0.066581774131043 0.065006794117295 0.029475565323053 -0.028283238871508 -0.078852109369781 -0.091699171534871 -0.054603464375521 0.016654039961744 0.08515613734817 0.11283240289938 0.081977023688944 0.0057681113763926 -0.07818051700406 -0.12740837718264 -0.11638978217742 -0.048988548996428 0.044218170808416 0.12130674233653 0.14855429763429 0.11464154117457 0.033754350749169 -0.062287583897946 -0.13797434352213 -0.1675486243318 -0.14285596500259 -0.07375872769341 0.017530958023485 0.10497401583737 0.16666598512763 0.18991152970648 0.17263198949343 0.12169011782715 0.049448475356226 -0.030041739917776 -0.10414682731165 -0.16357572528231 -0.20304890704619 -0.22103221643636 -0.21889291574797 -0.1998651620013 -0.1680759210209 -0.12777228949223 -0.082809628525763 -0.036363220004968 0.0091627554726198 0.052112605473657 0.091473962510876 0.1267502451291 0.15782652157584 0.18485152861712 0.20813912559315 0.22809227127608 0.24515047512426 0.25975159389714 0.27230762656033 0.2831903958212 0.29272564174378 0.30119135691111
0 0.0010309941079117 0.0070171157360633 0.017799128262856 0.027055337574487 0.026415348380731 0.011977322329149 -0.011492823454396 -0.032041357643325 -0.037261729257828 -0.022187981331177 0.0067673275310626 0.034602983662761 0.045849165024879 0.03331115876983 0.0023438576471152 -0.031768457763378 -0.051772075759195 -0.04729469720698 -0.019906374494829 0.01796794323614 0.049292691683413 0.060364667705102 0.046584303843166 0.013715996097206 -0.0253104041016 -0.05606552978391 -0.068082964904418 -0.058049164476561 -0.029971674724112 0.0071236609946149 0.042655929075122 0.067724306668935 0.077170075633363 0.070148577637893 0.049448475356226 0.020093264422083 -0.01220738596122 -0.042319803084293 -0.066468587301296 -0.082508416093769 -0.089815888936109 -0.088946589446076 -0.081214709248843 -0.068297230596669 -0.051919950617021 -0.033649485665145 -0.014776103601467 0.0037232627946546 0.021175827039407 0.037170216133575 0.051504645443475 0.064132412738618 0.075113956832285 0.084576813683247 0.092684724581837 0.099616283098417 0.10554941123327 0.11065152373677 0.1150737098371 0.11894833319549 0.12238835540353
-0 -0.00062636626556258 -0.0042631519859227 -0.010813615145538 -0.016437097583799 -0.016048280966694 -0.0072766571614497 0.0069823065453604 0.01946628538087 0.022637850230691 0.013480002359016 -0.0041113966034746 -0.021022565975734 -0.027855028516085 -0.020237735560374 -0.0014239784206018 0.019300488818733 0.031453411328794 0.028733241677251 0.012093843560825 -0.010916176356679 -0.029947095693695 -0.036673722179613 -0.028301651976633 -0.0083329644543551 0.015376987293468 0.034061840167707 0.041362867302886 0.035266970095357 0.018208878038715 -0.00432788208981 -0.025915022010169 -0.041144969433394 -0.046883616227021 -0.042617801859773 -0.030041739917776 -0.01220738596122 0.007416429151373 0.025710813295475 0.040382074432475 0.050126851423834 0.05456640586923 0.054038274940984 0.049340877654468 0.04149304147213 0.031543250661295 0.020443281404265 0.0089770181627548 -0.002262017012997 -0.012865081964182 -0.022582252692889 -0.031290937725046 -0.038962763763968 -0.045634449577957 -0.051383477881616 -0.056309327439914 -0.060520500315919 -0.064125090569553 -0.067224808725817 -0.069911446963644 -0.072265421001743 -0.074355359098738
-0 -0.0021714474418571 -0.014779228995938 -0.037487965486001 -0.056983103117532 -0.055635177957791 -0.025226260492029 0.024205824163546 0.067484502146335 0.07847948504766 0.046731630114887 -0.014253132915861 -0.072879718495502 -0.096566072822876 -0.070158917438001 -0.0049365594360326 0.066909728981632 0.10904072157565 0.099610607350142 0.041926181383326 -0.037843518286033 -0.1038187206278 -0.12713816913299 -0.09811439913641 -0.028888200630095 0.053307978985555 0.11808345973211 0.14339420452673 0.12226132888372 0.063125400919769 -0.01500363127656 -0.089840579455711 -0.14263880980433 -0.162533192029 -0.1477447332558 -0.10414682731165 -0.042319803084293 0.025710813295475 0.089132641440036 0.13999405307136 0.17377663721221 0.18916740723521 0.18733651592424 0.17105187244646 0.143845484205 0.10935217096152 0.070871490929648 0.031120965793888 -0.0078418192778915 -0.044599862502675 -0.078286742976653 -0.10847746823551 -0.13507367550671 -0.15820265912247 -0.17813303131761 -0.19520965886034 -0.20980868992502 -0.22230485824623 -0.23305076751842 -0.24236463713349 -0.25052524728167 -0.25777051412292
-0 -0.0034105320285109 -0.023212642809459 -0.058879577055005 -0.089499149056112 -0.087382062618413 -0.039621023152208 0.038018299220576 0.10599292046477 0.1232619275865 0.073397917987386 -0.022386342574607 -0.11446678808177 -0.15166919441912 -0.11019342692601 -0.0077534890979621 0.1050901667303 0.17126220334748 0.15645101981218 0.06585035478395 -0.059438017562917 -0.16306039236084 -0.19968652683736 -0.15410103613958 -0.04537256191231 0.083726903171062 0.18546496391794 0.2252186803209 0.19202683425283 0.099146402302667 -0.023565094888465 -0.14110595899647 -0.22403223765356 -0.25527887363323 -0.23205173429469 -0.16357572528231 -0.066468587301296 0.040382074432475 0.13999405307136 0.21987831369872 0.27293812209992 0.29711126720814 0.29423562152756 0.26865853544054 0.22592747196232 0.17175137388197 0.11131261345067 0.04887940115533 -0.012316566034944 -0.070049708134987 -0.12295920185907 -0.17037754295014 -0.2121502402703 -0.24847722562022 -0.27978038838687 -0.30660138531765 -0.32953100455299 -0.34915781267721 -0.36603561825603 -0.3806642249721 -0.39348149226859 -0.4048610974761
-0 -0.0042335425971061 -0.028814188315412 -0.073088068218726 -0.1110965845699 -0.10846861464004 -0.049182147492993 0.047192663160565 0.13157054090919 0.15300680852034 0.091109894216173 -0.027788489916158 -0.1420892750008 -0.18826915855779 -0.13678469016345 -0.0096245178459012 0.13044993967817 0.21259024313059 0.19420490738647 0.081740995153218 -0.073781268475587 -0.20240921685812 -0.2478737658427 -0.19128783875986 -0.056321615510372 0.10393141249966 0.23022033467318 0.27956719621216 0.23836567896175 0.12307185916721 -0.029251692164499 -0.17515686207407 -0.27809444781713 -0.31688134772902 -0.28804916466299 -0.20304890704619 -0.082508416093769 0.050126851423834 0.17377663721221 0.27293812209992 0.33880202755014 0.36880850122233 0.36523892076357 0.33348971490535 0.28044702949955 0.21319745757037 0.13817395253854 0.060674705641887 -0.015288731061052 -0.086953713035148 -0.15263103070867 -0.21149210141992 -0.2633451530912 -0.30843836395029 -0.34729543137816 -0.38058872170767 -0.40905158877848 -0.43341462878059 -0.45436529227423 -0.47252399277934 -0.48843425153796 -0.50255991961013
-0 -0.0046084921964304 -0.031366157054572 -0.07956121482477 -0.12093600838938 -0.11807528864075 -0.053538032918361 0.051372347133792 0.14322326920121 0.16655806972362 0.099179168954116 -0.030249616247333 -0.15467360963493 -0.2049434789283 -0.14889921684981 -0.010476926680166 0.14200342036067 0.23141859424641 0.21140493562314 0.088980500290598 -0.080315809328316 -0.22033587119541 -0.26982705131318 -0.20822951274883 -0.06130981786916 0.11313624287047 0.25061011941303 0.30432745450639 0.25947686746862 0.13397188986831 -0.031842409041691 -0.19066987363523 -0.30272427009755 -0.34494638584759 -0.31356064031222 -0.22103221643636 -0.089815888936109 0.05456640586923 0.18916740723521 0.29711126720814 0.36880850122233 0.4014725400477 0.39758681472159 0.36302569620574 0.30528521145488 0.23207958747916 0.15041152118301 0.066048445493967 -0.01664279883149 -0.094654889795381 -0.16614901062643 -0.23022319408492 -0.28666868353188 -0.33575563744564 -0.37805413519548 -0.41429609217542 -0.44527981272981 -0.47180059931828 -0.49460678751784 -0.51437373863635 -0.53169311163201 -0.54706983918035
-0 -0.0045638880627562 -0.031062573973061 -0.078791167071607 -0.11976550713771 -0.11693247538781 -0.053019855285599 0.050875130486558 0.14183705662399 0.16494600701638 0.098219245247799 -0.029956839810013 -0.15317657284589 -0.20295989602523 -0.1474580685763 -0.010375523831204 0.14062901431331 0.22917876710284 0.20935881433096 0.088119286262193 -0.07953845809439 -0.21820331021166 -0.26721548090084 -0.20621412536709 -0.060716419595881 0.11204123307436 0.24818454358694 0.30138196563867 0.25696547320155 0.13267521845615 -0.031534216468314 -0.18882444042871 -0.29979429794303 -0.34160775923199 -0.31052578636882 -0.21889291574797 -0.088946589446076 0.054038274940984 0.18733651592424 0.29423562152756 0.36523892076357 0.39758681472159 0.39373869809796 0.35951208568182 0.30233045276156 0.22983336279183 0.14895573579572 0.065409183547495 -0.016481718462434 -0.093738755151468 -0.1645409070724 -0.22799493684022 -0.28389410830522 -0.33250596516756 -0.37439506917917 -0.41028625175724 -0.44097009071165 -0.4672341910219 -0.48981964536238 -0.50939527843316 -0.52654702271311 -0.5417749237946
-0 -0.0041671619380721 -0.028362390615014 -0.071942069560486 -0.10935462394684 -0.1067678597854 -0.048410986393651 0.046452696569863 0.12950755488396 0.15060770834518 0.089681318812981 -0.02735277485439 -0.13986135842741 -0.18531715546955 -0.13463994786535 -0.0094736083362312 0.12840452433908 0.20925689284073 0.19115983356371 0.080459321235001 -0.072624400648362 -0.19923550196063 -0.24398718065866 -0.18828850368508 -0.055438509726106 0.10230179959325 0.22661054991535 0.2751836676889 0.2346281776853 0.12114212988431 -0.028793034536944 -0.17241045580269 -0.27373401154032 -0.31191274467015 -0.28353264145672 -0.1998651620013 -0.081214709248843 0.049340877654468 0.17105187244646 0.26865853544054 0.33348971490535 0.36302569620574 0.35951208568182 0.32826069770551 0.2760497054582 0.20985458634295 0.13600742702935 0.059723344729643 -0.01504900841262 -0.085590305287538 -0.15023782261519 -0.20817596965775 -0.25921598126532 -0.30360214430662 -0.34184994474713 -0.37462120642032 -0.40263778440088 -0.42661881935301 -0.44724098282143 -0.46511496043098 -0.4807757511761 -0.49467993307341
-0 -0.003504360508712 -0.023851254902251 -0.060499436122086 -0.091961395141187 -0.089786064710691 -0.040711052612511 0.039064235516108 0.10890893314436 0.12665303467344 0.075417196808727 -0.023002221998543 -0.11761592864677 -0.15584182493152 -0.11322500138131 -0.0079667983682565 0.10798134339891 0.17597386478964 0.16075520499272 0.067661989642801 -0.061073240105169 -0.16754641057392 -0.20518018095735 -0.15834057000043 -0.046620824204373 0.086030346742566 0.19056736305963 0.2314147594988 0.19730975957508 0.10187405774402 -0.024213403428216 -0.14498798020878 -0.23019567614332 -0.26230195054328 -0.23843580029227 -0.1680759210209 -0.068297230596669 0.04149304147213 0.143845484205 0.22592747196232 0.28044702949955 0.30528521145488 0.30233045276156 0.2760497054582 0.23214305098421 0.17647649308598 0.11437497828407 0.050224141473029 -0.012655411899077 -0.071976873045883 -0.12634198054015 -0.17506486615419 -0.21798678848403 -0.25531317973225 -0.28747753604974 -0.31503641591447 -0.33859686087038 -0.35876362978725 -0.3761057672748 -0.39113682731023 -0.40430671545904 -0.415999389435
-0 -0.0026640351734179 -0.018131862241853 -0.045992022053812 -0.069909585684366 -0.068255886880764 -0.030948778197041 0.029696858293796 0.082793202318855 0.096282371163396 0.057332590205703 -0.01748642250663 -0.089412310774037 -0.11847185872432 -0.086074302412732 -0.0060564063028906 0.082088043217147 0.13377635212942 0.12220703872959 0.051437036761413 -0.04642823116808 -0.12736975258088 -0.15597916298844 -0.12037141921087 -0.035441420819981 0.065400768309587 0.14487041411243 0.17592284167688 0.14999602302899 0.077445249258508 -0.018407169650658 -0.11022070304661 -0.17499608744305 -0.19940346336122 -0.18126027758889 -0.12777228949223 -0.051919950617021 0.031543250661295 0.10935217096152 0.17175137388197 0.21319745757037 0.23207958747916 0.22983336279183 0.20985458634295 0.17647649308598 0.13415845307402 0.086948521520595 0.038180683495958 -0.0096207174888024 -0.054717236137713 -0.096045906008099 -0.13308532609731 -0.16571482026982 -0.19409055927693 -0.2185420894055 -0.23949250963684 -0.25740329647167 -0.27273419110856 -0.28591778455856 -0.29734448353219 -0.30735630884844 -0.31624514738712
-0 -0.0017265696965047 -0.011751317775514 -0.029807576248029 -0.045308625555031 -0.044236858083664 -0.020058001903293 0.019246628619275 0.053658538605898 0.062400911976344 0.037157434653645 -0.011333006223596 -0.057948403916472 -0.076781989668536 -0.055785030046331 -0.00392517625016 0.053201522742004 0.086700880679161 0.079202771748459 0.033336507654406 -0.030090284766876 -0.082548743069071 -0.10109059324336 -0.07801310088114 -0.022969697922697 0.042386446627348 0.093890977650156 0.1140161550392 0.097212901144174 0.050192513162819 -0.011929745385633 -0.071434389345381 -0.11341552266309 -0.12923402087663 -0.11747536428488 -0.082809628525763 -0.033649485665145 0.020443281404265 0.070871490929648 0.11131261345067 0.13817395253854 0.15041152118301 0.14895573579572 0.13600742702935 0.11437497828407 0.086948521520595 0.056351614239664 0.024745022803652 -0.0062352177030333 -0.035462415336904 -0.062247658154664 -0.086253024502772 -0.10740030379273 -0.12579071078677 -0.14163782548496 -0.15521585968713 -0.16682389778593 -0.17675989951912 -0.18530422850131 -0.19270990856733 -0.19919860450131 -0.20495948912143
-0 -0.00075816828122079 -0.0051602182164886 -0.013089051022427 -0.019895844825191 -0.019425212157839 -0.0088078348986022 0.0084515460737622 0.023562444116801 0.027401379901136 0.016316508058122 -0.0049765299755945 -0.025446202308417 -0.033716373716946 -0.024496225338426 -0.0017236165658977 0.02336176010577 0.038071939880517 0.034779383332174 0.014638669241914 -0.013213193495363 -0.036248660437117 -0.0443907254263 -0.034256977130722 -0.010086413788836 0.018612662698512 0.041229242752996 0.050066575634027 0.042687960018163 0.022040449054472 -0.0052385690382134 -0.031368144766867 -0.049802826990019 -0.056749018404319 -0.051585577579614 -0.036363220004968 -0.014776103601467 0.0089770181627548 0.031120965793888 0.04887940115533 0.060674705641887 0.066048445493967 0.065409183547495 0.059723344729643 0.050224141473029 0.038180683495958 0.024745022803652 0.010865991361828 -0.0027379979496434 -0.015572194124771 -0.027334083349593 -0.037875278055527 -0.047161434545021 -0.055236998068376 -0.062195755503629 -0.068158118259248 -0.073255419753377 -0.07761849954767 -0.081370470424795 -0.084622439770886 -0.0874717446403 -0.090001454271825
0 0.00019104222802528 0.0013002648746889 0.0032981615453955 0.0050133283309208 0.0048947389417584 0.0022193864406968 -0.0021296092598203 -0.0059372331094447 -0.0069045630065812 -0.004111411846453 0.001253979357777 0.0064118999754968 0.0084958066901018 0.0061725260509804 0.00043431459369439 -0.0058866650211376 -0.0095933164182326 -0.0087636624291711 -0.0036886322688117 0.0033294427994519 0.0091338889061517 0.011185515536793 0.0086320272142305 0.0025415610369528 -0.0046899938173109 -0.010388889367206 -0.012615708670006 -0.010756454989904 -0.0055537228321714 0.0013200076098054 0.0079041031044356 0.012549249639949 0.014299541648923 0.012998464745732 0.0091627554726198 0.0037232627946546 -0.002262017012997 -0.0078418192778915 -0.012316566034944 -0.015288731061052 -0.01664279883149 -0.016481718462434 -0.01504900841262 -0.012655411899077 -0.0096207174888024 -0.0062352177030333 -0.0027379979496434 0.00068991705612675 0.0039238606184478 0.0068876057116591 0.0095437618349769 0.011883675109491 0.013918544789844 0.015672003167947 0.017174391349228 0.018458802552486 0.019558205555223 0.02050362215152 0.02132304903172 0.022041013056408 0.022678445901113
0 0.0010865408650967 0.0073951761157871 0.018758089956366 0.028512995048255 0.027838525226459 0.01262262321888 -0.012112021051057 -0.033767646376921 -0.039269275383935 -0.023383400783112 0.0071319300988898 0.036467284842217 0.048319375491872 0.035105860440324 0.0024701374101143 -0.033480043499885 -0.054561394242289 -0.049842788453802 -0.020978868063913 0.018936000155566 0.051948428660882 0.063616928327969 0.04909412130415 0.014454971324043 -0.026674049984827 -0.059086166221555 -0.071751063384283 -0.061176672984347 -0.031586455376642 0.0075074617016214 0.044954097916878 0.071373081758137 0.081327759387577 0.073927964909871 0.052112605473657 0.021175827039407 -0.012865081964182 -0.044599862502675 -0.070049708134987 -0.086953713035148 -0.094654889795381 -0.093738755151468 -0.085590305287538 -0.071976873045883 -0.054717236137713 -0.035462415336904 -0.015572194124771 0.0039238606184478 0.022316714764879 0.039172831817061 0.054279555612596 0.067587667750013 0.079160863297948 0.089133549456122 0.097678289386523 0.10498329872584 0.11123608535857 0.11661308382134 0.12127352356024 0.12535689957902 0.12898225948863
0 0.0019072199030738 0.012980852840275 0.032926329471506 0.050049246557733 0.048865340540504 0.022156661571958 -0.021260394668147 -0.059272807235178 -0.068929891177965 -0.041045200238404 0.012518773539846 0.064011519213268 0.08481565452579 0.061621792513399 0.004335865666201 -0.058767974008114 -0.095772354617412 -0.087489721940027 -0.036824491375106 0.033238617654836 0.091185780726825 0.1116676563 0.086175576347845 0.025373007029167 -0.046821321370292 -0.10371474818303 -0.12594561378143 -0.10738424303001 -0.055444133117369 0.013177949250553 0.078908537199074 0.12528213751143 0.14275571803973 0.12976675852619 0.091473962510876 0.037170216133575 -0.022582252692889 -0.078286742976653 -0.12295920185907 -0.15263103070867 -0.16614901062643 -0.1645409070724 -0.15023782261519 -0.12634198054015 -0.096045906008099 -0.062247658154664 -0.027334083349593 0.0068876057116591 0.039172831817061 0.068760602478226 0.095277639451813 0.11863754901081 0.13895213597227 0.15645732711507 0.17145602489567 0.18427860677144 0.19525420787279 0.20469252613254 0.21287305915492 0.22004066441021 0.22640430778299
0 0.0026427256849288 0.017986826352844 0.045624134094101 0.0693503822901 0.067709911343236 0.030701220417278 -0.029459314560782 -0.082130943498328 -0.095512213133772 -0.056873989589904 0.017346549458842 0.088697106025153 0.11752420805703 0.085385798231265 0.0060079614018305 -0.081431424930166 -0.13270628155968 -0.12122951053812 -0.05102559439244 0.046056853992764 0.12635092809104 0.15473149320862 0.11940857405114 0.035157926609192 -0.064877630727404 -0.14371160267753 -0.17451564337594 -0.1487962120963 -0.076825768455823 0.018259931591002 0.10933905297447 0.1735963022044 0.19780844470321 0.17981038539627 0.1267502451291 0.051504645443475 -0.031290937725046 -0.10847746823551 -0.17037754295014 -0.21149210141992 -0.23022319408492 -0.22799493684022 -0.20817596965775 -0.17506486615419 -0.13308532609731 -0.086253024502772 -0.037875278055527 0.0095437618349769 0.054279555612596 0.095277639451813 0.13202078301138 0.16438927543834 0.1925380382817 0.21679398180353 0.23757682063684 0.25534433995415 0.27055260350641 0.28363074203011 0.29496603939138 0.30489778060121 0.31371551775039
0 0.00329066189897 0.02239678696137 0.056810133792225 0.086353518256732 0.084310841155587 0.038228461188827 -0.036682068270566 -0.10226758230629 -0.11892963482287 -0.070818197913324 0.021599528739718 0.11044361849979 0.14633847011265 0.10632045336947 0.0074809768521315 -0.10139655769976 -0.1652428426351 -0.15095222846381 -0.063535909268623 0.057348946765352 0.15732930108479 0.19266813509101 0.14868483977784 0.043777850345738 -0.080784149769167 -0.1789464181121 -0.21730290877576 -0.18527765808185 -0.095661699039897 0.022736851390586 0.136146501222 0.21615816606462 0.24630657506055 0.22389580108029 0.15782652157584 0.064132412738618 -0.038962763763968 -0.13507367550671 -0.2121502402703 -0.2633451530912 -0.28666868353188 -0.28389410830522 -0.25921598126532 -0.21798678848403 -0.16571482026982 -0.10740030379273 -0.047161434545021 0.011883675109491 0.067587667750013 0.11863754901081 0.16438927543834 0.20469378580199 0.23974398489002 0.26994693392329 0.29582525201405 0.31794896284416 0.33688594662055 0.35317054717324 0.36728500156134 0.3796517797616 0.39063142544991
0 0.003854129686907 0.026231841547187 0.066537866814669 0.10114003458888 0.09874758507629 0.044774410643265 -0.042963225223165 -0.11977910131036 -0.13929423632592 -0.082944564750462 0.025298066922343 0.12935513943948 0.1713963510424 0.124525955032 0.0087619621395589 -0.11875892910881 -0.1935377638001 -0.17680013410349 -0.074415312668092 0.06716894200233 0.18426916789021 0.22565915368203 0.17414449511211 0.051274034776801 -0.094617010016842 -0.20958783478406 -0.25451219769069 -0.21700318788671 -0.11204207709246 0.026630136009621 0.15945918731197 0.25317143798875 0.28848223007 0.26223400647374 0.18485152861712 0.075113956832285 -0.045634449577957 -0.15820265912247 -0.24847722562022 -0.30843836395029 -0.33575563744564 -0.33250596516756 -0.30360214430662 -0.25531317973225 -0.19409055927693 -0.12579071078677 -0.055236998068376 0.013918544789844 0.079160863297948 0.13895213597227 0.1925380382817 0.23974398489002 0.28079591212674 0.3161705832644 0.34648010671682 0.37239211266358 0.39457172077703 0.41364477183985 0.43017607749867 0.44466044825944 0.45752016454092
0 0.004339672974071 0.029536529144093 0.07492030778022 0.11388165691285 0.11118780659253 0.050415091235414 -0.048375732662365 -0.13486887340115 -0.15684252527386 -0.093393921646297 0.028485117584934 0.14565130088635 0.1929888646456 0.14021373579062 0.0098657941963006 -0.13372017989792 -0.21791965275031 -0.19907341633768 -0.083790154321954 0.075630885824804 0.20748339905745 0.25408769557298 0.19608321992604 0.057733538066548 -0.10653686165579 -0.23599171179846 -0.28657564628452 -0.24434125114118 -0.12615713881365 0.029985000745922 0.17954785693794 0.28506597766516 0.3248252236004 0.29527024859657 0.20813912559315 0.084576813683247 -0.051383477881616 -0.17813303131761 -0.27978038838687 -0.34729543137816 -0.37805413519548 -0.37439506917917 -0.34184994474713 -0.28747753604974 -0.2185420894055 -0.14163782548496 -0.062195755503629 0.015672003167947 0.089133549456122 0.15645732711507 0.21679398180353 0.26994693392329 0.3161705832644 0.35600175574006 0.3901296731867 0.419306073839 0.44427986915068 0.46575574333093 0.48436966300193 0.5006787749009 0.51515855833698
0 0.0047556933970508 0.032368032674727 0.082102502917672 0.1247988608961 0.12184676605911 0.055248106927066 -0.053013246337796 -0.14779800564093 -0.17187814986943 -0.10234707987255 0.031215828110155 0.15961408475609 0.21148963868548 0.15365525039776 0.010811573267466 -0.14653919325087 -0.23881040342541 -0.21815748266334 -0.091822652542635 0.08288120014553 0.22737368386759 0.27844567628209 0.21488063267586 0.063268132739942 -0.11674996077957 -0.25861493072503 -0.31404806697044 -0.2677648941803 -0.13825112528792 0.032859496766221 0.19676011598021 0.31239367477828 0.35596441950852 0.32357617267159 0.22809227127608 0.092684724581837 -0.056309327439914 -0.19520965886034 -0.30660138531765 -0.38058872170767 -0.41429609217542 -0.41028625175724 -0.37462120642032 -0.31503641591447 -0.23949250963684 -0.15521585968713 -0.068158118259248 0.017174391349228 0.097678289386523 0.17145602489567 0.23757682063684 0.29582525201405 0.34648010671682 0.3901296731867 0.42752924514197 0.45950262580012 0.48687052060986 0.51040516795429 0.53080350105485 0.54867607722202 0.56454395733398
0 0.0051113546693618 0.034788721882832 0.08824265498587 0.13413212062154 0.13095924918732 0.059379914922644 -0.056977917116095 -0.15885128900943 -0.18473230095977 -0.11000125132678 0.033550348066547 0.17155105035154 0.22730619111969 0.16514657611855 0.011620132100626 -0.1574983345503 -0.25667017798028 -0.23447269926168 -0.0986897397797 0.089079588189785 0.24437814713777 0.29926963090401 0.23095078540267 0.067999729735027 -0.12548127209979 -0.27795581492865 -0.3375345968495 -0.2877900713718 -0.14859043167568 0.035316940813102 0.21147510017852 0.33575647859201 0.38258572323225 0.34777527544244 0.24515047512426 0.099616283098417 -0.060520500315919 -0.20980868992502 -0.32953100455299 -0.40905158877848 -0.44527981272981 -0.44097009071165 -0.40263778440088 -0.33859686087038 -0.25740329647167 -0.16682389778593 -0.073255419753377 0.018458802552486 0.10498329872584 0.18427860677144 0.25534433995415 0.31794896284416 0.37239211266358 0.419306073839 0.45950262580012 0.49386718105586 0.52328182267533 0.54857654198385 0.57050039334176 0.58970959545354 0.60676417747378
0 0.0054157860459676 0.03686073198157 0.093498371849684 0.14212100591112 0.1387591588176 0.062916572112761 -0.06037151174332 -0.16831244357939 -0.19573492400642 -0.1165529063255 0.035548600840656 0.18176860045225 0.24084450750544 0.17498267687104 0.01231222510543 -0.16687890739289 -0.27195740820998 -0.24843785159998 -0.104567683159 0.09438515264663 0.2589332661929 0.31709407698648 0.24470617317683 0.072049781564955 -0.13295491438733 -0.29451081391581 -0.35763809750989 -0.30493079692669 -0.15744045140462 0.037420411537544 0.22407051959856 0.35575407484468 0.40537246098134 0.36848870910164 0.25975159389714 0.10554941123327 -0.064125090569553 -0.22230485824623 -0.34915781267721 -0.43341462878059 -0.47180059931828 -0.4672341910219 -0.42661881935301 -0.35876362978725 -0.27273419110856 -0.17675989951912 -0.07761849954767 0.019558205555223 0.11123608535857 0.19525420787279 0.27055260350641 0.33688594662055 0.39457172077703 0.44427986915068 0.48687052060986 0.52328182267533 0.5544483951272 0.58124966342675 0.60447929547904 0.62483259425808 0.64290294415548
0 0.0056775776502839 0.038642528765974 0.098017953782895 0.1489909387018 0.14546658457115 0.0659578721589 -0.063289787092482 -0.17644843422914 -0.20519647941896 -0.1221869125576 0.03726697102114 0.19055504310763 0.25248659777183 0.18344109736934 0.012907381032141 -0.17494560288679 -0.2851034530494 -0.26044699361394 -0.10962234028568 0.098947600336637 0.27144974202709 0.3324219659446 0.25653493101887 0.075532568319533 -0.13938177099573 -0.30874705918272 -0.37492582832441 -0.31967072975552 -0.16505090499486 0.039229262457325 0.2349017784976 0.37295073461026 0.42496760488201 0.38630094346787 0.27230762656033 0.11065152373677 -0.067224808725817 -0.23305076751842 -0.36603561825603 -0.45436529227423 -0.49460678751784 -0.48981964536238 -0.44724098282143 -0.3761057672748 -0.28591778455856 -0.18530422850131 -0.081370470424795 0.02050362215152 0.11661308382134 0.20469252613254 0.28363074203011 0.35317054717324 0.41364477183985 0.46575574333093 0.51040516795429 0.54857654198385 0.58124966342675 0.60934646795434 0.6336989882801 0.6550361373618 0.67397998297156
0 0.0059044819361064 0.040186876713656 0.1019352394936 0.15494535881237 0.15128015393405 0.068593877300255 -0.065819162263486 -0.18350019264081 -0.21339715292512 -0.12707011025888 0.038756344828982 0.19817057188231 0.26257721998363 0.19077231743411 0.013423224276449 -0.18193730067164 -0.29649760727932 -0.2708557528984 -0.11400339508842 0.10290203935468 0.28229822594844 0.34570720366752 0.26678734479404 0.078551226015923 -0.14495216089658 -0.32108612969462 -0.3899097321215 -0.3324463645599 -0.1716471613614 0.040797059206134 0.24428962373223 0.38785570382358 0.44195142735401 0.40173945353135 0.2831903958212 0.1150737098371 -0.069911446963644 -0.24236463713349 -0.3806642249721 -0.47252399277934 -0.51437373863635 -0.50939527843316 -0.46511496043098 -0.39113682731023 -0.29734448353219 -0.19270990856733 -0.084622439770886 0.02132304903172 0.12127352356024 0.21287305915492 0.29496603939138 0.36728500156134 0.43017607749867 0.48436966300193 0.53080350105485 0.57050039334176 0.60447929547904 0.6336989882801 0.65902475663044 0.68121464448069 0.70091558052999
0 0.0061032905402717 0.041540000823723 0.10536748010307 0.1601624923121 0.15637387706963 0.07090348771958 -0.068035345820068 -0.18967879011265 -0.2205824048346 -0.13134866196335 0.040061301792417 0.2048431326944 0.27141840387672 0.19719577313317 0.013875194916833 -0.18806327432751 -0.3064809175984 -0.27997568158081 -0.11784198009772 0.10636683288462 0.29180343180163 0.35734744024623 0.27577028693891 0.081196108288185 -0.14983281547228 -0.3318973551251 -0.40303830299908 -0.34364009813605 -0.17742665784026 0.042170728646161 0.25251504971063 0.40091511393426 0.45683228351242 0.41526634054007 0.29272564174378 0.11894833319549 -0.072265421001743 -0.25052524728167 -0.39348149226859 -0.48843425153796 -0.53169311163201 -0.52654702271311 -0.4807757511761 -0.40430671545904 -0.30735630884844 -0.19919860450131 -0.0874717446403 0.022041013056408 0.12535689957902 0.22004066441021 0.30489778060121 0.3796517797616 0.44466044825944 0.5006787749009 0.54867607722202 0.58970959545354 0.62483259425808 0.6550361373618 0.68121464448069 0.70415168350828 0.72451596574766
0 0.0062797995710131 0.042741350363618 0.10841473988236 0.16479444061811 0.16089625746308 0.072954038289144 -0.070002948847913 -0.19516435878648 -0.22696171550629 -0.1351473054753 0.041219886903672 0.21076725879775 0.27926790720244 0.20289873525702 0.014276469801252 -0.1935021217903 -0.31534443955415 -0.28807266399725 -0.1212500062355 0.10944299425226 0.30024247637513 0.36768203760803 0.28374564805497 0.083544324595333 -0.15416602636201 -0.34149592823451 -0.41469429409841 -0.35357827496798 -0.18255789109819 0.043390319027756 0.25981786224724 0.41250970175589 0.47004401299541 0.42727597022829 0.30119135691111 0.12238835540353 -0.074355359098738 -0.25777051412292 -0.4048610974761 -0.50255991961013 -0.54706983918035 -0.5417749237946 -0.49467993307341 -0.415999389435 -0.31624514738712 -0.20495948912143 -0.090001454271825 0.022678445901113 0.12898225948863 0.22640430778299 0.31371551775039 0.39063142544991 0.45752016454092 0.51515855833698 0.56454395733398 0.60676417747378 0.64290294415548 0.67397998297156 0.70091558052999 0.72451596574766 0.74546918926324
