0 0 0 0 0 0 -0 -0 -0 -0 0 0 0 0 0 -0 -0 -0 -0 -0 0 0 0 0 0 -0 -0 -0 -0 -0 -0 0 0 0 0 0 0 0 -0 -0 -0 -0 -0 -0 -0 -0 -0 -0 -0 -0 0 0 0 0 0 0 0 0 0 0 0 0 0 0 0 0 0 0 0 0 0 0 0 0 0 0 0 0 0 0 0 0 0 0 0 0 0 0 0 0 0 0 0 0 0 0 0 0 0 0
0 0.0010318166636891 0.0033536945374369 0.0051315827869282 0.0046417664730153 0.0014259316175898 -0.0032721675331181 -0.0070777179328273 -0.0077698713488444 -0.0045692852009571 0.0013022501808896 0.0071252740751056 0.010005170547059 0.0083301019726654 0.0026137971773002 -0.0046988982483423 -0.010353698583198 -0.011775707041368 -0.0082155619465116 -0.0010463274326958 0.006871208514328 0.012413959856865 0.013447341833118 0.0095876412214144 0.0022273157062395 -0.0060961724565382 -0.012665714077643 -0.015489576193853 -0.013845158583834 -0.0083441005867237 -0.00058699135897235 0.0074057338165675 0.013773398214505 0.017239556879958 0.017303392068278 0.014204961865938 0.0087309803391709 0.0019503010055077 -0.0050414750115645 -0.011314033713533 -0.016211165541466 -0.019379723120985 -0.020739995007325 -0.020422140410708 -0.01869161003874 -0.015879603872613 -0.012327653821428 -0.0083493268064299 -0.004208330943018 -0.00010958965939224 0.0038000065288655 0.007425485718988 0.01071443717381 0.013647394943731 0.01622856140385 0.018478047973458 0.020425471821218 0.022105203751964 0.023553068286866 0.024803971154654 0.025890403292346 0.026841564325916 0.027683054508116 0.028436783382164 0.029121150828552 0.029751295965248 0.030339533260419 0.030895686121216 0.03142753783733 0.031941130634934 0.032441150272997 0.032931152528414 0.033413841873812 0.033891227052417 0.034364806633369 0.034835668961919 0.035304612537472 0.035772206550391 0.036238862226329 0.036704867586997 0.037170427365214 0.037635682072782 0.038100730687419 0.038565640790008 0.039030459209594 0.039495217223439 0.039959936001968 0.040424629229089 0.040889306169619 0.041353972961299 0.041818633598749 0.04228329055119 0.042747945316505 0.043212598710594 0.043677251276326 0.044141903398161 0.044606555291517 0.045071207049807 0.045535858731854 0.046000510379564
0 0.0033536945374369 0.010900451064845 0.016679088220378 0.01508704735292 0.0046346790519664 -0.010635465356957 -0.023004575138355 -0.025254268530653 -0.014851462820588 0.0042326795754694 0.023159145984313 0.032519619997052 0.027075175721758 0.0084955764177511 -0.015272741701123 -0.033652434199494 -0.038274361879266 -0.026702888402171 -0.0034008586204221 0.02233336141103 0.040348863150821 0.043707645394613 0.031162532184934 0.0072394028707154 -0.019814276107607 -0.041167135218635 -0.050345481805661 -0.045000661790576 -0.027120675157027 -0.0019078871115241 0.024070719072839 0.044767420394993 0.056033411526263 0.056240893853212 0.046170123715556 0.028378143230656 0.0063390271340877 -0.016386212591739 -0.036773793636741 -0.052690850259696 -0.06298955410888 -0.067410820555902 -0.066377703664221 -0.060752992938397 -0.051613181525718 -0.040068344246855 -0.027137661841869 -0.013678259900229 -0.00035619723444793 0.012351090640964 0.024134918314413 0.034824936140346 0.04435787430433 0.052747391708097 0.060058856124228 0.066388531685926 0.071848133181758 0.076554100387491 0.08061988674489 0.084151096943073 0.087242637983999 0.089977717893703 0.092427548853561 0.094651935653387 0.096700084687125 0.098612021441935 0.10041967475562 0.1021483425101 0.10381766364089 0.10544286818332 0.10703551341299 0.10860438962706 0.11015602580632 0.11169529272221 0.11322572780308 0.11474992639674 0.11626973853202 0.11778650080805 0.11930114937642 0.12081434967644 0.122326558411 0.12383809728552 0.12534918595691 0.12685997663274 0.12837057097291 0.12988103778726 0.13139142155234 0.13290175238143 0.13441205022389 0.13592232806337 0.13743259392554 0.13894285267893 0.14045310697545 0.14196335857957 0.14347360874091 0.14498385815963 0.14649410713934 0.14800435587124 0.14951460449154
0 0.0051315827869282 0.016679088220378 0.02552114423598 0.023085117513709 0.0070916533931512 -0.01627362610026 -0.035199950527038 -0.038642269962787 -0.022724642963183 0.0064765426336833 0.035436463746601 0.049759189559897 0.041428491514619 0.012999321561254 -0.023369253683604 -0.051492540584312 -0.058564682742516 -0.040858844166103 -0.0052037498831578 0.034172907434401 0.061738935763397 0.066878303393597 0.04768267114736 0.01107721491755 -0.030318383822442 -0.062990996978675 -0.077035044470979 -0.068856784321622 -0.041498111486335 -0.0029193119861124 0.036831287490353 0.068499895070853 0.085738306477008 0.086055781048909 0.070646211061954 0.043422198921763 0.0096995245583743 -0.025073006959954 -0.056268620868665 -0.080623759022463 -0.09638209682282 -0.10314720155812 -0.10156640020634 -0.092959871370787 -0.078974787637752 -0.061309705860991 -0.041524103292854 -0.020929492020101 -0.00054502745454014 0.018898752830781 0.036929520564151 0.05328661893884 0.067873237023783 0.08071027469052 0.091897753015163 0.10158296846835 0.10993685900512 0.11713759241694 0.12335876702127 0.12876197153728 0.13349242585076 0.13767744891378 0.14142600449753 0.14482960160097 0.14796353231806 0.1508890407778 0.15365498219724 0.15630006558042 0.15885434101754 0.1613411124161 0.16377806389007 0.16617864572156 0.16855284808858 0.17090812389617 0.17324988586342 0.17558210520532 0.17790761270331 0.18022845352547 0.18254606010382 0.18486145064582 0.18717532396548 0.18948817231339 0.19180033179275 0.19411203530069 0.19642343838988 0.19873464634822 0.20104572723052 0.20335672711395 0.20566767652363 0.20797859532617 0.21028949580189 0.21260038540027 0.21491126817907 0.21722214683816 0.2195330232896 0.22184389860473 0.22415477324812 0.22646564751234 0.22877652160579
0 0.0046417664730153 0.01508704735292 0.023085117513709 0.020881612740169 0.006414745766633 -0.014720287124471 -0.031840069037648 -0.034953814564072 -0.020555545958733 0.0058583481366927 0.032054006759902 0.045009609591002 0.037474087610944 0.011758519252321 -0.021138627739625 -0.046577509984539 -0.052974606889216 -0.036958813849694 -0.0047070451251666 0.030911058556538 0.055845873291996 0.060494681534773 0.043131297587059 0.010019880211159 -0.027424454283678 -0.056978423620532 -0.069681948342235 -0.062284313860807 -0.03753706226496 -0.0026406598244749 0.033315692746145 0.061961490157559 0.077554472563877 0.0778416437711 0.063902937469559 0.039277493028675 0.0087736922054416 -0.022679755529007 -0.050897707135565 -0.072928115378404 -0.087182299147684 -0.09330166575456 -0.091871753967133 -0.084086729607851 -0.071436540477185 -0.055457613947281 -0.037560573119423 -0.018931744529898 -0.00049300386847538 0.017094842062215 0.033404549344086 0.048200341204806 0.061394647443778 0.073006373012364 0.083125991843653 0.091886740766783 0.099443241484568 0.10595665543889 0.11158401075988 0.11647147231135 0.12075039855032 0.12453595566775 0.12792670669981 0.13100542599138 0.1338402189072 0.13648648374376 0.1389884124235 0.14138101912521 0.14369148561853 0.14594089142238 0.14814523267886 0.15031667582297 0.15246425745714 0.15459471909681 0.15671295680995 0.15882256275385 0.16092609750816 0.16302541102697 0.16512179901479 0.16721618248985 0.16930919356342 0.17140127750014 0.17349273832172 0.17558378669495 0.1776745633248 0.17976516344929 0.18185564862732 0.18394606053792 0.18603642679256 0.18812676536156 0.19021708735305 0.19230739950545 0.19439770548921 0.1964880077465 0.19857830800686 0.20066860723937 0.20275890586427 0.20484920414618 0.20693950227362
0 0.0014259316175898 0.0046346790519664 0.0070916533931512 0.006414745766633 0.0019705835829136 -0.0045220118144264 -0.0097811385839782 -0.010737668435505 -0.00631457938907 0.001799660513626 0.0098468593745717 0.01382676741372 0.011511885976044 0.0036121688748016 -0.0064936997200578 -0.014308419982278 -0.016273581907204 -0.011353595990507 -0.001445984951724 0.0094957503754612 0.017155623166722 0.018583717987094 0.013249757671913 0.0030780660941509 -0.0084246798466879 -0.017503537981342 -0.021406008659438 -0.019133485695656 -0.011531231531404 -0.00081119986472995 0.010234444133459 0.019034315578408 0.023824415803171 0.023912633619906 0.019630720227836 0.012065884721872 0.0026952422513005 -0.0069671278544549 -0.015635566823396 -0.022403217855498 -0.026782044631406 -0.02866188894824 -0.028222625913378 -0.025831098368392 -0.021945012165053 -0.017036351488866 -0.011538453969441 -0.0058157542518031 -0.00015144876583946 0.0052514653496523 0.010261740515811 0.014806947075454 0.018860183822215 0.022427258279597 0.025535963668673 0.028227229796747 0.030548555816587 0.032549449861971 0.034278150330265 0.035779558467988 0.037094027054236 0.038256934670403 0.039298559476841 0.040244329412718 0.041115166166674 0.041928087868124 0.042696670094338 0.043431669057395 0.044141434885416 0.044832443120137 0.045509607710783 0.046176666136274 0.046836394403802 0.047490863479258 0.048141577414629 0.048789639705906 0.049435836952645 0.050080737453157 0.05072473924255 0.051368125253844 0.052011089669036 0.052653769271589 0.053296257455728 0.053938618937425 0.05458089694067 0.055223120722192 0.055865309192635 0.056507475155625 0.057149627093288 0.057791770526037 0.058433908866243 0.059076044183924 0.059718177606622 0.060360309884563 0.061002441549055 0.061644572897797 0.062286704059883 0.062928835116604 0.063570966125873
-0 -0.0032721675331181 -0.010635465356957 -0.01627362610026 -0.014720287124471 -0.0045220118144264 0.010376921348131 0.02244534290187 0.024640347126488 0.014490429560105 -0.00412978478819 -0.022596156190936 -0.031729080736439 -0.026416988774987 -0.0082890522732385 0.014901467315597 0.032834356668075 0.037343927091185 0.026053751614731 0.0033181850756673 -0.021790446118094 -0.039367998047087 -0.042645129606406 -0.030404983198982 -0.0070634158144949 0.019332598794493 0.040166378240533 0.049121602806907 0.043906713278809 0.026461382136756 0.0018615071210257 -0.023485569293722 -0.043679141890453 -0.054671261177594 -0.054873699690213 -0.045047746041161 -0.027688281652656 -0.0061849278603558 0.015987870163762 0.035879837076543 0.051409956269879 0.061458302650958 0.065772089837511 0.064764087613953 0.059276111408974 0.050358485241908 0.039094298448111 0.026477955881923 0.01334574674451 0.00034753821880204 -0.012050840451572 -0.023548207876808 -0.033978355544701 -0.043279551705294 -0.051465123217754 -0.05859884878964 -0.064774652410679 -0.070101533126559 -0.074693100107578 -0.078660048786644 -0.082105416644129 -0.085121803529845 -0.087790394715211 -0.09018067124129 -0.092350984066814 -0.094349343397507 -0.096214801716572 -0.097978511684235 -0.099665156200792 -0.10129389678689 -0.10287959324167 -0.10443352188786 -0.10596425933394 -0.10747817584372 -0.10898002378209 -0.11047325458391 -0.11196040050507 -0.11344326660095 -0.11492315697846 -0.11640098503174 -0.11787740002349 -0.11935284755434 -0.1208276415092 -0.12230199620519 -0.12377606014978 -0.12524993253155 -0.1267236804876 -0.12819734741328 -0.12967096268981 -0.13114454578162 -0.1326181093567 -0.13409166124564 -0.13556520619861 -0.13703874680306 -0.13851228478056 -0.13998582135035 -0.14145935719557 -0.14293289261246 -0.14440642778757 -0.14587996285378
-0 -0.0070777179328273 -0.023004575138355 -0.035199950527038 -0.031840069037648 -0.0097811385839782 0.02244534290187 0.048549410859059 0.053297218117082 0.031342885751999 -0.0089327491817745 -0.048875620904762 -0.068630191286821 -0.057140104622287 -0.01792926961308 0.032231962874021 0.071020909733503 0.080775137513698 0.05635442047348 0.0071772541524213 -0.047132865201244 -0.085153215089772 -0.092241670240943 -0.065766160398787 -0.015278210626834 0.041816526749028 0.086880116220345 0.10625032048538 0.094970483265203 0.057236127729145 0.0040264510295456 -0.050799426762368 -0.094478244991929 -0.11825426471309 -0.11869214042592 -0.097438543950454 -0.059889918715572 -0.013378035931054 0.034581858728347 0.077608302060739 0.11120004270394 0.13293467598809 0.14226542345736 0.14008510862268 0.12821458328809 0.10892570458549 0.084561201221205 0.057271976839008 0.028866929979768 0.00075172724460538 -0.026066039928113 -0.050934914391991 -0.073495386141657 -0.093613929032963 -0.11131936914194 -0.12674966019428 -0.14010796034115 -0.15163003516991 -0.16156162199498 -0.1701421556994 -0.1775945069691 -0.18411896983272 -0.18989114851761 -0.19506133093089 -0.19975573054509 -0.20407819372215 -0.20811319121667 -0.21192810641893 -0.21557632858981 -0.21909930421299 -0.22252917512284 -0.22589033207285 -0.22920132631837 -0.23247593677814 -0.23572444284582 -0.23895430999562 -0.24217101551219 -0.2453784637411 -0.2485794754734 -0.25177602638604 -0.25496952083815 -0.25816092266657 -0.26135091080621 -0.26453994882628 -0.26772835794932 -0.27091635272085 -0.27410407835881 -0.27729162872759 -0.28047906737895 -0.28366643641456 -0.28685376323539 -0.290041064779 -0.29322835132009 -0.29641562845528 -0.29960289990839 -0.3027901683166 -0.30597743515756 -0.30916470107204 -0.31235196646354 -0.3155392316195
-0 -0.0077698713488444 -0.025254268530653 -0.038642269962787 -0.034953814564072 -0.010737668435505 0.024640347126488 0.053297218117082 0.05850932912999 0.034408010082606 -0.0098063122312304 -0.053655329320702 -0.075341764394412 -0.062728024200497 -0.019682632113135 0.035384032993221 0.0779662790951 0.088674405030428 0.061865505403479 0.0078791415441441 -0.051742143780206 -0.093480629274486 -0.10126228786972 -0.072197650465271 -0.016772317311553 0.045905903029633 0.095376409770977 0.11664089029543 0.10425796053354 0.062833437724161 0.004420210976039 -0.055767270507907 -0.10371758465354 -0.12981873988102 -0.13029943690621 -0.10696738102578 -0.065746751697246 -0.014686318255549 0.0379637329254 0.085197874277722 0.12207466219984 0.14593479706745 0.15617802915339 0.15378449412894 0.14075311091074 0.11957790904412 0.09283072041415 0.062872792636896 0.031689922416744 0.00082524113498713 -0.02861512407494 -0.055916007920379 -0.080682742724985 -0.10276874438191 -0.12220565796438 -0.1391449281486 -0.15380958059244 -0.16645843717882 -0.17736126668588 -0.18678091912477 -0.19496206044201 -0.2021245720809 -0.20846123118625 -0.21413702281605 -0.21929050327523 -0.22403567440448 -0.22846526763254 -0.23265325599399 -0.23665824986189 -0.24052574890848 -0.24429103822428 -0.24798089381511 -0.2516156811249 -0.25521052655833 -0.25877671476495 -0.26232244129234 -0.26585371906691 -0.26937483425309 -0.27288888349638 -0.27639803568172 -0.27990383250517 -0.28340733206034 -0.28690927967744 -0.29041018425963 -0.29391039844288 -0.29741015775381 -0.30090962161171 -0.30440889306029 -0.30790804186622 -0.31140711424845 -0.31490614028758 -0.31840513857755 -0.32190412039785 -0.32540309189242 -0.32890205714923 -0.33240101906338 -0.33589997925701 -0.33939893843355 -0.34289789703597 -0.34639685537982
-0 -0.0045692852009571 -0.014851462820588 -0.022724642963183 -0.020555545958733 -0.00631457938907 0.014490429560105 0.031342885751999 0.034408010082606 0.020234570716311 -0.0057668699187393 -0.031553482832637 -0.044306783678289 -0.036888929017755 -0.0115749097498 0.020808547664068 0.04585020127726 0.05214740739169 0.03638170126612 0.0046335445257093 -0.03042838178728 -0.054973838914796 -0.059550055928146 -0.042457801552132 -0.0098634195904457 0.026996220906678 0.056088704448338 0.068593863389082 0.061311743111255 0.036950920321347 0.0025994258709222 -0.032795467568128 -0.060993960306295 -0.076343457994766 -0.076626145018108 -0.062905091881468 -0.038664174225473 -0.0086366908342192 0.022325610713608 0.050102938467327 0.071789341465033 0.085820945882733 0.091844758463262 0.090437174775684 0.082773713720339 0.070321057534361 0.054591642247158 0.036974064053369 0.018636124977776 0.0004853056036608 -0.016827905777181 -0.032882936668595 -0.047447691957053 -0.060435968852307 -0.071866377104545 -0.081827977894664 -0.090451927556171 -0.097890433371042 -0.10430214024217 -0.10984162430243 -0.1146527680485 -0.11886487877259 -0.12259132434339 -0.12592912873338 -0.12895977376446 -0.1317503013348 -0.13435524469544 -0.1368181057111 -0.1391733518135 -0.14144774032843 -0.14366202161773 -0.14583194204342 -0.1479694780614 -0.15008352516736 -0.15218071960788 -0.1542658809987 -0.15634254540553 -0.15841323342451 -0.16047976612266 -0.16254341897204 -0.16460509860916 -0.16666542727488 -0.16872484328101 -0.17078364590195 -0.17284204251492 -0.1749001716278 -0.17695812699144 -0.17901596920353 -0.18107373929225 -0.18313146443793 -0.18518916233028 -0.18724684390398 -0.18930451579224 -0.19136218160817 -0.19341984375582 -0.19547750393773 -0.19753516310783 -0.19959282167981 -0.20165047991416 -0.20370813799645
0 0.0013022501808896 0.0042326795754694 0.0064765426336833 0.0058583481366927 0.001799660513626 -0.00412978478819 -0.0089327491817745 -0.0098063122312304 -0.0057668699187393 0.0016435628472638 0.0089927695294425 0.012627471151856 0.010513376244524 0.0032988591546662 -0.0059304538385799 -0.013067346484441 -0.014862055599972 -0.01036881590253 -0.0013205641432715 0.0086721147715542 0.015667590995632 0.016971816748968 0.012100509668308 0.0028110829989684 -0.0076939459921858 -0.01598532862392 -0.019549309591715 -0.017473899099265 -0.01053104381894 -0.00074083859110141 0.0093467362387465 0.017383330728712 0.021757950666463 0.02183851670931 0.017928004858257 0.011019322643402 0.0024614642567712 -0.0063628181020913 -0.014279380212141 -0.020460023569814 -0.024459042800939 -0.026175834526042 -0.0257746719741 -0.02359057903469 -0.0200415613968 -0.015558664619256 -0.010537639802313 -0.005311311519427 -0.00013831251111698 0.0047959675044441 0.0093716650070105 0.013522632691197 0.017224302688235 0.020481978792804 0.023321043517449 0.025778876529127 0.027898857033065 0.029726198961949 0.031304956645536 0.032676136718142 0.033876591868375 0.03493863203554 0.035889909134575 0.036753645554248 0.037548948292736 0.038291359373115 0.038993276863946 0.039664524012679 0.040312726679994 0.040943798736718 0.041562227909466 0.042171427498383 0.042773932727336 0.043371634932256 0.043965907707746 0.044557758835551 0.045147906687717 0.045736870269902 0.046325013092731 0.046912593548382 0.047499788976031 0.048086724294916 0.048673484798501 0.049260129589469 0.04984669814268 0.050433217177213 0.051019703963454 0.051606170194477 0.052192623616692 0.052779069271687 0.053365510275852 0.053951948519656 0.054538385032845 0.055124820500568 0.055711255408053 0.056297690027174 0.056884124475828 0.057470558828258 0.058056993137351
0 0.0071252740751056 0.023159145984313 0.035436463746601 0.032054006759902 0.0098468593745717 -0.022596156190936 -0.048875620904762 -0.053655329320702 -0.031553482832637 0.0089927695294425 0.0492040227998 0.069091326807111 0.057524036699124 0.018049738796051 -0.032448533783867 -0.071498108813782 -0.081317876567247 -0.056733073432454 -0.0072254790919964 0.047449557285439 0.085725371037593 0.092861454475862 0.066208052108898 0.015380866986585 -0.042097497637461 -0.087463875449992 -0.10696423073245 -0.095608602763219 -0.0576207049982 -0.0040535052975816 0.051140754968676 0.095113057074535 0.11904883108195 0.11948964894081 0.098093246681401 0.060292327164524 0.013467924760502 -0.034814218905673 -0.078129762719358 -0.11194721080281 -0.13382788202216 -0.14322132404332 -0.14102635937892 -0.12907607438209 -0.10965759109951 -0.085129379347921 -0.057656794983071 -0.02906089077932 -0.00075677820144461 0.026241181169289 0.051277152957974 0.073989211562975 0.094242933659959 0.11206733901126 0.12760130827225 0.14104936464117 0.15264885784618 0.16264717634388 0.17128536381263 0.17878778843658 0.18535609004698 0.19116705277969 0.19637197434658 0.20109791626552 0.2054494226562 0.20951153184361 0.21335207997613 0.21702481504428 0.22057146201627 0.2240243786918 0.2274081197091 0.23074136097194 0.23403797398146 0.23730830719995 0.24055987626316 0.24379819525835 0.24702719476492 0.25024971452718 0.25346774349693 0.25668269546939 0.25989554075753 0.26310696285813 0.26631742845517 0.26952726092955 0.27273667626832 0.27594582066518 0.27915478861521 0.28236364409717 0.28557242949562 0.28878117239565 0.29198988984862 0.29519859219826 0.2984072850788 0.30161597223908 0.30482465633401 0.30803333885116 0.31124202043559 0.31445070149353 0.31765938231435
0 0.010005170547059 0.032519619997052 0.049759189559897 0.045009609591002 0.01382676741372 -0.031729080736439 -0.068630191286821 -0.075341764394412 -0.044306783678289 0.012627471151856 0.069091326807111 0.097016690269204 0.08077412765648 0.025345090319445 -0.045563596724491 -0.10039624650697 -0.11418497239601 -0.079663472501875 -0.010145876472627 0.066627740634132 0.12037388995851 0.13039423880198 0.092968052310079 0.021597512704818 -0.059112483116792 -0.12281506386418 -0.15019708149223 -0.13425173071645 -0.08090986739204 -0.0056918528870916 0.071810848252789 0.13355589514902 0.16716604103194 0.16778502885073 0.13774061912805 0.084661307003995 0.018911396631683 -0.048885445520034 -0.10970828526295 -0.1571940846827 -0.18791849541079 -0.2011085830418 -0.19802645657472 -0.18124610002718 -0.15397904546064 -0.11953701008036 -0.080960544243187 -0.040806734650727 -0.0010626531543823 0.036847353545641 0.072002375642586 0.1038942042828 0.13233408486242 0.15736276636433 0.17917526228951 0.19805876011419 0.21434654168613 0.22838598503931 0.24051555899412 0.25105031696803 0.26027339766975 0.26843303792647 0.27574168702711 0.28237776227083 0.28848806246651 0.29419199676748 0.299584819367 0.30474200214252 0.30972213447861 0.31457065256498 0.31932203554454 0.32400250775623 0.32863154729074 0.3332236852565 0.33778947496228 0.3423366591816 0.34687075715721 0.35139575640255 0.35591444976484 0.3604288224677 0.36494023700563 0.36944965313144 0.37395772615365 0.3784649101574 0.38297150842749 0.38747772624624 0.3919836963018 0.3964895084319 0.4009952221521 0.40550087619685 0.41000649450934 0.41451209161402 0.41901767542239 0.42352325119847 0.42802882267025 0.43253439192653 0.43703995987313 0.44154552708043 0.44605109395476
0 0.0083301019726654 0.027075175721758 0.041428491514619 0.037474087610944 0.011511885976044 -0.026416988774987 -0.057140104622287 -0.062728024200497 -0.036888929017755 0.010513376244524 0.057524036699124 0.08077412765648 0.067250899619037 0.021101807897664 -0.037935326056786 -0.083587877602126 -0.095068090976662 -0.066326190674715 -0.0084472508710902 0.055472904842566 0.10022085815375 0.10856359726801 0.077403313846632 0.017981650821531 -0.049215853933155 -0.10225333001133 -0.12505104225283 -0.11177526675981 -0.067363913768435 -0.0047389212147736 0.059788255070295 0.11119592818625 0.13917905363165 0.13969441032908 0.11468004445482 0.070487286265175 0.015745245085678 -0.040701029957034 -0.091340892110563 -0.13087660512611 -0.15645712603889 -0.16743892534735 -0.16487280939334 -0.15090182503868 -0.12819982870936 -0.099524088949152 -0.067406106286365 -0.033974859220365 -0.00088474345299209 0.03067835885599 0.059947716888568 0.086500206265759 0.11017867373459 0.13101704607134 0.1491776875597 0.1648997046648 0.1784605810901 0.19014953673772 0.20024837387931 0.20901939959719 0.21669834943479 0.2234919003372 0.22957693327136 0.23510199486011 0.24018930681288 0.2449382867677 0.24942824143296 0.25372200716236 0.2578683642886 0.26190514206123 0.265861047115 0.26975791330236 0.27361195768637 0.27743527857305 0.28123666243312 0.28502255574271 0.28879755371134 0.29256497626177 0.29632714866194 0.30008572376874 0.30384183596744 0.30759628432876 0.31134961444929 0.31510220439107 0.3188543066629 0.32260609217867 0.32635767141183 0.33010911915946 0.33386048497301 0.33761180110198 0.341363087481 0.34511435620283 0.34886561385442 0.35261686481849 0.35636811219888 0.3601193577347 0.3638706021801 0.36762184600997 0.37137308956263
0 0.0026137971773002 0.0084955764177511 0.012999321561254 0.011758519252321 0.0036121688748016 -0.0082890522732385 -0.01792926961308 -0.019682632113135 -0.0115749097498 0.0032988591546662 0.018049738796051 0.025345090319445 0.021101807897664 0.0066212689952456 -0.011903245421552 -0.026227981272004 -0.029830212002387 -0.02081165519168 -0.0026505558461654 0.017406140113282 0.031447033542741 0.034064795968624 0.024287405353487 0.0056422344305919 -0.015442819368961 -0.032084777140806 -0.039238182477413 -0.035072545054965 -0.021137269176008 -0.001486966058191 0.01876019919699 0.034890761742681 0.043671232202852 0.043832939452712 0.035983998451913 0.022117312666763 0.0049405010041763 -0.012771060614143 -0.028660701484099 -0.041066112056704 -0.049092699675331 -0.052538539369529 -0.051733350350329 -0.047349572145673 -0.040226200292679 -0.031228403160283 -0.02115050823174 -0.010660540701754 -0.00027761244071849 0.009626173610493 0.01881023470098 0.027141803991744 0.034571570354259 0.041110179241888 0.04680857688648 0.051741789476866 0.055996885109366 0.059664614433401 0.062833400614088 0.065585549668044 0.067995030065283 0.070126692346349 0.072036037749235 0.073769676837026 0.07536596001169 0.0768560822745 0.078264928272877 0.079612214630273 0.080913247509368 0.082179896871177 0.083421170206984 0.084643918484767 0.085853230251319 0.087052901680829 0.088245689768645 0.089433617272852 0.090618126066031 0.091800257864697 0.092980742285217 0.094160097956619 0.095338680823288 0.096516741615502 0.097694451529102 0.098871929191392 0.1000492538339 0.10122647908554 0.10240363961038 0.10358075887803 0.10475785243662 0.10593493040533 0.10711199903917 0.10828906213258 0.10946612175241 0.11064317927384 0.1118202356708 0.11299729148897 0.11417434696499 0.11535140224787 0.11652845744377
-0 -0.0046988982483423 -0.015272741701123 -0.023369253683604 -0.021138627739625 -0.0064936997200578 0.014901467315597 0.032231962874021 0.035384032993221 0.020808547664068 -0.0059304538385799 -0.032448533783867 -0.045563596724491 -0.037935326056786 -0.011903245421552 0.021398806130279 0.047150795144661 0.053626628777096 0.037413710204668 0.0047649803629923 -0.031291517949064 -0.056533235291875 -0.061239261981467 -0.04366216608672 -0.010143206868878 0.027761999864592 0.057679725272759 0.070539607477003 0.063050921454399 0.037999075815239 0.0026731615853205 -0.03372574884955 -0.062724124373475 -0.078509028276209 -0.078799734043171 -0.0646894674011 -0.039760928143339 -0.0088816805359154 0.022958902423813 0.051524166132508 0.073825728975953 0.088255356044527 0.094450041019993 0.093002529596857 0.085121685625537 0.072315795477283 0.056140197174729 0.038022876045926 0.019164760167656 0.00049907185711997 -0.017305248742868 -0.033815699111986 -0.048793600490988 -0.062150304848008 -0.073904949820275 -0.084149122911849 -0.093017700856987 -0.10066720847285 -0.10726079080807 -0.11295740872591 -0.11790502611609 -0.12223661822137 -0.12606876872086 -0.12950125378398 -0.13261786655854 -0.1354875506635 -0.1381663862485 -0.14069910915885 -0.14312116453475 -0.1454600687044 -0.14773716063761 -0.14996863336013 -0.15216680305383 -0.15434081754543 -0.15649750132628 -0.15864181072609 -0.16077738211516 -0.16290680758924 -0.16503195987202 -0.1671541506158 -0.16927431217487 -0.17139308444068 -0.17351091815825 -0.17562812109126 -0.17774490649942 -0.17986141681953 -0.18197774846181 -0.18409396374285 -0.18621010485468 -0.1883261997486 -0.19044226661612 -0.19255831670209 -0.19467435682787 -0.19679039070909 -0.19890642081797 -0.20102244890534 -0.20313847595221 -0.20525450238399 -0.20737052846856 -0.20948655439676
-0 -0.010353698583198 -0.033652434199494 -0.051492540584312 -0.046577509984539 -0.014308419982278 0.032834356668075 0.071020909733503 0.0779662790951 0.04585020127726 -0.013067346484441 -0.071498108813782 -0.10039624650697 -0.083587877602126 -0.026227981272004 0.047150795144661 0.10389352888374 0.11816258217274 0.082438533006093 0.010499305970433 -0.068948704128595 -0.12456708939198 -0.13493649500439 -0.096206575086169 -0.022349857570215 0.061171654177905 0.12709330108318 0.15542916560315 0.13892836184781 0.083728345803157 0.0058901273991952 -0.074312364223688 -0.13820828699303 -0.17298923532093 -0.17362978545172 -0.14253878496196 -0.087610466034148 -0.019570171202061 0.050588359852454 0.11352995057401 0.16266990794523 0.19446459713406 0.20811415872575 0.20492466702391 0.18755977024432 0.15934287350021 0.12370105697724 0.083780787971879 0.04222822876941 0.0010996704561117 -0.038130923446602 -0.074510563430294 -0.10751333729154 -0.13694391519909 -0.16284446561817 -0.18541679530454 -0.20495809585046 -0.22181325890756 -0.23634176335144 -0.24889386849348 -0.25979560257146 -0.26933996737213 -0.27778384700098 -0.28534709137372 -0.29221433291905 -0.29853748415184 -0.30444011381845 -0.31002079427217 -0.3153576264376 -0.32051124064836 -0.32552865585436 -0.3304455522723 -0.33528906776051 -0.34007935892493 -0.34483146306211 -0.34955630110316 -0.3542618855395 -0.35895392787554 -0.36363655452894 -0.36831265563516 -0.37298428557268 -0.37765285429821 -0.38231935499735 -0.38698446580615 -0.39164865662772 -0.39631224131172 -0.40097543229144 -0.40563836687718 -0.41030113803617 -0.41496380735717 -0.41962641492394 -0.42428898551372 -0.42895153415692 -0.43361406904064 -0.43827659561227 -0.44293911772965 -0.44760163755436 -0.45226415602376 -0.45692667372811 -0.4615891910879
-0 -0.011775707041368 -0.038274361879266 -0.058564682742516 -0.052974606889216 -0.016273581907204 0.037343927091185 0.080775137513698 0.088674405030428 0.05214740739169 -0.014862055599972 -0.081317876567247 -0.11418497239601 -0.095068090976662 -0.029830212002387 0.053626628777096 0.11816258217274 0.13439139064526 0.093760891897635 0.011941312590087 -0.078418328887603 -0.14167551236776 -0.15346908368951 -0.10941987875778 -0.025419454994591 0.069573155239797 0.14454868165707 0.17677628000464 0.158009205668 0.09522785150771 0.0066990954132872 -0.084518650375789 -0.15719023354229 -0.19674810311316 -0.19747662834739 -0.16211549527514 -0.099643153940185 -0.02225799804515 0.057536319078531 0.12912249933082 0.18501148792548 0.22117295644327 0.23669719034435 0.23306964415012 0.21331979962481 0.18122750844932 0.1406905364268 0.095287496243407 0.048027982161991 0.0012507025416244 -0.043367940462618 -0.08474407086433 -0.1222795460783 -0.15575220908009 -0.18521001988021 -0.21088250198812 -0.23310766419339 -0.25227776661621 -0.26880166005445 -0.28307770949874 -0.29547672089681 -0.30633193779206 -0.31593552553444 -0.32453752889584 -0.33234793828437 -0.33953953034176 -0.3462528451219 -0.35259999320492 -0.35866980213398 -0.36453122939715 -0.37023775166993 -0.37582994959855 -0.38133868823732 -0.38678689256176 -0.39219166513651 -0.39756542680652 -0.40291729052319 -0.40825375222631 -0.41357950506829 -0.41889783612461 -0.42421108192831 -0.42952084608384 -0.43482825818395 -0.44013408950197 -0.4454388744789 -0.45074297006948 -0.45604661788325 -0.46134997408911 -0.46665314442268 -0.47195619893153 -0.47725918320463 -0.48256212542221 -0.487865042679 -0.49316794428654 -0.49847083644038 -0.50377372352822 -0.5090766080085 -0.51437949094733 -0.51968237301604 -0.52498525469286
-0 -0.0082155619465116 -0.026702888402171 -0.040858844166103 -0.036958813849694 -0.011353595990507 0.026053751614731 0.05635442047348 0.061865505403479 0.03638170126612 -0.01036881590253 -0.056733073432454 -0.079663472501875 -0.066326190674715 -0.02081165519168 0.037413710204668 0.082438533006093 0.093760891897635 0.065414196603154 0.0083311000317754 -0.054710144915695 -0.098842807830743 -0.10707083315645 -0.076339007836756 -0.017734400696365 0.048539129300589 0.10084733292603 0.12333157354798 0.11023834175937 0.066437650864309 0.0046737604086199 -0.058966158495497 -0.10966696916937 -0.13726532286396 -0.13777359333727 -0.11310317836911 -0.069518076567764 -0.015528745841151 0.040141385303096 0.090084942518878 0.12907703414567 0.15430581944417 0.1651366175303 0.16260578601692 0.14882690458232 0.12643706376585 0.09815561929673 0.066479263229425 0.033507700321657 0.0008725781111298 -0.030256527282108 -0.059123427692252 -0.085310816757623 -0.10866370210368 -0.12921554400896 -0.14712647422634 -0.16263231147477 -0.17600672401937 -0.18753495494958 -0.19749493171778 -0.20614535464851 -0.21371871788968 -0.22041885655049 -0.22642021946071 -0.23186931070709 -0.23688667143405 -0.24157035227368 -0.24599856945643 -0.25023329532767 -0.25432263948393 -0.25830391101748 -0.26220542184297 -0.26604870559443 -0.26984975634811 -0.27362050605669 -0.27736962037575 -0.28110345714148 -0.28482654837865 -0.28854216836065 -0.29225261038267 -0.29595950457458 -0.29966396972372 -0.30336679391346 -0.30706851523837 -0.3107695065621 -0.3144700169214 -0.31817021488008 -0.32187020939256 -0.32557007422745 -0.32926985825487 -0.33296959328088 -0.336669298966 -0.34036898723672 -0.34406866458943 -0.34776833534657 -0.3514680025693 -0.35516766797282 -0.35886733230092 -0.36256699602195 -0.36626665946959
-0 -0.0010463274326958 -0.0034008586204221 -0.0052037498831578 -0.0047070451251666 -0.001445984951724 0.0033181850756673 0.0071772541524213 0.0078791415441441 0.0046335445257093 -0.0013205641432715 -0.0072254790919964 -0.010145876472627 -0.0084472508710902 -0.0026505558461654 0.0047649803629923 0.010499305970433 0.011941312590087 0.0083311000317754 0.0010610422713057 -0.0069678405256697 -0.012588541359839 -0.013636456118593 -0.0097224752980278 -0.0022586391620971 0.0061819048869735 0.01284383608105 0.015707411076803 0.014039867493994 0.0084614463521522 0.00059524640690743 -0.0075098830288442 -0.013967097935551 -0.017482002303128 -0.017546735226196 -0.014404730805169 -0.008853766918766 -0.0019777287146932 0.0051123748932201 0.011473146602022 0.016439148367078 0.019652266389105 0.021031668215698 0.020709343527841 0.018954476151665 0.016102923840028 0.012501021574917 0.008466746069864 0.0042675140521563 0.00011113085395609 -0.0038534472406748 -0.0075299127086098 -0.01086511774366 -0.013839322640327 -0.016456788873059 -0.018737910694495 -0.020712721789047 -0.022416076329214 -0.023884302647908 -0.025152797364328 -0.026254508345972 -0.027219045862528 -0.028072370191322 -0.02883669899651 -0.029530690922013 -0.030169697992075 -0.030766207857182 -0.031330182074213 -0.031869513391762 -0.032390329009768 -0.032897380584533 -0.033394273898983 -0.033883751459613 -0.03436785025925 -0.034848089941892 -0.035325574158538 -0.035801112638149 -0.036275282575792 -0.036748500980322 -0.037221059923987 -0.037693167018834 -0.038164964752725 -0.038636553495334 -0.039108001777954 -0.039579357088206 -0.04005065114321 -0.040521905411119 -0.040993133768283 -0.041464345609813 -0.041935547159766 -0.04240674246894 -0.042877934041282 -0.043349123395739 -0.043820311359686 -0.044291498483627 -0.044762685157429 -0.045233871599537 -0.04570505790468 -0.046176244132509 -0.046647430325517
0 0.006871208514328 0.02233336141103 0.034172907434401 0.030911058556538 0.0094957503754612 -0.021790446118094 -0.047132865201244 -0.051742143780206 -0.03042838178728 0.0086721147715542 0.047449557285439 0.066627740634132 0.055472904842566 0.017406140113282 -0.031291517949064 -0.068948704128595 -0.078418328887603 -0.054710144915695 -0.0069678405256697 0.045757650664963 0.082668665536028 0.089550297984568 0.063847274725498 0.014832432139728 -0.040596429154781 -0.0843451801788 -0.10315021221503 -0.092199491335342 -0.055566126244673 -0.0039089696508556 0.049317231486948 0.091721615295848 0.11480391254129 0.11522901217859 0.09459554042282 0.058142486505741 0.012987699604147 -0.033572849948343 -0.075343893464439 -0.10795551440064 -0.12905598756094 -0.13811448806412 -0.13599778915098 -0.12447361490121 -0.10574753555883 -0.082093925093853 -0.05560092937066 -0.028024667970945 -0.00072979379689994 0.02530550061315 0.049448765939591 0.071350981744852 0.090882517830721 0.10807135920323 0.12305143445681 0.13601997411568 0.14720586473995 0.15684767366776 0.16517784969439 0.17241276071827 0.17874685670873 0.18435061821806 0.18936994814275 0.19392737737416 0.19812372230722 0.20204098905942 0.20574459494877 0.20928637147626 0.21270655582487 0.21603635201377 0.21929943913762 0.22251382717437 0.22569289300968 0.22884661611124 0.23198224413012 0.23510509453802 0.23821895776187 0.24132657228934 0.24442985615228 0.24753017273428 0.2506284577499 0.25372537032451 0.25682136050156 0.25991674013117 0.26301171749897 0.26610643358582 0.26920097951739 0.27229541699116 0.27538978688038 0.27848411578655 0.28157842015303 0.2846727099547 0.28776699062493 0.29086126577886 0.29395553797674 0.29704980865309 0.30014407842999 0.30323834769917 0.30633261673969
0 0.012413959856865 0.040348863150821 0.061738935763397 0.055845873291996 0.017155623166722 -0.039367998047087 -0.085153215089772 -0.093480629274486 -0.054973838914796 0.015667590995632 0.085725371037593 0.12037388995851 0.10022085815375 0.031447033542741 -0.056533235291875 -0.12456708939198 -0.14167551236776 -0.098842807830743 -0.012588541359839 0.082668665536028 0.14935443936025 0.1617872317559 0.11535052440336 0.026797209949066 -0.073344076345323 -0.15238333674146 -0.18635769690212 -0.16657343200597 -0.10038927783438 -0.007062191785657 0.089099629367098 0.16571007093077 0.20741200892488 0.20818002081416 0.17090228582041 0.10504389321842 0.023464399484123 -0.060654833959733 -0.13612104289618 -0.1950392597317 -0.23316070899738 -0.24952636889191 -0.24570220676933 -0.22488190474796 -0.19105018551719 -0.14831607692919 -0.10045215536284 -0.050631137516469 -0.0013184916277265 0.045718517799955 0.089337267827857 0.12890719606042 0.16419410438335 0.19524855227843 0.22231250361435 0.2457422875296 0.26595142495913 0.28337092674367 0.29842074957754 0.31149179738975 0.32293537579247 0.33305948573312 0.34212772461185 0.35036146448617 0.35794284663111 0.36502002848477 0.37171119711111 0.37810999457775 0.3842891159242 0.3903049363049 0.39620023586981 0.40200755258408 0.40775105397538 0.41344876958113 0.41911379346611 0.42475573251102 0.43038143474084 0.43599584768061 0.44160243656794 0.44720366457786 0.45280122223149 0.45839630034638 0.46398971199953 0.46958202059905 0.47517360244693 0.48076471224812 0.48635551463603 0.49194612107723 0.4975366054159 0.50312701571199 0.50871738167312 0.51430772132057 0.51989804447057 0.52548835765447 0.53107866549778 0.5366689705922 0.54225927406162 0.54784957661376 0.55343987875278
0 0.013447341833118 0.043707645394613 0.066878303393597 0.060494681534773 0.018583717987094 -0.042645129606406 -0.092241670240943 -0.10126228786972 -0.059550055928146 0.016971816748968 0.092861454475862 0.13039423880198 0.10856359726801 0.034064795968624 -0.061239261981467 -0.13493649500439 -0.15346908368951 -0.10707083315645 -0.013636456118593 0.089550297984568 0.1617872317559 0.17525497381502 0.12495271051031 0.029027904594009 -0.079449496971306 -0.16506826528043 -0.20187077148391 -0.18043959432182 -0.10874603679923 -0.00765007363708 0.096516598016946 0.17950436401356 0.22467771899265 0.22550966291112 0.18512879725622 0.11378811884981 0.0254176591845 -0.065703957116998 -0.14745224051077 -0.21127501834478 -0.2525698320352 -0.27029782741006 -0.26615532849106 -0.24360187080485 -0.20695387946737 -0.16066243235924 -0.10881414847581 -0.054845852687939 -0.0014282475395906 0.04952428911066 0.096774018344655 0.13963788752021 0.1778622030427 0.21150173314421 0.24081858362264 0.26619874571574 0.28809016330536 0.30695972610082 0.32326234947872 0.33742147759534 0.34981765998594 0.36078453668748 0.37060764788106 0.37952679341815 0.38773927665847 0.39540558818989 0.40265375338608 0.40958520941195 0.41627870269952 0.42279530127069 0.42918134644662 0.43547208476786 0.44169369555268 0.44786570918104 0.45400230971402 0.46011390374311 0.46620790934712 0.4722896859006 0.47836298709982 0.48443048116321 0.49049399933684 0.49655483156617 0.50261385861156 0.50867169078124 0.5147287357019 0.52078526928104 0.52684146985672 0.53289745817439 0.53895331422529 0.54500909007004 0.55106481788924 0.5571205172043 0.56317619864861 0.56923186929721 0.57528753416064 0.58134319604637 0.58739885617182 0.59345451530364 0.59951017398794
0 0.0095876412214144 0.031162532184934 0.04768267114736 0.043131297587059 0.013249757671913 -0.030404983198982 -0.065766160398787 -0.072197650465271 -0.042457801552132 0.012100509668308 0.066208052108898 0.092968052310079 0.077403313846632 0.024287405353487 -0.04366216608672 -0.096206575086169 -0.10941987875778 -0.076339007836756 -0.0097224752980278 0.063847274725498 0.11535052440336 0.12495271051031 0.089088369499586 0.020696219231326 -0.056645639088814 -0.11768982481373 -0.14392915373886 -0.12864922405962 -0.077533388979077 -0.0054543241526802 0.068814084239232 0.1279824266534 0.16018997560113 0.16078313221941 0.13199251642977 0.081128275932183 0.01812219842207 -0.046845389630353 -0.10513000984546 -0.15063416250405 -0.18007640193563 -0.19271604933497 -0.18976254418218 -0.17368245465362 -0.14755329122565 -0.11454856865663 -0.077581951016549 -0.039103814313655 -0.0010183071981734 0.035309663547722 0.068997618931501 0.099558558343682 0.12681160416582 0.15079580487051 0.17169803578107 0.18979349965117 0.20540157002538 0.21885512838159 0.23047851877762 0.24057364702489 0.24941183607007 0.25723096348118 0.26423461275037 0.27059375558116 0.27644906466917 0.28191496606195 0.2870827388662 0.29202470541563 0.29679701008041 0.30144319293646 0.30599629426536 0.31048144402881 0.31491730747041 0.31931780929573 0.32369306240965 0.32805048646929 0.3323953703919 0.33673153528659 0.34106165745127 0.34538763926349 0.34971078635902 0.35403201843886 0.35835196346465 0.36267105657192 0.36698958838898 0.37130775563146 0.37562568545024 0.37994346393401 0.38426114811466 0.38857877511019 0.39289636786461 0.39721394029626 0.40153149998648 0.4058490519796 0.41016659984804 0.41448414559344 0.41880169008381 0.42311923386573 0.42743677732859
0 0.0022273157062395 0.0072394028707154 0.01107721491755 0.010019880211159 0.0030780660941509 -0.0070634158144949 -0.015278210626834 -0.016772317311553 -0.0098634195904457 0.0028110829989684 0.015380866986585 0.021597512704818 0.017981650821531 0.0056422344305919 -0.010143206868878 -0.022349857570215 -0.025419454994591 -0.017734400696365 -0.0022586391620971 0.014832432139728 0.026797209949066 0.029027904594009 0.020696219231326 0.0048079619469646 -0.013159412072146 -0.027340655456184 -0.033436343445173 -0.0298866458106 -0.018011868721721 -0.001267100173195 0.015986277239306 0.029731741355847 0.037213913245065 0.037351710125616 0.030663329818126 0.018847000949544 0.0042099882802154 -0.010882705107441 -0.024422870726838 -0.034993991566157 -0.041833751294163 -0.044770081985284 -0.044083949884243 -0.040348366215894 -0.034278270897348 -0.026610906708348 -0.018023150223217 -0.0090842510460386 -0.00023656408952834 0.0082028276179353 0.016028914389914 0.023128560567552 0.029459746268048 0.035031542885954 0.039887363637627 0.04409114118403 0.047717069552201 0.050842480812342 0.053542723697006 0.055887934284508 0.057941143913492 0.059757614189095 0.061384639821158 0.062861939438252 0.06422219287238 0.065491982567233 0.066692513674662 0.067840587477286 0.06894924693683 0.070028606897257 0.071086342983511 0.072128293165237 0.073158793586147 0.074181079110242 0.075197499077821 0.076209777157762 0.077219142024378 0.078226481363818 0.079232416909863 0.080237390605974 0.081241705765862 0.082245576046308 0.083249147329778 0.084252520703099 0.085255763682464 0.086258921967096 0.087262025095562 0.088265093067221 0.089268139131215 0.090271171910472 0.091274196735139 0.092277216838598 0.093280233982081 0.094283249337444 0.095286263734597 0.096289277638545 0.097292291250934 0.098295304698745 0.099298318072432
-0 -0.0060961724565382 -0.019814276107607 -0.030318383822442 -0.027424454283678 -0.0084246798466879 0.019332598794493 0.041816526749028 0.045905903029633 0.026996220906678 -0.0076939459921858 -0.042097497637461 -0.059112483116792 -0.049215853933155 -0.015442819368961 0.027761999864592 0.061171654177905 0.069573155239797 0.048539129300589 0.0061819048869735 -0.040596429154781 -0.073344076345323 -0.079449496971306 -0.056645639088814 -0.013159412072146 0.036017366192734 0.074831488984153 0.091515412649768 0.081799875293162 0.049298560453078 0.003468058503726 -0.043754508045642 -0.081375901148944 -0.10185463708133 -0.102231787723 -0.08392566268866 -0.051584320873372 -0.01152275563105 0.029786009654023 0.066845499907112 0.095778702108697 0.11449915325373 0.12253590270615 0.12065795625959 0.11043364804666 0.093819771627697 0.072834163591847 0.049329437970126 0.024863633323288 0.00064747690807764 -0.022451173693116 -0.043871206106197 -0.063302967557006 -0.080631449449569 -0.095881480228932 -0.10917188205087 -0.12067763887735 -0.13060182007246 -0.1391560838376 -0.14654665997072 -0.15296551121317 -0.15858515460393 -0.16355684138871 -0.16801001738728 -0.1720533926531 -0.17577641202382 -0.17925183175964 -0.18253769045036 -0.18567997327719 -0.18871437888121 -0.19166859163292 -0.19456361975006 -0.1974154417801 -0.20023592576664 -0.20303392554603 -0.20581587127257 -0.20858648063523 -0.21134911652076 -0.21410620852989 -0.21685945835059 -0.21961007558398 -0.22235889040096 -0.22510648758103 -0.22785326640512 -0.2305995035483 -0.23334538380267 -0.2360910322472 -0.23883652972908 -0.24158193098663 -0.2443272722828 -0.2470725772186 -0.24981786038264 -0.25256313062473 -0.25530839276534 -0.25805365001186 -0.26079890463576 -0.26354415790976 -0.26628941038575 -0.2690346624113 -0.27177991423397
-0 -0.012665714077643 -0.041167135218635 -0.062990996978675 -0.056978423620532 -0.017503537981342 0.040166378240533 0.086880116220345 0.095376409770977 0.056088704448338 -0.01598532862392 -0.087463875449992 -0.12281506386418 -0.10225333001133 -0.032084777140806 0.057679725272759 0.12709330108318 0.14454868165707 0.10084733292603 0.01284383608105 -0.0843451801788 -0.15238333674146 -0.16506826528043 -0.11768982481373 -0.027340655456184 0.074831488984153 0.1554736599456 0.19013701770794 0.16995152933032 0.10242516523108 0.0072054125315339 -0.090906563497834 -0.16907065935408 -0.21161830967735 -0.21240189679298 -0.17436817199146 -0.10717417588323 -0.023940255832643 0.06188490966773 0.13888156794064 0.1989946420127 0.23788919155142 0.25458674586174 0.25068503000397 0.2294424937421 0.19492466965755 0.15132391639433 0.10248931791133 0.051657933375289 0.001345230543928 -0.046645686081195 -0.091149021249633 -0.1315214248054 -0.16752394911316 -0.19920817899736 -0.2268209853367 -0.25072592359921 -0.27134490089489 -0.28911766893361 -0.30447270110149 -0.31780882883137 -0.32948448218815 -0.33981390835655 -0.34906605047318 -0.35746677000508 -0.36520190203936 -0.37242260863641 -0.37924947368541 -0.38577803830843 -0.39208247179522 -0.39822029258431 -0.40423514840406 -0.41016023708723 -0.41602021627724 -0.42183348114922 -0.42761339131467 -0.43336974848114 -0.43910953955107 -0.44483781238494 -0.45055810249516 -0.45627292300975 -0.46198399873349 -0.46769254463362 -0.47339939027628 -0.47910511049546 -0.48481008922454 -0.49051458633385 -0.49621876979556 -0.50192275333678 -0.50762661229924 -0.51333039571754 -0.51903413390176 -0.52473784523867 -0.53044153974356 -0.53614522408023 -0.54184890296801 -0.54755257905116 -0.55325625347636 -0.55895992696566 -0.56466360003347
-0 -0.015489576193853 -0.050345481805661 -0.077035044470979 -0.069681948342235 -0.021406008659438 0.049121602806907 0.10625032048538 0.11664089029543 0.068593863389082 -0.019549309591715 -0.10696423073245 -0.15019708149223 -0.12505104225283 -0.039238182477413 0.070539607477003 0.15542916560315 0.17677628000464 0.12333157354798 0.015707411076803 -0.10315021221503 -0.18635769690212 -0.20187077148391 -0.14392915373886 -0.033436343445173 0.091515412649768 0.19013701770794 0.23252868373665 0.20784277512395 0.12526118869328 0.0088118826724774 -0.11117447726903 -0.20676551232374 -0.25879929956318 -0.25975758997284 -0.21324412262014 -0.13106900670424 -0.029277813674525 0.07568235139936 0.16984566486745 0.24336114416675 0.29092735992944 0.31134768823901 0.30657607215048 0.28059744339241 0.23838375824793 0.18506207534557 0.12533964442208 0.06317523750563 0.0016451540655928 -0.057045493387899 -0.11147099176457 -0.16084455390031 -0.20487395800792 -0.24362228991612 -0.27739146116832 -0.30662608310567 -0.33184212839952 -0.3535773928326 -0.37235587932499 -0.38866534007363 -0.4029441182913 -0.41557652359378 -0.42689146086406 -0.43716514811729 -0.4466248529772 -0.45545543957681 -0.46380437637527 -0.47178850569833 -0.47949853311992 -0.48700480100138 -0.49436068847397 -0.50160679493514 -0.50877327553004 -0.51588262669789 -0.522951186619 -0.52999094232345 -0.5370104384663 -0.54401584834493 -0.55101149572572 -0.55800045404678 -0.56498483266367 -0.57196611742458 -0.57894532285008 -0.58592315193529 -0.59290007421275 -0.59987640749177 -0.60685235719442 -0.61382806240366 -0.6208036152589 -0.62777907572717 -0.63475448087628 -0.64172985319237 -0.6487052049237 -0.65568054421977 -0.6626558768521 -0.6696312060545 -0.67660653322929 -0.68358185925954 -0.69055718477432
-0 -0.013845158583834 -0.045000661790576 -0.068856784321622 -0.062284313860807 -0.019133485695656 0.043906713278809 0.094970483265203 0.10425796053354 0.061311743111255 -0.017473899099265 -0.095608602763219 -0.13425173071645 -0.11177526675981 -0.035072545054965 0.063050921454399 0.13892836184781 0.158009205668 0.11023834175937 0.014039867493994 -0.092199491335342 -0.16657343200597 -0.18043959432182 -0.12864922405962 -0.0298866458106 0.081799875293162 0.16995152933032 0.20784277512395 0.18577759301364 0.11196310345446 0.0078763880622512 -0.099371877513055 -0.18481469550639 -0.23132442740813 -0.23218098297331 -0.19060551804627 -0.11715434693211 -0.026169597427245 0.06764769700655 0.15181436441108 0.21752523064313 0.2600416812048 0.27829412918928 0.27402908148106 0.25080841808494 0.21307625821698 0.16541535733106 0.11203323009921 0.05646837401426 0.001470499815354 -0.050989381023993 -0.099636913183604 -0.1437688370699 -0.18312395399451 -0.21775865241453 -0.2479427920824 -0.27407378313054 -0.29661282109912 -0.31604060783592 -0.33282551661572 -0.34740351847038 -0.36016642084632 -0.37145773395388 -0.38157144519508 -0.39075444849237 -0.39920988409 -0.4071029904171 -0.41456558026038 -0.42170209163089 -0.42859360053995 -0.43530298160312 -0.44187794707075 -0.44835478619241 -0.45476045275698 -0.46111505491751 -0.46743319634645 -0.47372559149657 -0.47999987789795 -0.48626157347313 -0.4925145429651 -0.498761533527 -0.5050044305792 -0.51124456222799 -0.51748283528956 -0.52371987812705 -0.52995611042609 -0.53619181625644 -0.54242717923199 -0.54866232367024 -0.55489733192883 -0.56113225760851 -0.56736713384188 -0.57360198072787 -0.57983680921443 -0.58607162658591 -0.59230643800108 -0.59854124635045 -0.60477605288747 -0.61101085840146 -0.61724566345469
-0 -0.0083441005867237 -0.027120675157027 -0.041498111486335 -0.03753706226496 -0.011531231531404 0.026461382136756 0.057236127729145 0.062833437724161 0.036950920321347 -0.01053104381894 -0.0576207049982 -0.08090986739204 -0.067363913768435 -0.021137269176008 0.037999075815239 0.083728345803157 0.09522785150771 0.066437650864309 0.0084614463521522 -0.055566126244673 -0.10038927783438 -0.10874603679923 -0.077533388979077 -0.018011868721721 0.049298560453078 0.10242516523108 0.12526118869328 0.11196310345446 0.067477117836451 0.0047468849022958 -0.059888728355099 -0.11138279131094 -0.13941294198778 -0.13992916473457 -0.11487276258574 -0.070605739114813 -0.015771704738865 0.040769427440284 0.091494389138641 0.13109654133942 0.15672004994201 0.16772030400297 0.16514987572878 0.15115541334004 0.12841526663921 0.099691337719368 0.067519381258289 0.034031953472449 0.00088623025137459 -0.030729913387612 -0.060048458146617 -0.086645568592349 -0.1103638273781 -0.1312372182936 -0.14942837847335 -0.16517681619735 -0.17876048147637 -0.19046908024234 -0.20058488833147 -0.20937065362929 -0.21706250782934 -0.2238674751943 -0.22996273393696 -0.23549708031059 -0.2405929414164 -0.2453499019623 -0.24984740193045 -0.25414838327012 -0.25830170828863 -0.26234526980704 -0.26630782270117 -0.27021123751494 -0.27407175856395 -0.27790150448524 -0.28170927651508 -0.28550153196279 -0.28928287376008 -0.29305662740879 -0.29682512208444 -0.30059001342152 -0.30435243771162 -0.30811319536829 -0.31187283290498 -0.31563172901906 -0.31939013664367 -0.32314822697991 -0.32690611068689 -0.33066386268738 -0.3344215326161 -0.33817915277675 -0.34193674313745 -0.34569431581128 -0.34945187739628 -0.35320943228252 -0.35696698357906 -0.36072453302792 -0.36448208138453 -0.36823962912458 -0.37199717658695
-0 -0.00058699135897235 -0.0019078871115241 -0.0029193119861124 -0.0026406598244749 -0.00081119986472995 0.0018615071210257 0.0040264510295456 0.004420210976039 0.0025994258709222 -0.00074083859110141 -0.0040535052975816 -0.0056918528870916 -0.0047389212147736 -0.001486966058191 0.0026731615853205 0.0058901273991952 0.0066990954132872 0.0046737604086199 0.00059524640690743 -0.0039089696508556 -0.007062191785657 -0.00765007363708 -0.0054543241526802 -0.001267100173195 0.003468058503726 0.0072054125315339 0.0088118826724774 0.0078763880622512 0.0047468849022958 0.00033393418388524 -0.0042130563598693 -0.0078355642238743 -0.0098074311814919 -0.0098437464546031 -0.0080810769618953 -0.004966977366044 -0.0011095089640586 0.0028680504709847 0.0064364535471071 0.0092223884596792 0.011024952795997 0.011798799421307 0.011617974757207 0.010633491359592 0.0090337659636175 0.0070130930466935 0.0047498580523868 0.0023940821913222 6.2344586358952e-05 -0.0021617900495108 -0.0042242930421716 -0.0060953483875636 -0.0077638820794105 -0.0092322848116769 -0.010511997792628 -0.011619869967133 -0.012575454581567 -0.013399131888649 -0.014110759448219 -0.014728821066506 -0.015269928152043 -0.015748644461824 -0.016177434140886 -0.016566764718234 -0.016925248703961 -0.017259891689912 -0.017576282125388 -0.01787884785494 -0.01817102624751 -0.018455482989865 -0.018734240931976 -0.019008838624364 -0.019280418823254 -0.019549834051354 -0.019817703458634 -0.020084481304333 -0.020350491395805 -0.020615967675682 -0.020881073996963 -0.021145926830335 -0.021410606111717 -0.021675168148657 -0.02193965138732 -0.022204082468335 -0.022468479185058 -0.022732853581158 -0.022997213441288 -0.023261564036121 -0.023525908857364 -0.023790250177519 -0.024054589401305 -0.024318927380855 -0.024583264580326 -0.024847601308552 -0.02511193778425 -0.025376274129968 -0.025640610398847 -0.025904946624353 -0.026169282830325
0 0.0074057338165675 0.024070719072839 0.036831287490353 0.033315692746145 0.010234444133459 -0.023485569293722 -0.050799426762368 -0.055767270507907 -0.032795467568128 0.0093467362387465 0.051140754968676 0.071810848252789 0.059788255070295 0.01876019919699 -0.03372574884955 -0.074312364223688 -0.084518650375789 -0.058966158495497 -0.0075098830288442 0.049317231486948 0.089099629367098 0.096516598016946 0.068814084239232 0.015986277239306 -0.043754508045642 -0.090906563497834 -0.11117447726903 -0.099371877513055 -0.059888728355099 -0.0042130563598693 0.053153719349484 0.098856826523345 0.12373474267422 0.12419291167795 0.10195432013815 0.062665508927143 0.013998039203335 -0.036184550310551 -0.081205048360553 -0.11635359369674 -0.13909551563129 -0.14885869533453 -0.14657733410268 -0.13415667087123 -0.11397385168471 -0.088480178695576 -0.059926238887127 -0.030204763959314 -0.00078656594244712 0.027274067035688 0.053295486135043 0.076901519907495 0.097952453957743 0.11647845030243 0.13262385611406 0.14660124488096 0.15865730871483 0.16904917359284 0.1780273709754 0.18582510046036 0.1926519386761 0.19869162820423 0.20410142202467 0.20901338295633 0.2135361701068 0.21775816901641 0.22174988594959 0.22556718448531 0.22925343193896 0.23284225975389 0.23635918906976 0.23982363089737 0.24325000273758 0.24664906038117 0.25002861528874 0.25339439858897 0.25675049557378 0.26009985776342 0.2634445523973 0.26678604891942 0.27012535583547 0.27346318354553 0.27680001710286 0.28013619261701 0.28347193457658 0.28680739492962 0.29014267189066 0.29347783195675 0.29681291918076 0.30014796223355 0.30348297883765 0.30681797974394 0.31015297080842 0.31348795592747 0.31682293786052 0.32015791815368 0.32349289747742 0.32682787625394 0.33016285478401
0 0.013773398214505 0.044767420394993 0.068499895070853 0.061961490157559 0.019034315578408 -0.043679141890453 -0.094478244991929 -0.10371758465354 -0.060993960306295 0.017383330728712 0.095113057074535 0.13355589514902 0.11119592818625 0.034890761742681 -0.062724124373475 -0.13820828699303 -0.15719023354229 -0.10966696916937 -0.013967097935551 0.091721615295848 0.16571007093077 0.17950436401356 0.1279824266534 0.029731741355847 -0.081375901148944 -0.16907065935408 -0.20676551232374 -0.18481469550639 -0.11138279131094 -0.0078355642238743 0.098856826523345 0.18385678876038 0.2301254576567 0.23097757363794 0.18961759708543 0.11654712823154 0.026033958679215 -0.067297074535013 -0.15102750055584 -0.21639778303789 -0.25869386803449 -0.27685171237824 -0.27260877069336 -0.24950846152585 -0.21197186992902 -0.16455799863322 -0.11145255448467 -0.056175694710505 -0.0014628781179058 0.05072509970197 0.099120488496547 0.14302367371307 0.18217481047317 0.21662999496887 0.24665768825173 0.27265324065124 0.29507545730072 0.31440254853858 0.33110046003006 0.34560290314041 0.35829965455228 0.36953244403991 0.37959373524925 0.3887291424353 0.39714075295301 0.40499294878987 0.41241685953822 0.41951638189999 0.42637217166423 0.43304677756321 0.43958766455154 0.4460309337892 0.45240339936184 0.45872506520061 0.46501045928616 0.47127024053755 0.47751200689904 0.48374124769341 0.48996180763243 0.49617641963057 0.50238695933595 0.50859474797119 0.51480068765238 0.52100540348582 0.52720931298189 0.53341269873799 0.53961574341633 0.54581857069006 0.55202126248997 0.55822387213897 0.56442643259795 0.57062896386166 0.5768314768213 0.58303397872347 0.5892364747002 0.59543896762703 0.6016414587509 0.60784394885703 0.61404643850481
0 0.017239556879958 0.056033411526263 0.085738306477008 0.077554472563877 0.023824415803171 -0.054671261177594 -0.11825426471309 -0.12981873988102 -0.076343457994766 0.021757950666463 0.11904883108195 0.16716604103194 0.13917905363165 0.043671232202852 -0.078509028276209 -0.17298923532093 -0.19674810311316 -0.13726532286396 -0.017482002303128 0.11480391254129 0.20741200892488 0.22467771899265 0.16018997560113 0.037213913245065 -0.10185463708133 -0.21161830967735 -0.25879929956318 -0.23132442740813 -0.13941294198778 -0.0098074311814919 0.12373474267422 0.2301254576567 0.28803791591686 0.28910447202001 0.237336008114 0.1458769154171 0.032585561273335 -0.084232788904579 -0.18903448123124 -0.270855589251 -0.32379573893248 -0.34652311423277 -0.34121241070299 -0.31229876952049 -0.26531586843571 -0.20597001069074 -0.13950026148461 -0.070312646824732 -0.0018310202122468 0.06349037673453 0.12406475677192 0.17901644312878 0.22802019939715 0.27114623871383 0.30873058197188 0.34126807179377 0.36933297438958 0.39352384461131 0.41442388615883 0.43257595647624 0.44846792189731 0.46252751055341 0.47512078632951 0.48655517378805 0.49708361678474 0.50691186502485 0.51620404765289 0.52509020760196 0.53367129817649 0.54202560887416 0.55021254949146 0.55827730626287 0.56625344120024 0.57416599234457 0.58203314373039 0.58986823665799 0.59768078114008 0.6054776479206 0.6132636492562 0.62104220581576 0.62881566526554 0.63658568132179 0.64435338312357 0.65211955308894 0.65988471379729 0.66764921896334 0.67541329721736 0.68317710335559 0.69094073992718 0.69870427367411 0.70646774585204 0.71423118148754 0.72199459421265 0.7297579930976 0.73752138456594 0.74528477221686 0.75304815761108 0.76081154173146 0.76857492527813
0 0.017303392068278 0.056240893853212 0.086055781048909 0.0778416437711 0.023912633619906 -0.054873699690213 -0.11869214042592 -0.13029943690621 -0.076626145018108 0.02183851670931 0.11948964894081 0.16778502885073 0.13969441032908 0.043832939452712 -0.078799734043171 -0.17362978545172 -0.19747662834739 -0.13777359333727 -0.017546735226196 0.11522901217859 0.20818002081416 0.22550966291112 0.16078313221941 0.037351710125616 -0.102231787723 -0.21240189679298 -0.25975758997284 -0.23218098297331 -0.13992916473457 -0.0098437464546031 0.12419291167795 0.23097757363794 0.28910447202001 0.29017497740157 0.23821482355448 0.1464170731736 0.032706220142637 -0.084544688797362 -0.18973444421709 -0.27185852207972 -0.32499470025823 -0.34780623121823 -0.3424758630438 -0.31345515949637 -0.26629828860718 -0.20673268310236 -0.14001680756086 -0.070573002765585 -0.0018378001730591 0.063725470953228 0.12452414776252 0.17967931099941 0.22886451996007 0.27215024776877 0.30987375954759 0.34253173023826 0.37070055246234 0.39498099742007 0.41595842831683 0.4341777127068 0.45012852341099 0.4642401723663 0.47688007893091 0.48835680600883 0.49892423406449 0.50878887465979 0.51811546468195 0.52703452859124 0.53564739350525 0.54403263881455 0.55224989430013 0.56034451351352 0.56835018274109 0.5762920327355 0.58418831486371 0.59205241982659 0.59989389285085 0.60771963012165 0.61553446171461 0.62334182096476 0.63114406423139 0.63894285135419 0.64673931565322 0.65453424244371 0.66232815624006 0.67012141206675 0.67791423940063 0.68570679361112 0.6934991776271 0.70129145843767 0.70908367745126 0.71687585978711 0.72466801912774 0.73246016457695 0.74025230258211 0.74804443675569 0.75583656866424 0.76362869929421 0.77142082934835
0 0.014204961865938 0.046170123715556 0.070646211061954 0.063902937469559 0.019630720227836 -0.045047746041161 -0.097438543950454 -0.10696738102578 -0.062905091881468 0.017928004858257 0.098093246681401 0.13774061912805 0.11468004445482 0.035983998451913 -0.0646894674011 -0.14253878496196 -0.16211549527514 -0.11310317836911 -0.014404730805169 0.09459554042282 0.17090228582041 0.18512879725622 0.13199251642977 0.030663329818126 -0.08392566268866 -0.17436817199146 -0.21324412262014 -0.19060551804627 -0.11487276258574 -0.0080810769618953 0.10195432013815 0.18961759708543 0.237336008114 0.23821482355448 0.19555890955602 0.12019891433693 0.026849684042985 -0.069405702396113 -0.15575966458622 -0.22317820250704 -0.26679955615544 -0.2855263425631 -0.28115045624263 -0.25732634212748 -0.21861361169551 -0.16971411549391 -0.11494471165793 -0.057935854952263 -0.0015087146654544 0.052314475751786 0.10222624346575 0.14750505281123 0.18788291715699 0.22341769036421 0.25438624520901 0.2811963195834 0.30432109442076 0.32425376388531 0.34147487317753 0.35643172319647 0.36952630354752 0.38111105146774 0.39148759440399 0.40090924247418 0.40958441506226 0.4176826447576 0.42533916985287 0.43266114245867 0.43973174556222 0.44661548774324 0.45336132118184 0.46000647820029 0.4665786130534 0.47309835645807 0.47958069160202 0.48603661138161 0.49247395180844 0.49889837420295 0.50531384374377 0.5117231789761 0.518128314318 0.52453061239012 0.53093100357469 0.53733013256453 0.54372842995192 0.55012618718894 0.55652359266116 0.5629207739168 0.5693178154538 0.57571477226586 0.5821116783466 0.5885085543173 0.59490541141041 0.60130225709958 0.60769909667766 0.61409593311027 0.62049276768342 0.62688960120696 0.63328643425777
0 0.0087309803391709 0.028378143230656 0.043422198921763 0.039277493028675 0.012065884721872 -0.027688281652656 -0.059889918715572 -0.065746751697246 -0.038664174225473 0.011019322643402 0.060292327164524 0.084661307003995 0.070487286265175 0.022117312666763 -0.039760928143339 -0.087610466034148 -0.099643153940185 -0.069518076567764 -0.008853766918766 0.058142486505741 0.10504389321842 0.11378811884981 0.081128275932183 0.018847000949544 -0.051584320873372 -0.10717417588323 -0.13106900670424 -0.11715434693211 -0.070605739114813 -0.004966977366044 0.062665508927143 0.11654712823154 0.1458769154171 0.1464170731736 0.12019891433693 0.073879420991749 0.016502970279305 -0.042659728957095 -0.095736587114608 -0.13717491934229 -0.1639864788992 -0.17549676702839 -0.17280715914412 -0.15816383423409 -0.13436932556401 -0.10431359264752 -0.070649962108208 -0.035609867544537 -0.00092732090418965 0.032154726183258 0.06283264469628 0.090662947790892 0.1154809193608 0.13732211887667 0.15635672425148 0.17283534872536 0.18704882964549 0.19930030535128 0.20988513958512 0.21907826271237 0.22712675482897 0.23424723901473 0.24062510846767 0.24641605847794 0.2517481925604 0.25672571273394 0.26143174226813 0.26593214145741 0.27027803814237 0.27450908206981 0.27865536135444 0.28273976058243 0.28677927724783 0.29078659187633 0.29477091377933 0.2987389996636 0.30269566587881 0.30664439211591 0.31058761554417 0.31452706856269 0.31846394014796 0.32239906782523 0.32633302344741 0.33026620327045 0.33419887195487 0.33813120863963 0.34206332911463 0.34599531177649 0.34992720856125 0.35385905327042 0.35779086679795 0.36172266181855 0.36565444523617 0.36958622164444 0.37351799429657 0.37744976501536 0.38138153459124 0.38531330352199 0.38924507216218
0 0.0019503010055077 0.0063390271340877 0.0096995245583743 0.0087736922054416 0.0026952422513005 -0.0061849278603558 -0.013378035931054 -0.014686318255549 -0.0086366908342192 0.0024614642567712 0.013467924760502 0.018911396631683 0.015745245085678 0.0049405010041763 -0.0088816805359154 -0.019570171202061 -0.02225799804515 -0.015528745841151 -0.0019777287146932 0.012987699604147 0.023464399484123 0.0254176591845 0.01812219842207 0.0042099882802154 -0.01152275563105 -0.023940255832643 -0.029277813674525 -0.026169597427245 -0.015771704738865 -0.0011095089640586 0.013998039203335 0.026033958679215 0.032585561273335 0.032706220142637 0.026849684042985 0.016502970279305 0.0036863855236502 -0.0095292062343152 -0.021385360504801 -0.030641734688538 -0.036630822915948 -0.039201957615601 -0.038601160825626 -0.035330177478213 -0.030015029306751 -0.023301267065722 -0.015781583142564 -0.0079544286872948 -0.00020714224767584 0.0071826292547796 0.014035373505549 0.020252025702724 0.025795792041346 0.030674615692589 0.034926510503918 0.03860745773233 0.041782423778919 0.044519122804657 0.046883532303644 0.048937065421612 0.050734914192089 0.052325467248873 0.053750137185565 0.055043702763441 0.056234779373233 0.05734664335898 0.058397862554985 0.059403148642351 0.060373922409472 0.061319040701516 0.062245224514078 0.063157585739483 0.064059921228542 0.064955063520213 0.065845069763708 0.066731449252539 0.067615277848894 0.068497332836023 0.069378158621712 0.070258142184232 0.071137549113699 0.072016566494068 0.072895322064178 0.073773904338529 0.074652372436223 0.075530766372799 0.076409112013067 0.077287426869034 0.078165722542027 0.079044006582525 0.079922283657758 0.080800556598968 0.081678826948338 0.082557095731979 0.083435363676584 0.084313631189326 0.085191898446769 0.086070165560103 0.086948432608533
-0 -0.0050414750115645 -0.016386212591739 -0.025073006959954 -0.022679755529007 -0.0069671278544549 0.015987870163762 0.034581858728347 0.0379637329254 0.022325610713608 -0.0063628181020913 -0.034814218905673 -0.048885445520034 -0.040701029957034 -0.012771060614143 0.022958902423813 0.050588359852454 0.057536319078531 0.040141385303096 0.0051123748932201 -0.033572849948343 -0.060654833959733 -0.065703957116998 -0.046845389630353 -0.010882705107441 0.029786009654023 0.06188490966773 0.07568235139936 0.06764769700655 0.040769427440284 0.0028680504709847 -0.036184550310551 -0.067297074535013 -0.084232788904579 -0.084544688797362 -0.069405702396113 -0.042659728957095 -0.0095292062343152 0.024632738728368 0.055280574790139 0.079208050094318 0.094689680137716 0.1013359933494 0.099782950001152 0.091327547085061 0.077588033741473 0.060233141098671 0.040794962844955 0.020561981635152 0.00053545707177912 -0.018566901110671 -0.036281058465525 -0.052350935176423 -0.066681420259076 -0.07929304659476 -0.090284078944424 -0.099799227333581 -0.10800642814066 -0.11508072062857 -0.12119265482364 -0.12650098203591 -0.13114837216971 -0.13525990852625 -0.13894264153273 -0.14228647334037 -0.14536537395528 -0.14823951209323 -0.15095688510046 -0.15355552227216 -0.15606494603547 -0.15850805109405 -0.16090221103857 -0.16326063997155 -0.16559315264897 -0.16790707110695 -0.17020771302019 -0.17249897987135 -0.1747836527349 -0.17706374086687 -0.17934065154659 -0.18161538510233 -0.18388862807733 -0.18616086407851 -0.18843242330731 -0.19070353457128 -0.1929743506917 -0.19524497510765 -0.19751547467896 -0.19978589467369 -0.20205626508095 -0.20432660541853 -0.20659692775109 -0.20886723939731 -0.2111375443437 -0.21340784524272 -0.21567814397285 -0.21794844158663 -0.22021873854047 -0.22248903512179 -0.22475933153534
-0 -0.011314033713533 -0.036773793636741 -0.056268620868665 -0.050897707135565 -0.015635566823396 0.035879837076543 0.077608302060739 0.085197874277722 0.050102938467327 -0.014279380212141 -0.078129762719358 -0.10970828526295 -0.091340892110563 -0.028660701484099 0.051524166132508 0.11352995057401 0.12912249933082 0.090084942518878 0.011473146602022 -0.075343893464439 -0.13612104289618 -0.14745224051077 -0.10513000984546 -0.024422870726838 0.066845499907112 0.13888156794064 0.16984566486745 0.15181436441108 0.091494389138641 0.0064364535471071 -0.081205048360553 -0.15102750055584 -0.18903448123124 -0.18973444421709 -0.15575966458622 -0.095736587114608 -0.021385360504801 0.055280574790139 0.1240601779131 0.17775800675292 0.21250174422056 0.22741734165488 0.2239320154834 0.20495647490555 0.17412238035578 0.13517468350019 0.091551695468371 0.04614501765922 0.0012016680333359 -0.041667675559256 -0.081421631109947 -0.1174855065556 -0.14964585466493 -0.17794875514884 -0.20261473291633 -0.22396854492914 -0.24238707252512 -0.25826313727285 -0.27197948603573 -0.28389238710225 -0.29432201901217 -0.30354909260584 -0.31181384950689 -0.31931804732939 -0.32622768890806 -0.33267780434362 -0.33877610885678 -0.3446079474561 -0.35023957411188 -0.355722368916 -0.36109532152724 -0.36638808691782 -0.37162269127648 -0.37681556665201 -0.38197864692306 -0.38712068776256 -0.39224793043326 -0.39736488408983 -0.4024747069361 -0.40757964389998 -0.41268123571571 -0.41778056768969 -0.42287838085704 -0.4279751887057 -0.43307133419581 -0.43816704946444 -0.44326248455782 -0.44835774106615 -0.45345288629072 -0.45854796403318 -0.46364300136893 -0.46873801472249 -0.47383301304034 -0.47892800227513 -0.48402298664253 -0.48911796850461 -0.49421294888566 -0.49930792843071 -0.50440290759924
-0 -0.016211165541466 -0.052690850259696 -0.080623759022463 -0.072928115378404 -0.022403217855498 0.051409956269879 0.11120004270394 0.12207466219984 0.071789341465033 -0.020460023569814 -0.11194721080281 -0.1571940846827 -0.13087660512611 -0.041066112056704 0.073825728975953 0.16266990794523 0.18501148792548 0.12907703414567 0.016439148367078 -0.10795551440064 -0.1950392597317 -0.21127501834478 -0.15063416250405 -0.034993991566157 0.095778702108697 0.1989946420127 0.24336114416675 0.21752523064313 0.13109654133942 0.0092223884596792 -0.11635359369674 -0.21639778303789 -0.270855589251 -0.27185852207972 -0.22317820250704 -0.13717491934229 -0.030641734688538 0.079208050094318 0.17775800675292 0.25469823996951 0.30448035074256 0.3258519698556 0.32085806573948 0.29366921008154 0.2494889801367 0.19368328102256 0.13117865196604 0.066118286291891 0.00172179435801 -0.059702985099932 -0.11666392146248 -0.16833757470756 -0.21441810975564 -0.25497155131905 -0.29031387563551 -0.32091040647904 -0.34730115335577 -0.37004896552329 -0.38970225682942 -0.4067715016415 -0.42171546360143 -0.43493635557308 -0.44677840463137 -0.4575306965404 -0.4674310862953 -0.47667305001354 -0.48541092604328 -0.49376699986614 -0.50183620261877 -0.50969215359523 -0.51739071861923 -0.52497438843065 -0.53247472296658 -0.53991526667366 -0.54731311885417 -0.55468082495975 -0.56202732770232 -0.56935908796529 -0.57668063093977 -0.58399517324145 -0.59130492249125 -0.5986114337563 -0.6059157688191 -0.61321866342413 -0.62052060897735 -0.62782193809334 -0.63512286576388 -0.64242353755116 -0.64972404988697 -0.65702446553191 -0.66432482328062 -0.67162514666677 -0.6789254485092 -0.68622573733708 -0.69352601919078 -0.70082629745476 -0.70812657359668 -0.71542684854074 -0.72272712294531
-0 -0.019379723120985 -0.06298955410888 -0.09638209682282 -0.087182299147684 -0.026782044631406 0.061458302650958 0.13293467598809 0.14593479706745 0.085820945882733 -0.024459042800939 -0.13382788202216 -0.18791849541079 -0.15645712603889 -0.049092699675331 0.088255356044527 0.19446459713406 0.22117295644327 0.15430581944417 0.019652266389105 -0.12905598756094 -0.23316070899738 -0.2525698320352 -0.18007640193563 -0.041833751294163 0.11449915325373 0.23788919155142 0.29092735992944 0.2600416812048 0.15672004994201 0.011024952795997 -0.13909551563129 -0.25869386803449 -0.32379573893248 -0.32499470025823 -0.26679955615544 -0.1639864788992 -0.036630822915948 0.094689680137716 0.21250174422056 0.30448035074256 0.36399263693149 0.38954145141979 0.38357146247509 0.35106840195921 0.29825291367353 0.23153969711678 0.15681820952253 0.079041453144954 0.0020583281223153 -0.071372247589073 -0.13946649859124 -0.20124003917831 -0.25632725719569 -0.30480708223305 -0.34705724974587 -0.38363403348752 -0.41518299066267 -0.44237698237703 -0.46587161284976 -0.48627713134849 -0.50414196928215 -0.51994695413457 -0.5341035939732 -0.54695747789536 -0.55879295090617 -0.56984130504798 -0.58028704491096 -0.59027635731736 -0.59992272819385 -0.60931416611275 -0.6185174561669 -0.62758339413481 -0.63654970850926 -0.64544454562285 -0.65428834692643 -0.66309610994617 -0.67187852529406 -0.68064331666717 -0.689395893729 -0.6981401017997 -0.70687857999133 -0.71561318731706 -0.72434519309035 -0.73307547686084 -0.74180462608233 -0.75053303838071 -0.75926097076901 -0.76798859726032 -0.77671603313452 -0.78544335341912 -0.79417060449137 -0.80289781448471 -0.8116249987235 -0.82035216740398 -0.82907932774713 -0.83780648379895 -0.84653363731393 -0.85526078939692 -0.86398794083498
-0 -0.020739995007325 -0.067410820555902 -0.10314720155812 -0.09330166575456 -0.02866188894824 0.065772089837511 0.14226542345736 0.15617802915339 0.091844758463262 -0.026175834526042 -0.14322132404332 -0.2011085830418 -0.16743892534735 -0.052538539369529 0.094450041019993 0.20811415872575 0.23669719034435 0.1651366175303 0.021031668215698 -0.13811448806412 -0.24952636889191 -0.27029782741006 -0.19271604933497 -0.044770081985284 0.12253590270615 0.25458674586174 0.31134768823901 0.27829412918928 0.16772030400297 0.011798799421307 -0.14885869533453 -0.27685171237824 -0.34652311423277 -0.34780623121823 -0.2855263425631 -0.17549676702839 -0.039201957615601 0.1013359933494 0.22741734165488 0.3258519698556 0.38954145141979 0.41688354922079 0.41049452394247 0.3757100583124 0.31918742604794 0.24779157742453 0.16782535345064 0.084589409939656 0.0022028031419101 -0.076381899236529 -0.14925571776303 -0.21536517223575 -0.27431898801089 -0.32620163478318 -0.37141736143748 -0.41056148684371 -0.44432488017054 -0.47342763096136 -0.498571360604 -0.5204091520494 -0.53952793136516 -0.55644227554251 -0.5715925765938 -0.58534868067775 -0.5980148911092 -0.60983873442779 -0.62101766568772 -0.63170813263309 -0.64203158682117 -0.6520822141874 -0.6619314875017 -0.67163376792218 -0.6812294321223 -0.69074860203898 -0.70021315391812 -0.70963913796932 -0.71903799518366 -0.72841799138812 -0.73778491595306 -0.74714288410345 -0.75649472019185 -0.76584241371644 -0.77518732308441 -0.78453038958139 -0.79387224189485 -0.80321330556021 -0.81255385563039 -0.82189407833251 -0.83123409703802 -0.84057399204065 -0.84991381297287 -0.85925358994284 -0.86859333935054 -0.87793307210788 -0.88727279594269 -0.89661251518496 -0.90595223171232 -0.91529194670719 -0.92463166101185
-0 -0.020422140410708 -0.066377703664221 -0.10156640020634 -0.091871753967133 -0.028222625913378 0.064764087613953 0.14008510862268 0.15378449412894 0.090437174775684 -0.0257746719741 -0.14102635937892 -0.19802645657472 -0.16487280939334 -0.051733350350329 0.093002529596857 0.20492466702391 0.23306964415012 0.16260578601692 0.020709343527841 -0.13599778915098 -0.24570220676933 -0.26615532849106 -0.18976254418218 -0.044083949884243 0.12065795625959 0.25068503000397 0.30657607215048 0.27402908148106 0.16514987572878 0.011617974757207 -0.14657733410268 -0.27260877069336 -0.34121241070299 -0.3424758630438 -0.28115045624263 -0.17280715914412 -0.038601160825626 0.099782950001152 0.2239320154834 0.32085806573948 0.38357146247509 0.41049452394247 0.40420341484262 0.36995204491906 0.31429566062004 0.2439940021667 0.16525331522187 0.083293019426304 0.0021690436784266 -0.075211294433485 -0.14696827189115 -0.21206455379672 -0.27011486205773 -0.32120237181309 -0.36572513655726 -0.40426935149164 -0.43751529774279 -0.46617202898973 -0.49093041379308 -0.51243352616124 -0.53125929711876 -0.5479144174128 -0.56283252974719 -0.57637781213552 -0.58884990423637 -0.60049253907602 -0.61150014557503 -0.62202677380889 -0.63219201400679 -0.64208860864031 -0.65178693511035 -0.66134052145312 -0.67078912554196 -0.68016240767454 -0.68948190882833 -0.69876343323249 -0.7080182465371 -0.71725448788971 -0.72647785793459 -0.7356924088281 -0.74490092163766 -0.75410535537104 -0.7633070476169 -0.77250692523502 -0.78170560727782 -0.79090351275909 -0.80010091251637 -0.80929798992274 -0.81849486645888 -0.82769162118797 -0.83688830298184 -0.8460849414872 -0.8552815528527 -0.86447814782302 -0.87367473400757 -0.88287131566994 -0.89206789465902 -0.9012644721391 -0.91046104893954
-0 -0.01869161003874 -0.060752992938397 -0.092959871370787 -0.084086729607851 -0.025831098368392 0.059276111408974 0.12821458328809 0.14075311091074 0.082773713720339 -0.02359057903469 -0.12907607438209 -0.18124610002718 -0.15090182503868 -0.047349572145673 0.085121685625537 0.18755977024432 0.21331979962481 0.14882690458232 0.018954476151665 -0.12447361490121 -0.22488190474796 -0.24360187080485 -0.17368245465362 -0.040348366215894 0.11043364804666 0.2294424937421 0.28059744339241 0.25080841808494 0.15115541334004 0.010633491359592 -0.13415667087123 -0.24950846152585 -0.31229876952049 -0.31345515949637 -0.25732634212748 -0.15816383423409 -0.035330177478213 0.091327547085061 0.20495647490555 0.29366921008154 0.35106840195921 0.3757100583124 0.36995204491906 0.33860306596638 0.28766288973793 0.22331844990647 0.15125008758224 0.076234939470369 0.0019852433573949 -0.068838043309235 -0.1345144813918 -0.19409463762816 -0.24722588160269 -0.29398434036331 -0.3347343371662 -0.37001239423142 -0.40044114705546 -0.42666956556011 -0.44932997551845 -0.46901095816384 -0.4862414718289 -0.50148527132414 -0.51513925335838 -0.52753673624585 -0.53895196879387 -0.549608030591 -0.5596828750491 -0.56931749835563 -0.57862135690855 -0.58767933437228 -0.59655584451082 -0.60529987950418 -0.6139478282249 -0.62252683761773 -0.63105662332182 -0.63955165034831 -0.64802222971913 -0.65647581088716 -0.66491761143572 -0.67335134014975 -0.68177954243469 -0.69020401129602 -0.69862597097788 -0.70704626979983 -0.71546547435707 -0.72388396815701 -0.73230199908698 -0.74071973498139 -0.74913728702691 -0.75755472758705 -0.76597210139236 -0.77438943557734 -0.78280674492223 -0.79122403926124 -0.79964132555896 -0.80805860771771 -0.8164758874297 -0.82489316576054 -0.83331044346935
-0 -0.015879603872613 -0.051613181525718 -0.078974787637752 -0.071436540477185 -0.021945012165053 0.050358485241908 0.10892570458549 0.11957790904412 0.070321057534361 -0.0200415613968 -0.10965759109951 -0.15397904546064 -0.12819982870936 -0.040226200292679 0.072315795477283 0.15934287350021 0.18122750844932 0.12643706376585 0.016102923840028 -0.10574753555883 -0.19105018551719 -0.20695387946737 -0.14755329122565 -0.034278270897348 0.093819771627697 0.19492466965755 0.23838375824793 0.21307625821698 0.12841526663921 0.0090337659636175 -0.11397385168471 -0.21197186992902 -0.26531586843571 -0.26629828860718 -0.21861361169551 -0.13436932556401 -0.030015029306751 0.077588033741473 0.17412238035578 0.2494889801367 0.29825291367353 0.31918742604794 0.31429566062004 0.28766288973793 0.24438626359217 0.18972194019728 0.12849569788403 0.06476599059862 0.0016865790609172 -0.058481899464565 -0.11427783241811 -0.1648946213272 -0.21003268625719 -0.24975670153857 -0.28437618085035 -0.31434693085156 -0.34019791641043 -0.3624804750127 -0.38173180397706 -0.3984519371055 -0.41309025509714 -0.42604074448764 -0.4376405919881 -0.44817297078599 -0.457870871106 -0.46692381196182 -0.47548297506982 -0.48366814484666 -0.49157231083348 -0.49926758661299 -0.50680869540346 -0.51423725889559 -0.52158419154136 -0.52887255624056 -0.53611910256902 -0.54333611939038 -0.55053236651416 -0.55771417268147 -0.56488597053115 -0.5720509108905 -0.57921115622869 -0.58636822980758 -0.59352317169336 -0.6006767025826 -0.60782930383067 -0.61498130124929 -0.62213290543311 -0.62928425896715 -0.63643545631093 -0.64358655894143 -0.65073760485984 -0.65788861711849 -0.66503960827404 -0.67219058668123 -0.67934155825688 -0.68649252631624 -0.69364349229693 -0.70079445710426 -0.70794542138313
-0 -0.012327653821428 -0.040068344246855 -0.061309705860991 -0.055457613947281 -0.017036351488866 0.039094298448111 0.084561201221205 0.09283072041415 0.054591642247158 -0.015558664619256 -0.085129379347921 -0.11953701008036 -0.099524088949152 -0.031228403160283 0.056140197174729 0.12370105697724 0.1406905364268 0.09815561929673 0.012501021574917 -0.082093925093853 -0.14831607692919 -0.16066243235924 -0.11454856865663 -0.026610906708348 0.072834163591847 0.15132391639433 0.18506207534557 0.16541535733106 0.099691337719368 0.0070130930466935 -0.088480178695576 -0.16455799863322 -0.20597001069074 -0.20673268310236 -0.16971411549391 -0.10431359264752 -0.023301267065722 0.060233141098671 0.13517468350019 0.19368328102256 0.23153969711678 0.24779157742453 0.2439940021667 0.22331844990647 0.18972194019728 0.14728493354392 0.099753778102044 0.050279132773495 0.0013093250292795 -0.045400667245993 -0.088716165013614 -0.12801098976045 -0.16305257159649 -0.19389111849692 -0.22076691211605 -0.24403380427201 -0.26410244096275 -0.2814008364963 -0.29634602788639 -0.3093262013661 -0.3206902201525 -0.33074394386657 -0.33974913729042 -0.34792563342837 -0.35545430724787 -0.36248228614656 -0.36912693551206 -0.37548124638077 -0.38161740839176 -0.38759140476038 -0.39344571821457 -0.39921266050457 -0.40491623113725 -0.4105743343026 -0.41619997303105 -0.42180268741302 -0.42738927786371 -0.4329646575113 -0.43853226750191 -0.44409455388574 -0.44965319543082 -0.45520937467576 -0.46076389904476 -0.46631732802893 -0.47187003531409 -0.47742227383439 -0.48297420707864 -0.48852594573847 -0.49407756314467 -0.49962910702307 -0.50518060687473 -0.51073208059565 -0.51628353793381 -0.52183498537517 -0.52738642751306 -0.53293786692118 -0.5384893047156 -0.54404074159911 -0.54959217807237
-0 -0.0083493268064299 -0.027137661841869 -0.041524103292854 -0.037560573119423 -0.011538453969441 0.026477955881923 0.057271976839008 0.062872792636896 0.036974064053369 -0.010537639802313 -0.057656794983071 -0.080960544243187 -0.067406106286365 -0.02115050823174 0.038022876045926 0.083780787971879 0.095287496243407 0.066479263229425 0.008466746069864 -0.05560092937066 -0.10045215536284 -0.10881414847581 -0.077581951016549 -0.018023150223217 0.049329437970126 0.10248931791133 0.12533964442208 0.11203323009921 0.067519381258289 0.0047498580523868 -0.059926238887127 -0.11145255448467 -0.13950026148461 -0.14001680756086 -0.11494471165793 -0.070649962108208 -0.015781583142564 0.040794962844955 0.091551695468371 0.13117865196604 0.15681820952253 0.16782535345064 0.16525331522187 0.15125008758224 0.12849569788403 0.099753778102044 0.067561671151275 0.034053268947259 0.00088678533025407 -0.030749160672235 -0.060086068723338 -0.086699837925912 -0.11043295233693 -0.13131941703142 -0.14952197100955 -0.16528027256425 -0.1788724457967 -0.19058837809239 -0.20071052208735 -0.20950179023586 -0.21719846212952 -0.22400769169795 -0.23010676812725 -0.23564458086731 -0.24074363369995 -0.24550357370669 -0.2500038906259 -0.25430756582971 -0.25846349222975 -0.26250958638072 -0.26647462116871 -0.27038048083597 -0.27424341987252 -0.27807556450574 -0.28188572148444 -0.2856803521624 -0.28946406235432 -0.29324017964492 -0.29701103466857 -0.30077828409674 -0.30454306493274 -0.30830617809143 -0.31206817042856 -0.31582942087871 -0.31959018253343 -0.32335062670104 -0.32711086410998 -0.33087096972993 -0.33463099322671 -0.33839096692425 -0.34215091080317 -0.34591083698415 -0.34967075206935 -0.3534306604516 -0.35719056524189 -0.36095046818335 -0.36471037003187 -0.36847027126346 -0.37223017221718
-0 -0.004208330943018 -0.013678259900229 -0.020929492020101 -0.018931744529898 -0.0058157542518031 0.01334574674451 0.028866929979768 0.031689922416744 0.018636124977776 -0.005311311519427 -0.02906089077932 -0.040806734650727 -0.033974859220365 -0.010660540701754 0.019164760167656 0.04222822876941 0.048027982161991 0.033507700321657 0.0042675140521563 -0.028024667970945 -0.050631137516469 -0.054845852687939 -0.039103814313655 -0.0090842510460386 0.024863633323288 0.051657933375289 0.06317523750563 0.05646837401426 0.034031953472449 0.0023940821913222 -0.030204763959314 -0.056175694710505 -0.070312646824732 -0.070573002765585 -0.057935854952263 -0.035609867544537 -0.0079544286872948 0.020561981635152 0.04614501765922 0.066118286291891 0.079041453144954 0.084589409939656 0.083293019426304 0.076234939470369 0.06476599059862 0.050279132773495 0.034053268947259 0.017163949710449 0.00044696850795788 -0.015498572199754 -0.030285323369784 -0.043699524423608 -0.055661782227812 -0.066189236440814 -0.075363912785872 -0.083306606799359 -0.09015750202997 -0.096062711102425 -0.1011645992871 -0.10559568297031 -0.10947505471359 -0.11290712680219 -0.115981258724 -0.11877249558069 -0.12134258324322 -0.12374174706585 -0.12601005244946 -0.12817924404404 -0.1302739654595 -0.13231332786664 -0.13431183373128 -0.13628051341982 -0.13822755972132 -0.14015908464686 -0.14207952708287 -0.1439921437608 -0.1458992561603 -0.14780254149179 -0.14970317447042 -0.15160199011223 -0.15349956150369 -0.15539629233181 -0.15729245822959 -0.15918825019231 -0.16108379578632 -0.16297918135655 -0.16487446271372 -0.16676967764498 -0.16866485118349 -0.17055999962158 -0.17245513303012 -0.17435025751832 -0.17624537641389 -0.17814049193096 -0.18003560563756 -0.1819307184123 -0.18382583063616 -0.18572094254906 -0.18761605432191
-0 -0.00010958965939224 -0.00035619723444793 -0.00054502745454014 -0.00049300386847538 -0.00015144876583946 0.00034753821880204 0.00075172724460538 0.00082524113498713 0.0004853056036608 -0.00013831251111698 -0.00075677820144461 -0.0010626531543823 -0.00088474345299209 -0.00027761244071849 0.00049907185711997 0.0010996704561117 0.0012507025416244 0.0008725781111298 0.00011113085395609 -0.00072979379689994 -0.0013184916277265 -0.0014282475395906 -0.0010183071981734 -0.00023656408952834 0.00064747690807764 0.001345230543928 0.0016451540655928 0.001470499815354 0.00088623025137459 6.2344586358952e-05 -0.00078656594244712 -0.0014628781179058 -0.0018310202122468 -0.0018378001730591 -0.0015087146654544 -0.00092732090418965 -0.00020714224767584 0.00053545707177912 0.0012016680333359 0.00172179435801 0.0020583281223153 0.0022028031419101 0.0021690436784266 0.0019852433573949 0.0016865790609172 0.0013093250292795 0.00088678533025407 0.00044696850795788 1.1639561434072e-05 -0.00040360020906985 -0.00078866379988128 -0.0011379846457018 -0.0014494952602602 -0.0017236419794921 -0.0019625608452617 -0.0021693975088656 -0.002347802507194 -0.0025015807769292 -0.0026344396694417 -0.0027498300601113 -0.0028508532528589 -0.0029402282607403 -0.0030202821050789 -0.0030929690445209 -0.0031598970108238 -0.0032223739285634 -0.0032814431457311 -0.0033379313286296 -0.0033924802245104 -0.0034455875097028 -0.0034976308446889 -0.003548897472585 -0.0035996007428106 -0.0036498998189915 -0.003699910294711 -0.0037497169789095 -0.0037993803255222 -0.0038489440109901 -0.0038984386262136 -0.0039478859159473 -0.0039973008040058 -0.0040466938028518 -0.0040960720902779 -0.0041454406400158 -0.0041948027740358 -0.0042441607408572 -0.0042935159938534 -0.0043428695170443 -0.0043922219623218 -0.004441573753956 -0.004490925154204 -0.0045402763221564 -0.0045896273444704 -0.0046389782788043 -0.0046883291659917 -0.0047376800289123 -0.0047870308774873 -0.0048363817179647 -0.004885732554795
0 0.0038000065288655 0.012351090640964 0.018898752830781 0.017094842062215 0.0052514653496523 -0.012050840451572 -0.026066039928113 -0.02861512407494 -0.016827905777181 0.0047959675044441 0.026241181169289 0.036847353545641 0.03067835885599 0.009626173610493 -0.017305248742868 -0.038130923446602 -0.043367940462618 -0.030256527282108 -0.0038534472406748 0.02530550061315 0.045718517799955 0.04952428911066 0.035309663547722 0.0082028276179353 -0.022451173693116 -0.046645686081195 -0.057045493387899 -0.050989381023993 -0.030729913387612 -0.0021617900495108 0.027274067035688 0.05072509970197 0.06349037673453 0.063725470953228 0.052314475751786 0.032154726183258 0.0071826292547796 -0.018566901110671 -0.041667675559256 -0.059702985099932 -0.071372247589073 -0.076381899236529 -0.075211294433485 -0.068838043309235 -0.058481899464565 -0.045400667245993 -0.030749160672235 -0.015498572199754 -0.00040360020906985 0.01399478233642 0.027346809956787 0.039459462757683 0.050261050933956 0.05976705112344 0.068051530287156 0.075223563455817 0.081409732499411 0.0867419730797 0.091348837101042 0.095349983197713 0.098852948661214 0.10195201489931 0.10472787105977 0.10724828079528 0.10956899892074 0.11173537754287 0.11378359461131 0.11574231466764 0.11763379021049 0.11947527809886 0.12127987365859 0.12305753700565 0.12481566600213 0.12655977962511 0.12829388606635 0.13002092606433 0.13174299585102 0.13346160990108 0.13517782894981 0.13689240699363 0.13860586151376 0.14031855702843 0.14203074242661 0.14374259017178 0.14545421545281 0.14716569623679 0.14887708291925 0.15058840962095 0.15229969894614 0.15401096560635 0.15572221869529 0.15743346372942 0.15914470371355 0.16085594064698 0.16256717594562 0.1642784104028 0.16598964436256 0.16770087804153 0.16941211159404
0 0.007425485718988 0.024134918314413 0.036929520564151 0.033404549344086 0.010261740515811 -0.023548207876808 -0.050934914391991 -0.055916007920379 -0.032882936668595 0.0093716650070105 0.051277152957974 0.072002375642586 0.059947716888568 0.01881023470098 -0.033815699111986 -0.074510563430294 -0.08474407086433 -0.059123427692252 -0.0075299127086098 0.049448765939591 0.089337267827857 0.096774018344655 0.068997618931501 0.016028914389914 -0.043871206106197 -0.091149021249633 -0.11147099176457 -0.099636913183604 -0.060048458146617 -0.0042242930421716 0.053295486135043 0.099120488496547 0.12406475677192 0.12452414776252 0.10222624346575 0.06283264469628 0.014035373505549 -0.036281058465525 -0.081421631109947 -0.11666392146248 -0.13946649859124 -0.14925571776303 -0.14696827189115 -0.1345144813918 -0.11427783241811 -0.088716165013614 -0.060086068723338 -0.030285323369784 -0.00078866379988128 0.027346809956787 0.05343763102813 0.077106624675614 0.098213703870357 0.1167891110744 0.13297757844995 0.14699224644209 0.15908046511738 0.16950004623609 0.17850218945346 0.18632071633617 0.19316576247642 0.19922156051739 0.20464578284989 0.20957084451881 0.2141056944375 0.21833895388017 0.22234131715918 0.22616879684778 0.22986487592673 0.23346327553813 0.23698958488931 0.24046326676235 0.24389877711117 0.24730690041342 0.25069546896372 0.25407022917629 0.25743527723899 0.26079357254407 0.26414718784452 0.26749759650348 0.27084580971647 0.27419253977825 0.27753827303579 0.28088334649508 0.28422798524345 0.28757234163422 0.29091651414386 0.29426056944678 0.29760455171333 0.30094848969087 0.30429240114917 0.30763629686778 0.31098018271835 0.31432406260763 0.3176679393024 0.32101181435292 0.32435568843142 0.32769956196125 0.33104343524397
0 0.01071443717381 0.034824936140346 0.05328661893884 0.048200341204806 0.014806947075454 -0.033978355544701 -0.073495386141657 -0.080682742724985 -0.047447691957053 0.013522632691197 0.073989211562975 0.1038942042828 0.086500206265759 0.027141803991744 -0.048793600490988 -0.10751333729154 -0.1222795460783 -0.085310816757623 -0.01086511774366 0.071350981744852 0.12890719606042 0.13963788752021 0.099558558343682 0.023128560567552 -0.063302967557006 -0.1315214248054 -0.16084455390031 -0.1437688370699 -0.086645568592349 -0.0060953483875636 0.076901519907495 0.14302367371307 0.17901644312878 0.17967931099941 0.14750505281123 0.090662947790892 0.020252025702724 -0.052350935176423 -0.1174855065556 -0.16833757470756 -0.20124003917831 -0.21536517223575 -0.21206455379672 -0.19409463762816 -0.1648946213272 -0.12801098976045 -0.086699837925912 -0.043699524423608 -0.0011379846457018 0.039459462757683 0.077106624675614 0.1112592653244 0.14171524928467 0.16851821423506 0.19187699818533 0.21209914733438 0.22954156988305 0.24457626949715 0.25756570905469 0.26884727611264 0.27872418108519 0.2874622583104 0.29528901760909 0.30239552428432 0.3089389837138 0.31504726996678 0.32082238980709 0.32634516531424 0.33167833927479 0.33687056885029 0.34195877741044 0.34697104833776 0.35192824052497 0.35684591519091 0.36173537376848 0.3666049079165 0.37146042813687 0.37630620461791 0.3811452281918 0.38597962481468 0.39081085356828 0.39563994224231 0.40046759260012 0.40529429091693 0.41012036197742 0.41494602561638 0.41977142392821 0.42459665311925 0.42942177692411 0.43424683682312 0.43907185845681 0.44389685737927 0.44872184206285 0.45354681814473 0.45837178961717 0.46319675871706 0.46802172641442 0.47284669332007 0.47767165986916
0 0.013647394943731 0.04435787430433 0.067873237023783 0.061394647443778 0.018860183822215 -0.043279551705294 -0.093613929032963 -0.10276874438191 -0.060435968852307 0.017224302688235 0.094242933659959 0.13233408486242 0.11017867373459 0.034571570354259 -0.062150304848008 -0.13694391519909 -0.15575220908009 -0.10866370210368 -0.013839322640327 0.090882517830721 0.16419410438335 0.1778622030427 0.12681160416582 0.029459746268048 -0.080631449449569 -0.16752394911316 -0.20487395800792 -0.18312395399451 -0.1103638273781 -0.0077638820794105 0.097952453957743 0.18217481047317 0.22802019939715 0.22886451996007 0.18788291715699 0.1154809193608 0.025795792041346 -0.066681420259076 -0.14964585466493 -0.21441810975564 -0.25632725719569 -0.27431898801089 -0.27011486205773 -0.24722588160269 -0.21003268625719 -0.16305257159649 -0.11043295233693 -0.055661782227812 -0.0014494952602602 0.050261050933956 0.098213703870357 0.14171524928467 0.18050821943915 0.21464819734066 0.24440118807673 0.2701589251908 0.29237601652612 0.31152629760627 0.32807145148265 0.34244122179594 0.35502181943216 0.36615184791678 0.37612109534863 0.38517292902817 0.39350758755327 0.40128794909457 0.40864394363069 0.41567851738468 0.42247158828168 0.42908513283898 0.43556618178723 0.44195050602195 0.44826467432528 0.45452850762628 0.46075640099918 0.46695891585198 0.47314358062063 0.47931583440988 0.48547948675892 0.49163724558065 0.49779096936421 0.50394196724526 0.51009113308706 0.51623908627725 0.52238624050669 0.52853287578749 0.53467917311082 0.54082525501842 0.54697120269155 0.55311706896533 0.55926288649907 0.56540867510464 0.5715544455736 0.57770020508623 0.58384595872764 0.58999170934705 0.59613745817999 0.60228320600451 0.60842895337486
0 0.01622856140385 0.052747391708097 0.08071027469052 0.073006373012364 0.022427258279597 -0.051465123217754 -0.11131936914194 -0.12220565796438 -0.071866377104545 0.020481978792804 0.11206733901126 0.15736276636433 0.13101704607134 0.041110179241888 -0.073904949820275 -0.16284446561817 -0.18521001988021 -0.12921554400896 -0.016456788873059 0.10807135920323 0.19524855227843 0.21150173314421 0.15079580487051 0.035031542885954 -0.095881480228932 -0.19920817899736 -0.24362228991612 -0.21775865241453 -0.1312372182936 -0.0092322848116769 0.11647845030243 0.21662999496887 0.27114623871383 0.27215024776877 0.22341769036421 0.13732211887667 0.030674615692589 -0.07929304659476 -0.17794875514884 -0.25497155131905 -0.30480708223305 -0.32620163478318 -0.32120237181309 -0.29398434036331 -0.24975670153857 -0.19389111849692 -0.13131941703142 -0.066189236440814 -0.0017236419794921 0.05976705112344 0.1167891110744 0.16851821423506 0.21464819734066 0.25524515595329 0.29062540537812 0.3212547687184 0.34767383495315 0.37044605732171 0.39012043816333 0.4072079996247 0.42216799763738 0.43540307667144 0.44725783318468 0.45802166315307 0.46793267680896 0.477184557885 0.48593181034659 0.49429685089735 0.50237471254254 0.51023909357553 0.5179459197685 0.52553772745724 0.53304611044515 0.54049463844393 0.54790042910474 0.55527604134152 0.56263042746239 0.56997005528382 0.5772994548528 0.5846218462367 0.5919394394254 0.59925379115474 0.60656596434658 0.61387669553494 0.62118647665307 0.6284956406725 0.63580440281569 0.64311290880103 0.6504212551638 0.65772950473194 0.66503769634173 0.67234585355208 0.6796539891956 0.6869621118106 0.69427022744393 0.7015783394837 0.70888644939913 0.71619455811541 0.72350266629162
0 0.018478047973458 0.060058856124228 0.091897753015163 0.083125991843653 0.025535963668673 -0.05859884878964 -0.12674966019428 -0.1391449281486 -0.081827977894664 0.023321043517449 0.12760130827225 0.17917526228951 0.1491776875597 0.04680857688648 -0.084149122911849 -0.18541679530454 -0.21088250198812 -0.14712647422634 -0.018737910694495 0.12305143445681 0.22231250361435 0.24081858362264 0.17169803578107 0.039887363637627 -0.10917188205087 -0.2268209853367 -0.27739146116832 -0.2479427920824 -0.14942837847335 -0.010511997792628 0.13262385611406 0.24665768825173 0.30873058197188 0.30987375954759 0.25438624520901 0.15635672425148 0.034926510503918 -0.090284078944424 -0.20261473291633 -0.29031387563551 -0.34705724974587 -0.37141736143748 -0.36572513655726 -0.3347343371662 -0.28437618085035 -0.22076691211605 -0.14952197100955 -0.075363912785872 -0.0019625608452617 0.068051530287156 0.13297757844995 0.19187699818533 0.24440118807673 0.29062540537812 0.33090981074938 0.36578479634508 0.39586588370405 0.42179462790492 0.44419613004628 0.46365224649279 0.4806858919332 0.49575552252077 0.50925350019816 0.52150933493204 0.53279414208419 0.54332845243453 0.55328818617795 0.5628127285419 0.57201028532394 0.58096477034532 0.58973986140686 0.59838399092562 0.60693313201096 0.61541412143867 0.62384644958573 0.63224441619246 0.64061821447161 0.64897520876191 0.6573205570329 0.66565792569455 0.67398983106967 0.68231804567761 0.69064377977485 0.69896787198843 0.70729088243989 0.71561319025485 0.72393504048838 0.7322565990573 0.74057797587791 0.74889924248692 0.75722044310381 0.76554160455306 0.77386274144603 0.78218386350456 0.79050497761369 0.79882608763113 0.80714719522977 0.81546830146304 0.82378940708139
0 0.020425471821218 0.066388531685926 0.10158296846835 0.091886740766783 0.028227229796747 -0.064774652410679 -0.14010796034115 -0.15380958059244 -0.090451927556171 0.025778876529127 0.14104936464117 0.19805876011419 0.1648997046648 0.051741789476866 -0.093017700856987 -0.20495809585046 -0.23310766419339 -0.16263231147477 -0.020712721789047 0.13601997411568 0.2457422875296 0.26619874571574 0.18979349965117 0.04409114118403 -0.12067763887735 -0.25072592359921 -0.30662608310567 -0.27407378313054 -0.16517681619735 -0.011619869967133 0.14660124488096 0.27265324065124 0.34126807179377 0.34253173023826 0.2811963195834 0.17283534872536 0.03860745773233 -0.099799227333581 -0.22396854492914 -0.32091040647904 -0.38363403348752 -0.41056148684371 -0.40426935149164 -0.37001239423142 -0.31434693085156 -0.24403380427201 -0.16528027256425 -0.083306606799359 -0.0021693975088656 0.075223563455817 0.14699224644209 0.21209914733438 0.2701589251908 0.3212547687184 0.36578479634508 0.40433529889674 0.43758666847239 0.46624807441718 0.49101049799127 0.51251711810609 0.53134596006253 0.54800379726291 0.56292434315006 0.57647183514498 0.5889459617857 0.60059049585801 0.61159989799916 0.62212824341444 0.63229514184146 0.64219335088066 0.6518932594134 0.6614484042078 0.67089854962279 0.68027336079444 0.68959438221414 0.69887742068918 0.70813374370735 0.71737149174392 0.72659636637312 0.73581242041228 0.74502243538253 0.75422837061117 0.7634315639051 0.77263294227526 0.78183312487508 0.79103253078668 0.8002314308918 0.80943000859342 0.81862838539205 0.82782664036375 0.83702482238834 0.84622296111736 0.85542107270209 0.86461916788897 0.87381725428864 0.88301533616539 0.89221341536843 0.9014114930622 0.91060957007624
